<?xml version="1.0" ?>
<PMML version="2.0"> 
<Header copyright="www.sap.com" 
description="Decision tree model"> 
<Timestamp>20110202064723</Timestamp> 
</Header> 
<DataDictionary numberOfFields="19"> 
<DataField name="ASIALEVELCHANGE" displayName="亚水变" optype="categorical"> 
<Value value="01" property ="valid" /> 
<Value value="02" property ="valid" /> 
<Value value="03" property ="valid" /> 
</DataField> 
<DataField name="ASIALEVELCHANGEVOL" displayName="亚水变量" optype="continuous"> 
</DataField> 
<DataField name="ASIAODDCHANGE" displayName="亚盘变" optype="categorical"> 
<Value value="02" property ="valid" /> 
<Value value="03" property ="valid" /> 
<Value value="01" property ="valid" /> 
</DataField> 
<DataField name="ASIAODDCHANGEVOL" displayName="亚盘变量" optype="continuous"> 
</DataField> 
<DataField name="ASIA_EARLY_DOWN" displayName="亚初下" optype="continuous"> 
</DataField> 
<DataField name="ASIA_EARLY_UD_MOUTH" displayName="亚初盘" optype="categorical"> 
<Value value="000735" property ="valid" /> 
<Value value="000736" property ="valid" /> 
<Value value="000738" property ="valid" /> 
<Value value="000740" property ="valid" /> 
<Value value="000741" property ="valid" /> 
<Value value="006836" property ="valid" /> 
<Value value="006837" property ="valid" /> 
<Value value="000742" property ="valid" /> 
<Value value="000747" property ="valid" /> 
<Value value="000748" property ="valid" /> 
<Value value="000749" property ="valid" /> 
<Value value="000998" property ="valid" /> 
<Value value="001456" property ="valid" /> 
<Value value="000743" property ="valid" /> 
<Value value="000750" property ="valid" /> 
<Value value="001209" property ="valid" /> 
<Value value="001471" property ="valid" /> 
<Value value="000737" property ="valid" /> 
<Value value="000746" property ="valid" /> 
<Value value="002083" property ="valid" /> 
<Value value="000999" property ="valid" /> 
<Value value="004423" property ="valid" /> 
<Value value="007101" property ="valid" /> 
<Value value="001000" property ="valid" /> 
<Value value="001620" property ="valid" /> 
<Value value="005041" property ="valid" /> 
<Value value="005401" property ="valid" /> 
<Value value="000739" property ="valid" /> 
<Value value="002645" property ="valid" /> 
<Value value="007244" property ="valid" /> 
<Value value="007293" property ="valid" /> 
<Value value="003323" property ="valid" /> 
<Value value="007976" property ="valid" /> 
<Value value="007977" property ="valid" /> 
<Value value="007989" property ="valid" /> 
<Value value="009005" property ="valid" /> 
<Value value="002568" property ="valid" /> 
<Value value="001210" property ="valid" /> 
<Value value="009186" property ="valid" /> 
<Value value="000744" property ="valid" /> 
<Value value="000745" property ="valid" /> 
<Value value="005458" property ="valid" /> 
<Value value="002331" property ="valid" /> 
<Value value="001545" property ="valid" /> 
<Value value="002044" property ="valid" /> 
<Value value="002324" property ="valid" /> 
<Value value="003350" property ="valid" /> 
<Value value="005422" property ="valid" /> 
<Value value="005417" property ="valid" /> 
<Value value="005423" property ="valid" /> 
<Value value="005459" property ="valid" /> 
<Value value="005460" property ="valid" /> 
</DataField> 
<DataField name="ASIA_EARLY_UP" displayName="亚初上" optype="continuous"> 
</DataField> 
<DataField name="ASIA_FINAL_DOWN" displayName="亚终下" optype="continuous"> 
</DataField> 
<DataField name="ASIA_FINAL_UD_MOUTH" displayName="亚终盘" optype="categorical"> 
<Value value="000735" property ="valid" /> 
<Value value="000736" property ="valid" /> 
<Value value="000747" property ="valid" /> 
<Value value="000749" property ="valid" /> 
<Value value="000750" property ="valid" /> 
<Value value="000998" property ="valid" /> 
<Value value="000999" property ="valid" /> 
<Value value="001000" property ="valid" /> 
<Value value="001209" property ="valid" /> 
<Value value="006836" property ="valid" /> 
<Value value="006837" property ="valid" /> 
<Value value="007101" property ="valid" /> 
<Value value="007244" property ="valid" /> 
<Value value="007251" property ="valid" /> 
<Value value="007293" property ="valid" /> 
<Value value="007976" property ="valid" /> 
<Value value="007977" property ="valid" /> 
<Value value="007992" property ="valid" /> 
<Value value="009005" property ="valid" /> 
<Value value="009185" property ="valid" /> 
<Value value="009186" property ="valid" /> 
<Value value="000737" property ="valid" /> 
<Value value="000738" property ="valid" /> 
<Value value="000739" property ="valid" /> 
<Value value="000740" property ="valid" /> 
<Value value="000741" property ="valid" /> 
<Value value="000743" property ="valid" /> 
<Value value="000744" property ="valid" /> 
<Value value="000745" property ="valid" /> 
<Value value="000746" property ="valid" /> 
<Value value="000748" property ="valid" /> 
<Value value="000742" property ="valid" /> 
<Value value="001210" property ="valid" /> 
<Value value="001456" property ="valid" /> 
<Value value="001471" property ="valid" /> 
<Value value="001545" property ="valid" /> 
<Value value="001620" property ="valid" /> 
<Value value="002044" property ="valid" /> 
<Value value="002083" property ="valid" /> 
<Value value="002324" property ="valid" /> 
<Value value="002331" property ="valid" /> 
<Value value="002568" property ="valid" /> 
<Value value="002645" property ="valid" /> 
<Value value="003323" property ="valid" /> 
<Value value="003350" property ="valid" /> 
<Value value="004423" property ="valid" /> 
<Value value="005041" property ="valid" /> 
<Value value="005401" property ="valid" /> 
<Value value="005417" property ="valid" /> 
<Value value="005422" property ="valid" /> 
<Value value="005423" property ="valid" /> 
<Value value="005458" property ="valid" /> 
<Value value="005459" property ="valid" /> 
<Value value="005460" property ="valid" /> 
</DataField> 
<DataField name="ASIA_FINAL_UP" displayName="亚终上" optype="continuous"> 
</DataField> 
<DataField name="CHAMPIONSHIP" displayName="赛事" optype="categorical"> 
<Value value="00000051" property ="valid" /> 
<Value value="00000052" property ="valid" /> 
<Value value="00000056" property ="valid" /> 
<Value value="00000057" property ="valid" /> 
<Value value="00000058" property ="valid" /> 
<Value value="00000084" property ="valid" /> 
<Value value="00000085" property ="valid" /> 
<Value value="00000086" property ="valid" /> 
<Value value="00000087" property ="valid" /> 
<Value value="00000088" property ="valid" /> 
<Value value="00000089" property ="valid" /> 
<Value value="00000090" property ="valid" /> 
<Value value="00000091" property ="valid" /> 
<Value value="00000092" property ="valid" /> 
<Value value="00000093" property ="valid" /> 
<Value value="00000094" property ="valid" /> 
<Value value="00000095" property ="valid" /> 
<Value value="00000096" property ="valid" /> 
<Value value="00000097" property ="valid" /> 
<Value value="00000098" property ="valid" /> 
<Value value="00000099" property ="valid" /> 
<Value value="00000100" property ="valid" /> 
<Value value="00000101" property ="valid" /> 
<Value value="00000102" property ="valid" /> 
<Value value="00000103" property ="valid" /> 
<Value value="00000104" property ="valid" /> 
<Value value="00000105" property ="valid" /> 
<Value value="00000106" property ="valid" /> 
<Value value="00000108" property ="valid" /> 
<Value value="00000109" property ="valid" /> 
<Value value="00000110" property ="valid" /> 
<Value value="00000111" property ="valid" /> 
<Value value="00000112" property ="valid" /> 
<Value value="00000114" property ="valid" /> 
<Value value="00000116" property ="valid" /> 
<Value value="00000117" property ="valid" /> 
<Value value="00000118" property ="valid" /> 
<Value value="00000120" property ="valid" /> 
<Value value="00000121" property ="valid" /> 
<Value value="00000767" property ="valid" /> 
<Value value="00000768" property ="valid" /> 
<Value value="00000769" property ="valid" /> 
<Value value="00005532" property ="valid" /> 
<Value value="00005575" property ="valid" /> 
<Value value="00005576" property ="valid" /> 
<Value value="00005584" property ="valid" /> 
<Value value="00005605" property ="valid" /> 
<Value value="00005663" property ="valid" /> 
<Value value="00005694" property ="valid" /> 
<Value value="00005713" property ="valid" /> 
<Value value="00005771" property ="valid" /> 
<Value value="00005797" property ="valid" /> 
<Value value="00005816" property ="valid" /> 
<Value value="00005824" property ="valid" /> 
<Value value="00005825" property ="valid" /> 
<Value value="00005829" property ="valid" /> 
<Value value="00005830" property ="valid" /> 
<Value value="00005849" property ="valid" /> 
<Value value="00005860" property ="valid" /> 
<Value value="00005861" property ="valid" /> 
<Value value="00005897" property ="valid" /> 
<Value value="00005927" property ="valid" /> 
<Value value="00005942" property ="valid" /> 
<Value value="00005943" property ="valid" /> 
<Value value="00005968" property ="valid" /> 
<Value value="00006006" property ="valid" /> 
<Value value="00006091" property ="valid" /> 
<Value value="00006129" property ="valid" /> 
<Value value="00006131" property ="valid" /> 
<Value value="00006136" property ="valid" /> 
<Value value="00006163" property ="valid" /> 
<Value value="00006165" property ="valid" /> 
<Value value="00006183" property ="valid" /> 
<Value value="00006188" property ="valid" /> 
<Value value="00006196" property ="valid" /> 
<Value value="00006201" property ="valid" /> 
<Value value="00006209" property ="valid" /> 
<Value value="00006223" property ="valid" /> 
<Value value="00006231" property ="valid" /> 
<Value value="00006242" property ="valid" /> 
<Value value="00006252" property ="valid" /> 
<Value value="00006284" property ="valid" /> 
<Value value="00006297" property ="valid" /> 
<Value value="00006301" property ="valid" /> 
<Value value="00006314" property ="valid" /> 
<Value value="00006327" property ="valid" /> 
<Value value="00006335" property ="valid" /> 
<Value value="00006347" property ="valid" /> 
<Value value="00006356" property ="valid" /> 
<Value value="00006359" property ="valid" /> 
<Value value="00006366" property ="valid" /> 
<Value value="00006369" property ="valid" /> 
<Value value="00006383" property ="valid" /> 
<Value value="00006389" property ="valid" /> 
<Value value="00006410" property ="valid" /> 
<Value value="00006435" property ="valid" /> 
<Value value="00006460" property ="valid" /> 
<Value value="00006471" property ="valid" /> 
<Value value="00006472" property ="valid" /> 
<Value value="00006474" property ="valid" /> 
<Value value="00006479" property ="valid" /> 
<Value value="00006480" property ="valid" /> 
<Value value="00006481" property ="valid" /> 
<Value value="00006485" property ="valid" /> 
<Value value="00006487" property ="valid" /> 
<Value value="00006488" property ="valid" /> 
<Value value="00006489" property ="valid" /> 
<Value value="00006490" property ="valid" /> 
<Value value="00006511" property ="valid" /> 
<Value value="00006513" property ="valid" /> 
<Value value="00006514" property ="valid" /> 
<Value value="00006515" property ="valid" /> 
<Value value="00006552" property ="valid" /> 
<Value value="00006571" property ="valid" /> 
<Value value="00006576" property ="valid" /> 
<Value value="00006613" property ="valid" /> 
<Value value="00006616" property ="valid" /> 
<Value value="00006619" property ="valid" /> 
<Value value="00006621" property ="valid" /> 
<Value value="00006647" property ="valid" /> 
<Value value="00006662" property ="valid" /> 
<Value value="00006675" property ="valid" /> 
<Value value="00006682" property ="valid" /> 
<Value value="00006693" property ="valid" /> 
<Value value="00006695" property ="valid" /> 
<Value value="00006705" property ="valid" /> 
<Value value="00006709" property ="valid" /> 
<Value value="00006711" property ="valid" /> 
<Value value="00006746" property ="valid" /> 
<Value value="00006816" property ="valid" /> 
<Value value="00006838" property ="valid" /> 
<Value value="00007148" property ="valid" /> 
<Value value="00007217" property ="valid" /> 
<Value value="00007297" property ="valid" /> 
<Value value="00007392" property ="valid" /> 
<Value value="00007616" property ="valid" /> 
<Value value="00008015" property ="valid" /> 
<Value value="00008035" property ="valid" /> 
<Value value="00008096" property ="valid" /> 
<Value value="00008202" property ="valid" /> 
<Value value="00008242" property ="valid" /> 
<Value value="00008394" property ="valid" /> 
<Value value="00008550" property ="valid" /> 
<Value value="00008606" property ="valid" /> 
<Value value="00008691" property ="valid" /> 
<Value value="00008735" property ="valid" /> 
<Value value="00008771" property ="valid" /> 
<Value value="00008772" property ="valid" /> 
<Value value="00009209" property ="valid" /> 
<Value value="00009217" property ="valid" /> 
<Value value="00009218" property ="valid" /> 
<Value value="00009951" property ="valid" /> 
<Value value="00009959" property ="valid" /> 
<Value value="00000049" property ="valid" /> 
<Value value="00000050" property ="valid" /> 
<Value value="00000053" property ="valid" /> 
<Value value="00000054" property ="valid" /> 
<Value value="00000055" property ="valid" /> 
<Value value="00001228" property ="valid" /> 
<Value value="00001229" property ="valid" /> 
<Value value="00001271" property ="valid" /> 
<Value value="00001272" property ="valid" /> 
<Value value="00001274" property ="valid" /> 
<Value value="00001275" property ="valid" /> 
<Value value="00001277" property ="valid" /> 
<Value value="00001278" property ="valid" /> 
<Value value="00001280" property ="valid" /> 
<Value value="00001283" property ="valid" /> 
<Value value="00001284" property ="valid" /> 
<Value value="00001285" property ="valid" /> 
<Value value="00001286" property ="valid" /> 
<Value value="00001288" property ="valid" /> 
<Value value="00001291" property ="valid" /> 
<Value value="00001296" property ="valid" /> 
<Value value="00001297" property ="valid" /> 
<Value value="00001299" property ="valid" /> 
<Value value="00001457" property ="valid" /> 
<Value value="00001480" property ="valid" /> 
<Value value="00001491" property ="valid" /> 
<Value value="00001504" property ="valid" /> 
<Value value="00001554" property ="valid" /> 
<Value value="00001565" property ="valid" /> 
<Value value="00001574" property ="valid" /> 
<Value value="00001583" property ="valid" /> 
<Value value="00001599" property ="valid" /> 
<Value value="00001621" property ="valid" /> 
<Value value="00001643" property ="valid" /> 
<Value value="00001659" property ="valid" /> 
<Value value="00001664" property ="valid" /> 
<Value value="00001713" property ="valid" /> 
<Value value="00001715" property ="valid" /> 
<Value value="00001716" property ="valid" /> 
<Value value="00001717" property ="valid" /> 
<Value value="00001718" property ="valid" /> 
<Value value="00001779" property ="valid" /> 
<Value value="00001780" property ="valid" /> 
<Value value="00001781" property ="valid" /> 
<Value value="00001782" property ="valid" /> 
<Value value="00001783" property ="valid" /> 
<Value value="00001852" property ="valid" /> 
<Value value="00001878" property ="valid" /> 
<Value value="00001881" property ="valid" /> 
<Value value="00001882" property ="valid" /> 
<Value value="00001905" property ="valid" /> 
<Value value="00001917" property ="valid" /> 
<Value value="00001955" property ="valid" /> 
<Value value="00001978" property ="valid" /> 
<Value value="00001979" property ="valid" /> 
<Value value="00002019" property ="valid" /> 
<Value value="00002020" property ="valid" /> 
<Value value="00002036" property ="valid" /> 
<Value value="00002117" property ="valid" /> 
<Value value="00002118" property ="valid" /> 
<Value value="00002159" property ="valid" /> 
<Value value="00002170" property ="valid" /> 
<Value value="00002171" property ="valid" /> 
<Value value="00000059" property ="valid" /> 
<Value value="00000060" property ="valid" /> 
<Value value="00000770" property ="valid" /> 
<Value value="00000771" property ="valid" /> 
<Value value="00000772" property ="valid" /> 
<Value value="00000774" property ="valid" /> 
<Value value="00000775" property ="valid" /> 
<Value value="00001004" property ="valid" /> 
<Value value="00001005" property ="valid" /> 
<Value value="00001006" property ="valid" /> 
<Value value="00001008" property ="valid" /> 
<Value value="00001009" property ="valid" /> 
<Value value="00001010" property ="valid" /> 
<Value value="00001015" property ="valid" /> 
<Value value="00001016" property ="valid" /> 
<Value value="00001217" property ="valid" /> 
<Value value="00001218" property ="valid" /> 
<Value value="00001219" property ="valid" /> 
<Value value="00001220" property ="valid" /> 
<Value value="00001221" property ="valid" /> 
<Value value="00001222" property ="valid" /> 
<Value value="00001223" property ="valid" /> 
<Value value="00001224" property ="valid" /> 
<Value value="00001225" property ="valid" /> 
<Value value="00001226" property ="valid" /> 
<Value value="00001227" property ="valid" /> 
<Value value="00001279" property ="valid" /> 
<Value value="00001281" property ="valid" /> 
<Value value="00001282" property ="valid" /> 
<Value value="00001287" property ="valid" /> 
<Value value="00001290" property ="valid" /> 
<Value value="00001292" property ="valid" /> 
<Value value="00001294" property ="valid" /> 
<Value value="00001458" property ="valid" /> 
<Value value="00001478" property ="valid" /> 
<Value value="00001703" property ="valid" /> 
<Value value="00007638" property ="valid" /> 
<Value value="00007859" property ="valid" /> 
<Value value="00007915" property ="valid" /> 
<Value value="00008424" property ="valid" /> 
<Value value="00008553" property ="valid" /> 
<Value value="00008701" property ="valid" /> 
<Value value="00009395" property ="valid" /> 
<Value value="00009633" property ="valid" /> 
<Value value="00010119" property ="valid" /> 
<Value value="00010173" property ="valid" /> 
<Value value="00010267" property ="valid" /> 
<Value value="00000078" property ="valid" /> 
<Value value="00003302" property ="valid" /> 
<Value value="00000083" property ="valid" /> 
<Value value="00000064" property ="valid" /> 
<Value value="00000068" property ="valid" /> 
<Value value="00000069" property ="valid" /> 
<Value value="00000070" property ="valid" /> 
<Value value="00000071" property ="valid" /> 
<Value value="00000072" property ="valid" /> 
<Value value="00000074" property ="valid" /> 
<Value value="00000079" property ="valid" /> 
<Value value="00004217" property ="valid" /> 
<Value value="00004419" property ="valid" /> 
<Value value="00004569" property ="valid" /> 
<Value value="00006672" property ="valid" /> 
<Value value="00006674" property ="valid" /> 
<Value value="00000065" property ="valid" /> 
<Value value="00004162" property ="valid" /> 
<Value value="00004610" property ="valid" /> 
<Value value="00004670" property ="valid" /> 
<Value value="00006596" property ="valid" /> 
<Value value="00000061" property ="valid" /> 
<Value value="00000062" property ="valid" /> 
<Value value="00000063" property ="valid" /> 
<Value value="00000066" property ="valid" /> 
<Value value="00000075" property ="valid" /> 
<Value value="00000076" property ="valid" /> 
<Value value="00000077" property ="valid" /> 
<Value value="00000080" property ="valid" /> 
<Value value="00000081" property ="valid" /> 
<Value value="00000082" property ="valid" /> 
<Value value="00002200" property ="valid" /> 
<Value value="00002252" property ="valid" /> 
<Value value="00002345" property ="valid" /> 
<Value value="00002359" property ="valid" /> 
<Value value="00002603" property ="valid" /> 
<Value value="00002764" property ="valid" /> 
<Value value="00002850" property ="valid" /> 
<Value value="00002974" property ="valid" /> 
<Value value="00003948" property ="valid" /> 
<Value value="00004034" property ="valid" /> 
<Value value="00004180" property ="valid" /> 
<Value value="00004459" property ="valid" /> 
<Value value="00004467" property ="valid" /> 
<Value value="00004671" property ="valid" /> 
<Value value="00004740" property ="valid" /> 
<Value value="00005077" property ="valid" /> 
<Value value="00005256" property ="valid" /> 
<Value value="00005301" property ="valid" /> 
<Value value="00005392" property ="valid" /> 
<Value value="00005922" property ="valid" /> 
<Value value="00006683" property ="valid" /> 
<Value value="00003966" property ="valid" /> 
<Value value="00004161" property ="valid" /> 
<Value value="00005008" property ="valid" /> 
<Value value="00005199" property ="valid" /> 
<Value value="00000067" property ="valid" /> 
<Value value="00002656" property ="valid" /> 
<Value value="00003569" property ="valid" /> 
<Value value="00004033" property ="valid" /> 
<Value value="00004074" property ="valid" /> 
<Value value="00004643" property ="valid" /> 
<Value value="00004998" property ="valid" /> 
<Value value="00006706" property ="valid" /> 
<Value value="00008408" property ="valid" /> 
<Value value="00006703" property ="valid" /> 
<Value value="00006728" property ="valid" /> 
<Value value="00009314" property ="valid" /> 
<Value value="00000073" property ="valid" /> 
<Value value="00000773" property ="valid" /> 
<Value value="00000776" property ="valid" /> 
<Value value="00002172" property ="valid" /> 
<Value value="00002173" property ="valid" /> 
<Value value="00002201" property ="valid" /> 
<Value value="00002417" property ="valid" /> 
<Value value="00002452" property ="valid" /> 
<Value value="00002453" property ="valid" /> 
<Value value="00002454" property ="valid" /> 
<Value value="00002574" property ="valid" /> 
<Value value="00002619" property ="valid" /> 
<Value value="00002653" property ="valid" /> 
<Value value="00002654" property ="valid" /> 
<Value value="00002721" property ="valid" /> 
<Value value="00002736" property ="valid" /> 
<Value value="00002744" property ="valid" /> 
<Value value="00002766" property ="valid" /> 
<Value value="00002967" property ="valid" /> 
<Value value="00002985" property ="valid" /> 
<Value value="00003010" property ="valid" /> 
<Value value="00003069" property ="valid" /> 
<Value value="00003087" property ="valid" /> 
<Value value="00003142" property ="valid" /> 
<Value value="00003270" property ="valid" /> 
<Value value="00003284" property ="valid" /> 
<Value value="00003298" property ="valid" /> 
<Value value="00003334" property ="valid" /> 
<Value value="00003368" property ="valid" /> 
<Value value="00003622" property ="valid" /> 
<Value value="00003637" property ="valid" /> 
<Value value="00003649" property ="valid" /> 
<Value value="00003690" property ="valid" /> 
<Value value="00003788" property ="valid" /> 
<Value value="00003881" property ="valid" /> 
<Value value="00003896" property ="valid" /> 
<Value value="00003928" property ="valid" /> 
<Value value="00003969" property ="valid" /> 
<Value value="00004005" property ="valid" /> 
<Value value="00004145" property ="valid" /> 
<Value value="00004430" property ="valid" /> 
<Value value="00004614" property ="valid" /> 
<Value value="00004685" property ="valid" /> 
<Value value="00004786" property ="valid" /> 
<Value value="00004795" property ="valid" /> 
<Value value="00004913" property ="valid" /> 
<Value value="00004931" property ="valid" /> 
<Value value="00004989" property ="valid" /> 
<Value value="00005118" property ="valid" /> 
<Value value="00005163" property ="valid" /> 
<Value value="00005231" property ="valid" /> 
<Value value="00005295" property ="valid" /> 
<Value value="00005296" property ="valid" /> 
<Value value="00005297" property ="valid" /> 
<Value value="00005305" property ="valid" /> 
<Value value="00005308" property ="valid" /> 
<Value value="00005318" property ="valid" /> 
<Value value="00000107" property ="valid" /> 
<Value value="00000119" property ="valid" /> 
<Value value="00001007" property ="valid" /> 
<Value value="00001011" property ="valid" /> 
<Value value="00005200" property ="valid" /> 
<Value value="00005562" property ="valid" /> 
<Value value="00005664" property ="valid" /> 
<Value value="00005685" property ="valid" /> 
<Value value="00005686" property ="valid" /> 
<Value value="00005687" property ="valid" /> 
<Value value="00005740" property ="valid" /> 
<Value value="00005814" property ="valid" /> 
<Value value="00005841" property ="valid" /> 
<Value value="00005908" property ="valid" /> 
<Value value="00005992" property ="valid" /> 
<Value value="00006003" property ="valid" /> 
<Value value="00006130" property ="valid" /> 
<Value value="00006239" property ="valid" /> 
<Value value="00006372" property ="valid" /> 
<Value value="00006382" property ="valid" /> 
<Value value="00006401" property ="valid" /> 
<Value value="00006428" property ="valid" /> 
<Value value="00006467" property ="valid" /> 
<Value value="00006483" property ="valid" /> 
<Value value="00006491" property ="valid" /> 
<Value value="00006527" property ="valid" /> 
<Value value="00006589" property ="valid" /> 
<Value value="00006599" property ="valid" /> 
<Value value="00006614" property ="valid" /> 
<Value value="00006627" property ="valid" /> 
<Value value="00006655" property ="valid" /> 
<Value value="00006676" property ="valid" /> 
<Value value="00006685" property ="valid" /> 
<Value value="00006924" property ="valid" /> 
<Value value="00006925" property ="valid" /> 
<Value value="00006961" property ="valid" /> 
<Value value="00006994" property ="valid" /> 
<Value value="00007042" property ="valid" /> 
<Value value="00007075" property ="valid" /> 
<Value value="00007149" property ="valid" /> 
<Value value="00007197" property ="valid" /> 
<Value value="00007311" property ="valid" /> 
<Value value="00007391" property ="valid" /> 
<Value value="00007459" property ="valid" /> 
<Value value="00007665" property ="valid" /> 
<Value value="00007760" property ="valid" /> 
<Value value="00007769" property ="valid" /> 
<Value value="00007904" property ="valid" /> 
<Value value="00008255" property ="valid" /> 
<Value value="00008367" property ="valid" /> 
<Value value="00008475" property ="valid" /> 
<Value value="00008605" property ="valid" /> 
<Value value="00008615" property ="valid" /> 
<Value value="00008789" property ="valid" /> 
<Value value="00009301" property ="valid" /> 
<Value value="00009418" property ="valid" /> 
<Value value="00009485" property ="valid" /> 
<Value value="00004926" property ="valid" /> 
<Value value="00005117" property ="valid" /> 
<Value value="00005165" property ="valid" /> 
<Value value="00005247" property ="valid" /> 
<Value value="00005516" property ="valid" /> 
<Value value="00005738" property ="valid" /> 
<Value value="00006150" property ="valid" /> 
<Value value="00006334" property ="valid" /> 
<Value value="00006456" property ="valid" /> 
<Value value="00006493" property ="valid" /> 
<Value value="00006525" property ="valid" /> 
<Value value="00006538" property ="valid" /> 
<Value value="00006542" property ="valid" /> 
<Value value="00006572" property ="valid" /> 
<Value value="00006902" property ="valid" /> 
<Value value="00007247" property ="valid" /> 
<Value value="00004245" property ="valid" /> 
<Value value="00005560" property ="valid" /> 
<Value value="00006723" property ="valid" /> 
<Value value="00006721" property ="valid" /> 
<Value value="00001273" property ="valid" /> 
<Value value="00003370" property ="valid" /> 
<Value value="00003052" property ="valid" /> 
<Value value="00003221" property ="valid" /> 
<Value value="00003486" property ="valid" /> 
<Value value="00003617" property ="valid" /> 
<Value value="00003939" property ="valid" /> 
<Value value="00004257" property ="valid" /> 
<Value value="00004386" property ="valid" /> 
<Value value="00004651" property ="valid" /> 
<Value value="00005734" property ="valid" /> 
<Value value="00006126" property ="valid" /> 
<Value value="00006714" property ="valid" /> 
<Value value="00001276" property ="valid" /> 
<Value value="00001503" property ="valid" /> 
<Value value="00002276" property ="valid" /> 
<Value value="00002518" property ="valid" /> 
<Value value="00002647" property ="valid" /> 
<Value value="00002671" property ="valid" /> 
<Value value="00002680" property ="valid" /> 
<Value value="00002867" property ="valid" /> 
<Value value="00003393" property ="valid" /> 
<Value value="00003586" property ="valid" /> 
<Value value="00003658" property ="valid" /> 
<Value value="00004047" property ="valid" /> 
<Value value="00004106" property ="valid" /> 
<Value value="00004282" property ="valid" /> 
<Value value="00004289" property ="valid" /> 
<Value value="00004395" property ="valid" /> 
<Value value="00004615" property ="valid" /> 
<Value value="00005662" property ="valid" /> 
<Value value="00005721" property ="valid" /> 
<Value value="00006593" property ="valid" /> 
<Value value="00006701" property ="valid" /> 
<Value value="00008919" property ="valid" /> 
<Value value="00010140" property ="valid" /> 
<Value value="00004290" property ="valid" /> 
<Value value="00005089" property ="valid" /> 
<Value value="00005164" property ="valid" /> 
<Value value="00005265" property ="valid" /> 
<Value value="00005581" property ="valid" /> 
<Value value="00006666" property ="valid" /> 
<Value value="00006716" property ="valid" /> 
<Value value="00008642" property ="valid" /> 
<Value value="00009374" property ="valid" /> 
<Value value="00009801" property ="valid" /> 
<Value value="00006719" property ="valid" /> 
<Value value="00009564" property ="valid" /> 
<Value value="00005612" property ="valid" /> 
<Value value="00009595" property ="valid" /> 
<Value value="00002119" property ="valid" /> 
<Value value="00002767" property ="valid" /> 
<Value value="00006637" property ="valid" /> 
<Value value="00002642" property ="valid" /> 
<Value value="00002718" property ="valid" /> 
<Value value="00005496" property ="valid" /> 
<Value value="00009264" property ="valid" /> 
<Value value="00002600" property ="valid" /> 
<Value value="00004267" property ="valid" /> 
<Value value="00006741" property ="valid" /> 
<Value value="00007164" property ="valid" /> 
<Value value="00002301" property ="valid" /> 
<Value value="00003109" property ="valid" /> 
<Value value="00006574" property ="valid" /> 
<Value value="00006101" property ="valid" /> 
<Value value="00006690" property ="valid" /> 
<Value value="00006463" property ="valid" /> 
<Value value="00008418" property ="valid" /> 
<Value value="00004158" property ="valid" /> 
<Value value="00004452" property ="valid" /> 
<Value value="00004847" property ="valid" /> 
<Value value="00005419" property ="valid" /> 
<Value value="00006535" property ="valid" /> 
<Value value="00006749" property ="valid" /> 
<Value value="00006799" property ="valid" /> 
<Value value="00008471" property ="valid" /> 
<Value value="00006691" property ="valid" /> 
<Value value="00002257" property ="valid" /> 
<Value value="00005502" property ="valid" /> 
<Value value="00005969" property ="valid" /> 
<Value value="00007807" property ="valid" /> 
<Value value="00008258" property ="valid" /> 
<Value value="00009777" property ="valid" /> 
<Value value="00003165" property ="valid" /> 
<Value value="00001500" property ="valid" /> 
<Value value="00003011" property ="valid" /> 
<Value value="00003293" property ="valid" /> 
<Value value="00003181" property ="valid" /> 
<Value value="00005078" property ="valid" /> 
<Value value="00006055" property ="valid" /> 
<Value value="00006688" property ="valid" /> 
<Value value="00002340" property ="valid" /> 
<Value value="00003712" property ="valid" /> 
<Value value="00003066" property ="valid" /> 
<Value value="00002332" property ="valid" /> 
<Value value="00002442" property ="valid" /> 
<Value value="00002517" property ="valid" /> 
<Value value="00002548" property ="valid" /> 
<Value value="00003271" property ="valid" /> 
<Value value="00003432" property ="valid" /> 
<Value value="00003627" property ="valid" /> 
<Value value="00004388" property ="valid" /> 
<Value value="00004666" property ="valid" /> 
<Value value="00004906" property ="valid" /> 
<Value value="00005133" property ="valid" /> 
<Value value="00000122" property ="valid" /> 
<Value value="00006602" property ="valid" /> 
<Value value="00006048" property ="valid" /> 
<Value value="00004782" property ="valid" /> 
<Value value="00006639" property ="valid" /> 
<Value value="00008131" property ="valid" /> 
<Value value="00002327" property ="valid" /> 
<Value value="00002358" property ="valid" /> 
<Value value="00006594" property ="valid" /> 
<Value value="00006697" property ="valid" /> 
<Value value="00009924" property ="valid" /> 
<Value value="00010000" property ="valid" /> 
<Value value="00004362" property ="valid" /> 
<Value value="00004514" property ="valid" /> 
<Value value="00004700" property ="valid" /> 
<Value value="00006243" property ="valid" /> 
<Value value="00006354" property ="valid" /> 
<Value value="00006738" property ="valid" /> 
<Value value="00008028" property ="valid" /> 
<Value value="00010258" property ="valid" /> 
<Value value="00009798" property ="valid" /> 
<Value value="00002519" property ="valid" /> 
<Value value="00006405" property ="valid" /> 
<Value value="00006477" property ="valid" /> 
<Value value="00006635" property ="valid" /> 
<Value value="00008102" property ="valid" /> 
<Value value="00008316" property ="valid" /> 
<Value value="00002315" property ="valid" /> 
<Value value="00002986" property ="valid" /> 
<Value value="00005802" property ="valid" /> 
<Value value="00008356" property ="valid" /> 
<Value value="00002705" property ="valid" /> 
<Value value="00002885" property ="valid" /> 
<Value value="00003942" property ="valid" /> 
<Value value="00001687" property ="valid" /> 
<Value value="00006782" property ="valid" /> 
<Value value="00006939" property ="valid" /> 
<Value value="00008233" property ="valid" /> 
<Value value="00008417" property ="valid" /> 
<Value value="00008540" property ="valid" /> 
<Value value="00006680" property ="valid" /> 
<Value value="00008091" property ="valid" /> 
<Value value="00009750" property ="valid" /> 
<Value value="00009786" property ="valid" /> 
<Value value="00010201" property ="valid" /> 
<Value value="00008697" property ="valid" /> 
<Value value="00005561" property ="valid" /> 
<Value value="00008312" property ="valid" /> 
<Value value="00001293" property ="valid" /> 
<Value value="00008105" property ="valid" /> 
<Value value="00009902" property ="valid" /> 
<Value value="00000113" property ="valid" /> 
<Value value="00001289" property ="valid" /> 
<Value value="00002316" property ="valid" /> 
<Value value="00005327" property ="valid" /> 
<Value value="00005517" property ="valid" /> 
<Value value="00006729" property ="valid" /> 
<Value value="00001534" property ="valid" /> 
<Value value="00003607" property ="valid" /> 
<Value value="00007089" property ="valid" /> 
<Value value="00002562" property ="valid" /> 
<Value value="00007431" property ="valid" /> 
<Value value="00007435" property ="valid" /> 
<Value value="00009067" property ="valid" /> 
<Value value="00008213" property ="valid" /> 
<Value value="00003521" property ="valid" /> 
<Value value="00003713" property ="valid" /> 
<Value value="00003766" property ="valid" /> 
<Value value="00004515" property ="valid" /> 
<Value value="00004996" property ="valid" /> 
<Value value="00002964" property ="valid" /> 
<Value value="00001853" property ="valid" /> 
<Value value="00005026" property ="valid" /> 
<Value value="00006185" property ="valid" /> 
<Value value="00004886" property ="valid" /> 
<Value value="00010139" property ="valid" /> 
<Value value="00003341" property ="valid" /> 
<Value value="00005109" property ="valid" /> 
<Value value="00009986" property ="valid" /> 
<Value value="00006712" property ="valid" /> 
<Value value="00008129" property ="valid" /> 
<Value value="00008629" property ="valid" /> 
<Value value="00009947" property ="valid" /> 
<Value value="00010115" property ="valid" /> 
<Value value="00007432" property ="valid" /> 
<Value value="00002450" property ="valid" /> 
<Value value="00002800" property ="valid" /> 
<Value value="00003099" property ="valid" /> 
<Value value="00004967" property ="valid" /> 
<Value value="00007533" property ="valid" /> 
<Value value="00002927" property ="valid" /> 
<Value value="00006494" property ="valid" /> 
<Value value="00008137" property ="valid" /> 
<Value value="00008092" property ="valid" /> 
<Value value="00006238" property ="valid" /> 
<Value value="00007905" property ="valid" /> 
</DataField> 
<DataField name="EURO_EARLY_LOSS" displayName="欧初负" optype="continuous"> 
</DataField> 
<DataField name="EURO_EARLY_STANDOFF" displayName="欧初平" optype="continuous"> 
</DataField> 
<DataField name="EURO_EARLY_WIN" displayName="欧初胜" optype="continuous"> 
</DataField> 
<DataField name="EURO_FINAL_LOSS" displayName="欧终负" optype="continuous"> 
</DataField> 
<DataField name="EURO_FINAL_STANDOFF" displayName="欧终平" optype="continuous"> 
</DataField> 
<DataField name="EURO_FINAL_WIN" displayName="欧终胜" optype="continuous"> 
</DataField> 
<DataField name="UP_DOWN" displayName="结果" optype="categorical"> 
<Value value="03" property ="valid" /> 
<Value value="01" property ="valid" /> 
<Value value="02" property ="valid" /> 
</DataField> 
</DataDictionary> 
<TreeModel modelName="ODDS1" functionName="classification"> 
<MiningSchema> 
<MiningField name="ASIALEVELCHANGE" usageType="active"  /> 
<MiningField name="ASIALEVELCHANGEVOL" usageType="active"  /> 
<MiningField name="ASIAODDCHANGE" usageType="active"  /> 
<MiningField name="ASIAODDCHANGEVOL" usageType="active"  /> 
<MiningField name="ASIA_EARLY_DOWN" usageType="active"  /> 
<MiningField name="ASIA_EARLY_UD_MOUTH" usageType="active"  /> 
<MiningField name="ASIA_EARLY_UP" usageType="active"  /> 
<MiningField name="ASIA_FINAL_DOWN" usageType="active"  /> 
<MiningField name="ASIA_FINAL_UD_MOUTH" usageType="active"  /> 
<MiningField name="ASIA_FINAL_UP" usageType="active"  /> 
<MiningField name="CHAMPIONSHIP" usageType="active"  /> 
<MiningField name="EURO_EARLY_LOSS" usageType="active"  /> 
<MiningField name="EURO_EARLY_STANDOFF" usageType="active"  /> 
<MiningField name="EURO_EARLY_WIN" usageType="active"  /> 
<MiningField name="EURO_FINAL_LOSS" usageType="active"  /> 
<MiningField name="EURO_FINAL_STANDOFF" usageType="active"  /> 
<MiningField name="EURO_FINAL_WIN" usageType="active"  /> 
<MiningField name="UP_DOWN" usageType="predicted"  /> 
</MiningSchema> 
<ModelStats> 
<UnivariateStats field="ASIALEVELCHANGE"> 
<Counts totalFreq="64007" missingFreq="0" invalidFreq="0" /> 
<DiscrStats modalValue="03"> 
<Array type="int" n="3"> 
 22724 16790 24493 
</Array> 
</DiscrStats> 
</UnivariateStats> 
<UnivariateStats field="ASIALEVELCHANGEVOL"> 
<Counts totalFreq="0" /> 
</UnivariateStats> 
<UnivariateStats field="ASIAODDCHANGE"> 
<Counts totalFreq="64007" missingFreq="0" invalidFreq="0" /> 
<DiscrStats modalValue="02"> 
<Array type="int" n="3"> 
 46870 8259 8878 
</Array> 
</DiscrStats> 
</UnivariateStats> 
<UnivariateStats field="ASIAODDCHANGEVOL"> 
<Counts totalFreq="0" /> 
</UnivariateStats> 
<UnivariateStats field="ASIA_EARLY_DOWN"> 
<Counts totalFreq="0" /> 
</UnivariateStats> 
<UnivariateStats field="ASIA_EARLY_UD_MOUTH"> 
<Counts totalFreq="63931" missingFreq="76" invalidFreq="0" /> 
<DiscrStats modalValue="000735"> 
<Array type="int" n="52"> 
 12433 6874 5581 
 4134 11274 1193 
 725 5992 1029 
 422 732 236 
 85 2023 270 
 181 111 1072 
 486 55 8 
 8 5 19 
 18 23 9 
 3683 4 1 
 7 17 1 
 2 1 3 
 4 6 1 
 1947 3077 4 
 66 35 2 
 37 13 10 
 1 7 1 
 3 
</Array> 
</DiscrStats> 
</UnivariateStats> 
<UnivariateStats field="ASIA_EARLY_UP"> 
<Counts totalFreq="0" /> 
</UnivariateStats> 
<UnivariateStats field="ASIA_FINAL_DOWN"> 
<Counts totalFreq="0" /> 
</UnivariateStats> 
<UnivariateStats field="ASIA_FINAL_UD_MOUTH"> 
<Counts totalFreq="64007" missingFreq="0" invalidFreq="0" /> 
<DiscrStats modalValue="000735"> 
<Array type="int" n="54"> 
 12299 6924 1016 
 760 321 227 
 10 20 173 
 4701 3349 4 
 1 1 6 
 1 1 1 
 4 1 2 
 1110 5706 3642 
 4294 10831 2038 
 1947 3057 501 
 446 48 6 
 98 129 41 
 19 2 51 
 42 69 3 
 4 19 14 
 8 23 9 
 2 9 7 
 4 1 5 
</Array> 
</DiscrStats> 
</UnivariateStats> 
<UnivariateStats field="ASIA_FINAL_UP"> 
<Counts totalFreq="0" /> 
</UnivariateStats> 
<UnivariateStats field="CHAMPIONSHIP"> 
<Counts totalFreq="64007" missingFreq="0" invalidFreq="0" /> 
<DiscrStats modalValue="00000114"> 
<Array type="int" n="666"> 
 916 917 725 
 499 507 279 
 329 348 155 
 397 479 152 
 23 112 346 
 447 354 277 
 232 375 176 
 129 306 155 
 116 64 134 
 39 64 468 
 472 36 18 
 4867 124 34 
 54 103 93 
 490 353 293 
 361 104 131 
 268 56 81 
 25 14 63 
 136 156 93 
 128 32 11 
 42 20 19 
 40 255 285 
 52 65 57 
 34 297 11 
 61 28 72 
 38 3 25 
 74 12 171 
 9 28 43 
 17 145 3 
 228 206 23 
 106 105 7 
 108 100 44 
 32 52 233 
 21 8 42 
 4 211 31 
 23 15 39 
 155 163 163 
 13 168 141 
 37 87 62 
 63 16 173 
 15 195 3 
 64 8 32 
 122 12 14 
 35 14 12 
 8 25 26 
 9 7 32 
 12 14 8 
 5 18 79 
 1 11 1 
 275 209 47 
 68 2 63 
 6 28 21 
 620 932 602 
 720 617 561 
 538 58 330 
 78 55 43 
 85 269 39 
 17 255 65 
 55 8 80 
 89 42 222 
 70 24 67 
 16 368 108 
 26 113 264 
 258 16 81 
 6 818 96 
 435 107 100 
 292 239 162 
 52 165 79 
 72 5 398 
 52 785 384 
 382 150 32 
 14 1 3 
 15 129 129 
 390 608 299 
 330 326 346 
 353 329 4 
 18 61 88 
 111 24 81 
 46 45 206 
 267 102 238 
 97 100 104 
 59 54 56 
 42 81 8 
 26 5 9 
 7 26 4 
 15 4 2 
 2 2 1 
 15 20 2 
 11 4 299 
 127 263 599 
 391 490 386 
 527 439 422 
 280 64 95 
 258 32 36 
 598 378 154 
 174 43 427 
 457 437 603 
 529 349 333 
 292 281 365 
 295 51 187 
 112 71 42 
 145 56 156 
 12 498 25 
 91 461 253 
 399 135 27 
 93 7 15 
 22 255 173 
 137 379 124 
 42 68 56 
 427 38 21 
 12 26 36 
 43 133 7 
 3 121 5 
 124 108 26 
 33 32 17 
 75 2 67 
 18 21 87 
 373 39 38 
 9 10 1 
 107 4 7 
 56 143 21 
 16 14 14 
 160 8 56 
 51 42 147 
 56 4 249 
 157 54 54 
 17 203 26 
 12 85 106 
 39 2 229 
 19 15 33 
 170 7 7 
 2 8 19 
 2 5 39 
 16 3 28 
 13 29 2 
 6 18 5 
 32 103 7 
 4 20 2 
 26 20 3 
 16 24 37 
 4 6 16 
 26 36 35 
 4 33 3 
 27 16 61 
 22 5 7 
 12 21 23 
 2 2 3 
 2 12 7 
 37 21 6 
 8 14 7 
 17 5 2 
 22 4 6 
 4 36 16 
 1 9 4 
 6 1 42 
 1 15 10 
 29 33 10 
 18 28 15 
 63 8 105 
 11 1 3 
 9 23 4 
 29 9 38 
 14 12 12 
 16 17 11 
 46 37 27 
 52 28 10 
 4 18 2 
 4 5 19 
 23 15 26 
 5 13 37 
 10 5 18 
 3 7 2 
 1 4 8 
 5 11 21 
 27 22 15 
 16 5 3 
 1 9 26 
 15 8 4 
 2 2 11 
 9 3 3 
 3 6 8 
 1 5 60 
 2 6 11 
 1 1 4 
 4 27 11 
 4 4 9 
 5 7 4 
 2 19 3 
 1 11 5 
 7 6 3 
 3 11 4 
 1 3 9 
 15 1 2 
 2 4 1 
 3 2 1 
 8 2 2 
 6 3 4 
 5 3 1 
 2 6 1 
 1 4 1 
 3 10 7 
 2 3 2 
 2 1 4 
 2 2 2 
 1 3 2 
 3 2 2 
 2 1 1 
 4 4 1 
 2 3 2 
 1 1 1 
 1 1 2 
 1 1 2 
 2 1 1 
 4 2 1 
 1 4 6 
 5 2 5 
 1 1 1 
 2 2 1 
 2 2 1 
 1 1 1 
 1 1 1 
 1 1 1 
 1 1 1 
</Array> 
</DiscrStats> 
</UnivariateStats> 
<UnivariateStats field="EURO_EARLY_LOSS"> 
<Counts totalFreq="0" /> 
</UnivariateStats> 
<UnivariateStats field="EURO_EARLY_STANDOFF"> 
<Counts totalFreq="0" /> 
</UnivariateStats> 
<UnivariateStats field="EURO_EARLY_WIN"> 
<Counts totalFreq="0" /> 
</UnivariateStats> 
<UnivariateStats field="EURO_FINAL_LOSS"> 
<Counts totalFreq="0" /> 
</UnivariateStats> 
<UnivariateStats field="EURO_FINAL_STANDOFF"> 
<Counts totalFreq="0" /> 
</UnivariateStats> 
<UnivariateStats field="EURO_FINAL_WIN"> 
<Counts totalFreq="0" /> 
</UnivariateStats> 
<UnivariateStats field="UP_DOWN"> 
<Counts totalFreq="64007" missingFreq="0" invalidFreq="0" /> 
<DiscrStats modalValue="03"> 
<Array type="int" n="3"> 
 30929 29275 3803 
</Array> 
</DiscrStats> 
</UnivariateStats> 
</ModelStats> 
<Node score="03" recordCount="64007.00"> 
<True /> 
<ScoreDistribution recordCount="30929.00" value="03" /> 
<ScoreDistribution recordCount="29275.00" value="01" /> 
<ScoreDistribution recordCount="3803.00" value="02" /> 
<Node score="03" recordCount="12299.00"> 
<SimplePredicate field="ASIA_FINAL_UD_MOUTH" operator="equal" value="000735" /> 
<ScoreDistribution recordCount="7087.00" value="03" /> 
<ScoreDistribution recordCount="5212.00" value="01" /> 
<ScoreDistribution recordCount="0" value="02" /> 
</Node> 
<Node score="01" recordCount="6924.00"> 
<SimplePredicate field="ASIA_FINAL_UD_MOUTH" operator="equal" value="000736" /> 
<ScoreDistribution recordCount="3019.00" value="03" /> 
<ScoreDistribution recordCount="3905.00" value="01" /> 
<ScoreDistribution recordCount="0" value="02" /> 
<Node score="01" recordCount="111.00"> 
<SimplePredicate field="CHAMPIONSHIP" operator="equal" value="00000051" /> 
<ScoreDistribution recordCount="48.00" value="03" /> 
<ScoreDistribution recordCount="63.00" value="01" /> 
<ScoreDistribution recordCount="0" value="02" /> 
</Node> 
<Node score="03" recordCount="93.00"> 
<SimplePredicate field="CHAMPIONSHIP" operator="equal" value="00000052" /> 
<ScoreDistribution recordCount="49.00" value="03" /> 
<ScoreDistribution recordCount="44.00" value="01" /> 
<ScoreDistribution recordCount="0" value="02" /> 
<Node score="03" recordCount="83.00"> 
<SimplePredicate field="EURO_EARLY_WIN" operator="lessOrEqual" value="1.75000" /> 
<ScoreDistribution recordCount="48.00" value="03" /> 
<ScoreDistribution recordCount="35.00" value="01" /> 
<ScoreDistribution recordCount="0" value="02" /> 
</Node> 
<Node score="01" recordCount="10.00"> 
<SimplePredicate field="EURO_EARLY_WIN" operator="greaterThan" value="1.75000" /> 
<ScoreDistribution recordCount="1.00" value="03" /> 
<ScoreDistribution recordCount="9.00" value="01" /> 
<ScoreDistribution recordCount="0" value="02" /> 
</Node> 
</Node> 
<Node score="01" recordCount="77.00"> 
<SimplePredicate field="CHAMPIONSHIP" operator="equal" value="00000056" /> 
<ScoreDistribution recordCount="30.00" value="03" /> 
<ScoreDistribution recordCount="47.00" value="01" /> 
<ScoreDistribution recordCount="0" value="02" /> 
<Node score="01" recordCount="59.00"> 
<SimplePredicate field="EURO_FINAL_LOSS" operator="lessOrEqual" value="5.75000" /> 
<ScoreDistribution recordCount="18.00" value="03" /> 
<ScoreDistribution recordCount="41.00" value="01" /> 
<ScoreDistribution recordCount="0" value="02" /> 
<Node score="01" recordCount="52.00"> 
<SimplePredicate field="EURO_FINAL_STANDOFF" operator="lessOrEqual" value="3.70000" /> 
<ScoreDistribution recordCount="18.00" value="03" /> 
<ScoreDistribution recordCount="34.00" value="01" /> 
<ScoreDistribution recordCount="0" value="02" /> 
<Node score="01" recordCount="1.00"> 
<SimplePredicate field="ASIA_EARLY_UD_MOUTH" operator="equal" value="000735" /> 
<ScoreDistribution recordCount="0" value="03" /> 
<ScoreDistribution recordCount="1.00" value="01" /> 
<ScoreDistribution recordCount="0" value="02" /> 
</Node> 
<Node score="01" recordCount="35.00"> 
<SimplePredicate field="ASIA_EARLY_UD_MOUTH" operator="equal" value="000736" /> 
<ScoreDistribution recordCount="11.00" value="03" /> 
<ScoreDistribution recordCount="24.00" value="01" /> 
<ScoreDistribution recordCount="0" value="02" /> 
</Node> 
<Node score="01" recordCount="16.00"> 
<SimplePredicate field="ASIA_EARLY_UD_MOUTH" operator="equal" value="000741" /> 
<ScoreDistribution recordCount="7.00" value="03" /> 
<ScoreDistribution recordCount="9.00" value="01" /> 
<ScoreDistribution recordCount="0" value="02" /> 
<Node score="01" recordCount="4.00"> 
<SimplePredicate field="EURO_FINAL_LOSS" operator="lessOrEqual" value="4.75000" /> 
<ScoreDistribution recordCount="0" value="03" /> 
<ScoreDistribution recordCount="4.00" value="01" /> 
<ScoreDistribution recordCount="0" value="02" /> 
</Node> 
<Node score="03" recordCount="12.00"> 
<SimplePredicate field="EURO_FINAL_LOSS" operator="greaterThan" value="4.75000" /> 
<ScoreDistribution recordCount="7.00" value="03" /> 
<ScoreDistribution recordCount="5.00" value="01" /> 
<ScoreDistribution recordCount="0" value="02" /> 
<Node score="03" recordCount="4.00"> 
<SimplePredicate field="EURO_EARLY_LOSS" operator="lessOrEqual" value="4.00000" /> 
<ScoreDistribution recordCount="4.00" value="03" /> 
<ScoreDistribution recordCount="0" value="01" /> 
<ScoreDistribution recordCount="0" value="02" /> 
</Node> 
<Node score="01" recordCount="8.00"> 
<SimplePredicate field="EURO_EARLY_LOSS" operator="greaterThan" value="4.00000" /> 
<ScoreDistribution recordCount="3.00" value="03" /> 
<ScoreDistribution recordCount="5.00" value="01" /> 
<ScoreDistribution recordCount="0" value="02" /> 
</Node> 
</Node> 
</Node> 
</Node> 
<Node score="01" recordCount="7.00"> 
<SimplePredicate field="EURO_FINAL_STANDOFF" operator="greaterThan" value="3.70000" /> 
<ScoreDistribution recordCount="0" value="03" /> 
<ScoreDistribution recordCount="7.00" value="01" /> 
<ScoreDistribution recordCount="0" value="02" /> 
</Node> 
</Node> 
<Node score="03" recordCount="18.00"> 
<SimplePredicate field="EURO_FINAL_LOSS" operator="greaterThan" value="5.75000" /> 
<ScoreDistribution recordCount="12.00" value="03" /> 
<ScoreDistribution recordCount="6.00" value="01" /> 
<ScoreDistribution recordCount="0" value="02" /> 
<Node score="03" recordCount="15.00"> 
<SimplePredicate field="ASIAODDCHANGE" operator="equal" value="02" /> 
<ScoreDistribution recordCount="9.00" value="03" /> 
<ScoreDistribution recordCount="6.00" value="01" /> 
<ScoreDistribution recordCount="0" value="02" /> 
<Node score="03" recordCount="5.00"> 
<SimplePredicate field="EURO_FINAL_STANDOFF" operator="lessOrEqual" value="3.50000" /> 
<ScoreDistribution recordCount="5.00" value="03" /> 
<ScoreDistribution recordCount="0" value="01" /> 
<ScoreDistribution recordCount="0" value="02" /> 
</Node> 
<Node score="01" recordCount="10.00"> 
<SimplePredicate field="EURO_FINAL_STANDOFF" operator="greaterThan" value="3.50000" /> 
<ScoreDistribution recordCount="4.00" value="03" /> 
<ScoreDistribution recordCount="6.00" value="01" /> 
<ScoreDistribution recordCount="0" value="02" /> 
<Node score="03" recordCount="7.00"> 
<SimplePredicate field="EURO_FINAL_WIN" operator="lessOrEqual" value="1.57000" /> 
<ScoreDistribution recordCount="4.00" value="03" /> 
<ScoreDistribution recordCount="3.00" value="01" /> 
<ScoreDistribution recordCount="0" value="02" /> 
</Node> 
<Node score="01" recordCount="3.00"> 
<SimplePredicate field="EURO_FINAL_WIN" operator="greaterThan" value="1.57000" /> 
<ScoreDistribution recordCount="0" value="03" /> 
<ScoreDistribution recordCount="3.00" value="01" /> 
<ScoreDistribution recordCount="0" value="02" /> 
</Node> 
</Node> 
</Node> 
<Node score="03" recordCount="2.00"> 
<SimplePredicate field="ASIAODDCHANGE" operator="equal" value="03" /> 
<ScoreDistribution recordCount="2.00" value="03" /> 
<ScoreDistribution recordCount="0" value="01" /> 
<ScoreDistribution recordCount="0" value="02" /> 
</Node> 
<Node score="03" recordCount="1.00"> 
<SimplePredicate field="ASIAODDCHANGE" operator="equal" value="01" /> 
<ScoreDistribution recordCount="1.00" value="03" /> 
<ScoreDistribution recordCount="0" value="01" /> 
<ScoreDistribution recordCount="0" value="02" /> 
</Node> 
</Node> 
</Node> 
<Node score="03" recordCount="37.00"> 
<SimplePredicate field="CHAMPIONSHIP" operator="equal" value="00000057" /> 
<ScoreDistribution recordCount="21.00" value="03" /> 
<ScoreDistribution recordCount="16.00" value="01" /> 
<ScoreDistribution recordCount="0" value="02" /> 
<Node score="01" recordCount="1.00"> 
<SimplePredicate field="ASIA_EARLY_UD_MOUTH" operator="equal" value="000735" /> 
<ScoreDistribution recordCount="0" value="03" /> 
<ScoreDistribution recordCount="1.00" value="01" /> 
<ScoreDistribution recordCount="0" value="02" /> 
</Node> 
<Node score="01" recordCount="16.00"> 
<SimplePredicate field="ASIA_EARLY_UD_MOUTH" operator="equal" value="000736" /> 
<ScoreDistribution recordCount="7.00" value="03" /> 
<ScoreDistribution recordCount="9.00" value="01" /> 
<ScoreDistribution recordCount="0" value="02" /> 
<Node score="01" recordCount="14.00"> 
<SimplePredicate field="EURO_FINAL_LOSS" operator="lessOrEqual" value="5.00000" /> 
<ScoreDistribution recordCount="5.00" value="03" /> 
<ScoreDistribution recordCount="9.00" value="01" /> 
<ScoreDistribution recordCount="0" value="02" /> 
</Node> 
<Node score="03" recordCount="2.00"> 
<SimplePredicate field="EURO_FINAL_LOSS" operator="greaterThan" value="5.00000" /> 
<ScoreDistribution recordCount="2.00" value="03" /> 
<ScoreDistribution recordCount="0" value="01" /> 
<ScoreDistribution recordCount="0" value="02" /> 
</Node> 
</Node> 
<Node score="03" recordCount="7.00"> 
<SimplePredicate field="ASIA_EARLY_UD_MOUTH" operator="equal" value="000740" /> 
<ScoreDistribution recordCount="4.00" value="03" /> 
<ScoreDistribution recordCount="3.00" value="01" /> 
<ScoreDistribution recordCount="0" value="02" /> 
</Node> 
<Node score="03" recordCount="12.00"> 
<SimplePredicate field="ASIA_EARLY_UD_MOUTH" operator="equal" value="000741" /> 
<ScoreDistribution recordCount="9.00" value="03" /> 
<ScoreDistribution recordCount="3.00" value="01" /> 
<ScoreDistribution recordCount="0" value="02" /> 
<Node score="01" recordCount="2.00"> 
<SimplePredicate field="EURO_FINAL_WIN" operator="lessOrEqual" value="1.57000" /> 
<ScoreDistribution recordCount="0" value="03" /> 
<ScoreDistribution recordCount="2.00" value="01" /> 
<ScoreDistribution recordCount="0" value="02" /> 
</Node> 
<Node score="03" recordCount="10.00"> 
<SimplePredicate field="EURO_FINAL_WIN" operator="greaterThan" value="1.57000" /> 
<ScoreDistribution recordCount="9.00" value="03" /> 
<ScoreDistribution recordCount="1.00" value="01" /> 
<ScoreDistribution recordCount="0" value="02" /> 
</Node> 
</Node> 
<Node score="03" recordCount="1.00"> 
<SimplePredicate field="ASIA_EARLY_UD_MOUTH" operator="equal" value="000745" /> 
<ScoreDistribution recordCount="1.00" value="03" /> 
<ScoreDistribution recordCount="0" value="01" /> 
<ScoreDistribution recordCount="0" value="02" /> 
</Node> 
</Node> 
<Node score="01" recordCount="75.00"> 
<SimplePredicate field="CHAMPIONSHIP" operator="equal" value="00000058" /> 
<ScoreDistribution recordCount="25.00" value="03" /> 
<ScoreDistribution recordCount="50.00" value="01" /> 
<ScoreDistribution recordCount="0" value="02" /> 
<Node score="03" recordCount="33.00"> 
<SimplePredicate field="EURO_EARLY_LOSS" operator="lessOrEqual" value="4.50000" /> 
<ScoreDistribution recordCount="17.00" value="03" /> 
<ScoreDistribution recordCount="16.00" value="01" /> 
<ScoreDistribution recordCount="0" value="02" /> 
<Node score="01" recordCount="3.00"> 
<SimplePredicate field="EURO_EARLY_LOSS" operator="lessOrEqual" value="3.75000" /> 
<ScoreDistribution recordCount="0" value="03" /> 
<ScoreDistribution recordCount="3.00" value="01" /> 
<ScoreDistribution recordCount="0" value="02" /> 
</Node> 
<Node score="03" recordCount="30.00"> 
<SimplePredicate field="EURO_EARLY_LOSS" operator="greaterThan" value="3.75000" /> 
<ScoreDistribution recordCount="17.00" value="03" /> 
<ScoreDistribution recordCount="13.00" value="01" /> 
<ScoreDistribution recordCount="0" value="02" /> 
</Node> 
</Node> 
<Node score="01" recordCount="42.00"> 
<SimplePredicate field="EURO_EARLY_LOSS" operator="greaterThan" value="4.50000" /> 
<ScoreDistribution recordCount="8.00" value="03" /> 
<ScoreDistribution recordCount="34.00" value="01" /> 
<ScoreDistribution recordCount="0" value="02" /> 
</Node> 
</Node> 
<Node score="01" recordCount="20.00"> 
<SimplePredicate field="CHAMPIONSHIP" operator="equal" value="00000084" /> 
<ScoreDistribution recordCount="5.00" value="03" /> 
<ScoreDistribution recordCount="15.00" value="01" /> 
<ScoreDistribution recordCount="0" value="02" /> 
</Node> 
<Node score="01" recordCount="41.00"> 
<SimplePredicate field="CHAMPIONSHIP" operator="equal" value="00000085" /> 
<ScoreDistribution recordCount="15.00" value="03" /> 
<ScoreDistribution recordCount="26.00" value="01" /> 
<ScoreDistribution recordCount="0" value="02" /> 
</Node> 
<Node score="01" recordCount="41.00"> 
<SimplePredicate field="CHAMPIONSHIP" operator="equal" value="00000086" /> 
<ScoreDistribution recordCount="18.00" value="03" /> 
<ScoreDistribution recordCount="23.00" value="01" /> 
<ScoreDistribution recordCount="0" value="02" /> 
</Node> 
<Node score="03" recordCount="32.00"> 
<SimplePredicate field="CHAMPIONSHIP" operator="equal" value="00000087" /> 
<ScoreDistribution recordCount="17.00" value="03" /> 
<ScoreDistribution recordCount="15.00" value="01" /> 
<ScoreDistribution recordCount="0" value="02" /> 
<Node score="03" recordCount="28.00"> 
<SimplePredicate field="EURO_EARLY_LOSS" operator="lessOrEqual" value="5.25000" /> 
<ScoreDistribution recordCount="17.00" value="03" /> 
<ScoreDistribution recordCount="11.00" value="01" /> 
<ScoreDistribution recordCount="0" value="02" /> 
<Node score="01" recordCount="1.00"> 
<SimplePredicate field="ASIAODDCHANGEVOL" operator="lessOrEqual" value="10.00000-" /> 
<ScoreDistribution recordCount="0" value="03" /> 
<ScoreDistribution recordCount="1.00" value="01" /> 
<ScoreDistribution recordCount="0" value="02" /> 
</Node> 
<Node score="03" recordCount="27.00"> 
<SimplePredicate field="ASIAODDCHANGEVOL" operator="greaterThan" value="10.00000-" /> 
<ScoreDistribution recordCount="17.00" value="03" /> 
<ScoreDistribution recordCount="10.00" value="01" /> 
<ScoreDistribution recordCount="0" value="02" /> 
</Node> 
</Node> 
<Node score="01" recordCount="4.00"> 
<SimplePredicate field="EURO_EARLY_LOSS" operator="greaterThan" value="5.25000" /> 
<ScoreDistribution recordCount="0" value="03" /> 
<ScoreDistribution recordCount="4.00" value="01" /> 
<ScoreDistribution recordCount="0" value="02" /> 
</Node> 
</Node> 
<Node score="01" recordCount="39.00"> 
<SimplePredicate field="CHAMPIONSHIP" operator="equal" value="00000088" /> 
<ScoreDistribution recordCount="13.00" value="03" /> 
<ScoreDistribution recordCount="26.00" value="01" /> 
<ScoreDistribution recordCount="0" value="02" /> 
<Node score="01" recordCount="28.00"> 
<SimplePredicate field="ASIAODDCHANGE" operator="equal" value="02" /> 
<ScoreDistribution recordCount="12.00" value="03" /> 
<ScoreDistribution recordCount="16.00" value="01" /> 
<ScoreDistribution recordCount="0" value="02" /> 
<Node score="01" recordCount="8.00"> 
<SimplePredicate field="EURO_EARLY_LOSS" operator="lessOrEqual" value="5.00000" /> 
<ScoreDistribution recordCount="1.00" value="03" /> 
<ScoreDistribution recordCount="7.00" value="01" /> 
<ScoreDistribution recordCount="0" value="02" /> 
</Node> 
<Node score="03" recordCount="20.00"> 
<SimplePredicate field="EURO_EARLY_LOSS" operator="greaterThan" value="5.00000" /> 
<ScoreDistribution recordCount="11.00" value="03" /> 
<ScoreDistribution recordCount="9.00" value="01" /> 
<ScoreDistribution recordCount="0" value="02" /> 
<Node score="03" recordCount="18.00"> 
<SimplePredicate field="EURO_EARLY_LOSS" operator="lessOrEqual" value="6.00000" /> 
<ScoreDistribution recordCount="11.00" value="03" /> 
<ScoreDistribution recordCount="7.00" value="01" /> 
<ScoreDistribution recordCount="0" value="02" /> 
</Node> 
<Node score="01" recordCount="2.00"> 
<SimplePredicate field="EURO_EARLY_LOSS" operator="greaterThan" value="6.00000" /> 
<ScoreDistribution recordCount="0" value="03" /> 
<ScoreDistribution recordCount="2.00" value="01" /> 
<ScoreDistribution recordCount="0" value="02" /> 
</Node> 
</Node> 
</Node> 
<Node score="01" recordCount="6.00"> 
<SimplePredicate field="ASIAODDCHANGE" operator="equal" value="03" /> 
<ScoreDistribution recordCount="0" value="03" /> 
<ScoreDistribution recordCount="6.00" value="01" /> 
<ScoreDistribution recordCount="0" value="02" /> 
</Node> 
<Node score="01" recordCount="5.00"> 
<SimplePredicate field="ASIAODDCHANGE" operator="equal" value="01" /> 
<ScoreDistribution recordCount="1.00" value="03" /> 
<ScoreDistribution recordCount="4.00" value="01" /> 
<ScoreDistribution recordCount="0" value="02" /> 
</Node> 
</Node> 
<Node score="01" recordCount="40.00"> 
<SimplePredicate field="CHAMPIONSHIP" operator="equal" value="00000089" /> 
<ScoreDistribution recordCount="16.00" value="03" /> 
<ScoreDistribution recordCount="24.00" value="01" /> 
<ScoreDistribution recordCount="0" value="02" /> 
<Node score="01" recordCount="34.00"> 
<SimplePredicate field="ASIAODDCHANGE" operator="equal" value="02" /> 
<ScoreDistribution recordCount="15.00" value="03" /> 
<ScoreDistribution recordCount="19.00" value="01" /> 
<ScoreDistribution recordCount="0" value="02" /> 
<Node score="01" recordCount="24.00"> 
<SimplePredicate field="EURO_FINAL_LOSS" operator="lessOrEqual" value="6.00000" /> 
<ScoreDistribution recordCount="7.00" value="03" /> 
<ScoreDistribution recordCount="17.00" value="01" /> 
<ScoreDistribution recordCount="0" value="02" /> 
<Node score="03" recordCount="9.00"> 
<SimplePredicate field="EURO_EARLY_LOSS" operator="lessOrEqual" value="4.60000" /> 
<ScoreDistribution recordCount="6.00" value="03" /> 
<ScoreDistribution recordCount="3.00" value="01" /> 
<ScoreDistribution recordCount="0" value="02" /> 
</Node> 
<Node score="01" recordCount="15.00"> 
<SimplePredicate field="EURO_EARLY_LOSS" operator="greaterThan" value="4.60000" /> 
<ScoreDistribution recordCount="1.00" value="03" /> 
<ScoreDistribution recordCount="14.00" value="01" /> 
<ScoreDistribution recordCount="0" value="02" /> 
<Node score="03" recordCount="1.00"> 
<SimplePredicate field="EURO_FINAL_LOSS" operator="lessOrEqual" value="4.50000" /> 
<ScoreDistribution recordCount="1.00" value="03" /> 
<ScoreDistribution recordCount="0" value="01" /> 
<ScoreDistribution recordCount="0" value="02" /> 
</Node> 
<Node score="01" recordCount="14.00"> 
<SimplePredicate field="EURO_FINAL_LOSS" operator="greaterThan" value="4.50000" /> 
<ScoreDistribution recordCount="0" value="03" /> 
<ScoreDistribution recordCount="14.00" value="01" /> 
<ScoreDistribution recordCount="0" value="02" /> 
</Node> 
</Node> 
</Node> 
<Node score="03" recordCount="10.00"> 
<SimplePredicate field="EURO_FINAL_LOSS" operator="greaterThan" value="6.00000" /> 
<ScoreDistribution recordCount="8.00" value="03" /> 
<ScoreDistribution recordCount="2.00" value="01" /> 
<ScoreDistribution recordCount="0" value="02" /> 
</Node> 
</Node> 
<Node score="01" recordCount="5.00"> 
<SimplePredicate field="ASIAODDCHANGE" operator="equal" value="03" /> 
<ScoreDistribution recordCount="0" value="03" /> 
<ScoreDistribution recordCount="5.00" value="01" /> 
<ScoreDistribution recordCount="0" value="02" /> 
</Node> 
<Node score="03" recordCount="1.00"> 
<SimplePredicate field="ASIAODDCHANGE" operator="equal" value="01" /> 
<ScoreDistribution recordCount="1.00" value="03" /> 
<ScoreDistribution recordCount="0" value="01" /> 
<ScoreDistribution recordCount="0" value="02" /> 
</Node> 
</Node> 
<Node score="01" recordCount="41.00"> 
<SimplePredicate field="CHAMPIONSHIP" operator="equal" value="00000090" /> 
<ScoreDistribution recordCount="15.00" value="03" /> 
<ScoreDistribution recordCount="26.00" value="01" /> 
<ScoreDistribution recordCount="0" value="02" /> 
</Node> 
<Node score="01" recordCount="2.00"> 
<SimplePredicate field="CHAMPIONSHIP" operator="equal" value="00000091" /> 
<ScoreDistribution recordCount="0" value="03" /> 
<ScoreDistribution recordCount="2.00" value="01" /> 
<ScoreDistribution recordCount="0" value="02" /> 
</Node> 
<Node score="03" recordCount="17.00"> 
<SimplePredicate field="CHAMPIONSHIP" operator="equal" value="00000092" /> 
<ScoreDistribution recordCount="10.00" value="03" /> 
<ScoreDistribution recordCount="7.00" value="01" /> 
<ScoreDistribution recordCount="0" value="02" /> 
<Node score="03" recordCount="8.00"> 
<SimplePredicate field="EURO_FINAL_WIN" operator="lessOrEqual" value="1.57000" /> 
<ScoreDistribution recordCount="7.00" value="03" /> 
<ScoreDistribution recordCount="1.00" value="01" /> 
<ScoreDistribution recordCount="0" value="02" /> 
</Node> 
<Node score="01" recordCount="9.00"> 
<SimplePredicate field="EURO_FINAL_WIN" operator="greaterThan" value="1.57000" /> 
<ScoreDistribution recordCount="3.00" value="03" /> 
<ScoreDistribution recordCount="6.00" value="01" /> 
<ScoreDistribution recordCount="0" value="02" /> 
</Node> 
</Node> 
<Node score="03" recordCount="36.00"> 
<SimplePredicate field="CHAMPIONSHIP" operator="equal" value="00000093" /> 
<ScoreDistribution recordCount="24.00" value="03" /> 
<ScoreDistribution recordCount="12.00" value="01" /> 
<ScoreDistribution recordCount="0" value="02" /> 
</Node> 
<Node score="03" recordCount="35.00"> 
<SimplePredicate field="CHAMPIONSHIP" operator="equal" value="00000094" /> 
<ScoreDistribution recordCount="18.00" value="03" /> 
<ScoreDistribution recordCount="17.00" value="01" /> 
<ScoreDistribution recordCount="0" value="02" /> 
<Node score="01" recordCount="29.00"> 
<SimplePredicate field="ASIAODDCHANGE" operator="equal" value="02" /> 
<ScoreDistribution recordCount="13.00" value="03" /> 
<ScoreDistribution recordCount="16.00" value="01" /> 
<ScoreDistribution recordCount="0" value="02" /> 
<Node score="01" recordCount="23.00"> 
<SimplePredicate field="EURO_EARLY_LOSS" operator="lessOrEqual" value="5.25000" /> 
<ScoreDistribution recordCount="8.00" value="03" /> 
<ScoreDistribution recordCount="15.00" value="01" /> 
<ScoreDistribution recordCount="0" value="02" /> 
</Node> 
<Node score="03" recordCount="6.00"> 
<SimplePredicate field="EURO_EARLY_LOSS" operator="greaterThan" value="5.25000" /> 
<ScoreDistribution recordCount="5.00" value="03" /> 
<ScoreDistribution recordCount="1.00" value="01" /> 
<ScoreDistribution recordCount="0" value="02" /> 
</Node> 
</Node> 
<Node score="03" recordCount="3.00"> 
<SimplePredicate field="ASIAODDCHANGE" operator="equal" value="03" /> 
<ScoreDistribution recordCount="3.00" value="03" /> 
<ScoreDistribution recordCount="0" value="01" /> 
<ScoreDistribution recordCount="0" value="02" /> 
</Node> 
<Node score="03" recordCount="3.00"> 
<SimplePredicate field="ASIAODDCHANGE" operator="equal" value="01" /> 
<ScoreDistribution recordCount="2.00" value="03" /> 
<ScoreDistribution recordCount="1.00" value="01" /> 
<ScoreDistribution recordCount="0" value="02" /> 
</Node> 
</Node> 
<Node score="01" recordCount="43.00"> 
<SimplePredicate field="CHAMPIONSHIP" operator="equal" value="00000095" /> 
<ScoreDistribution recordCount="19.00" value="03" /> 
<ScoreDistribution recordCount="24.00" value="01" /> 
<ScoreDistribution recordCount="0" value="02" /> 
<Node score="01" recordCount="40.00"> 
<SimplePredicate field="ASIAODDCHANGE" operator="equal" value="02" /> 
<ScoreDistribution recordCount="18.00" value="03" /> 
<ScoreDistribution recordCount="22.00" value="01" /> 
<ScoreDistribution recordCount="0" value="02" /> 
<Node score="03" recordCount="11.00"> 
<SimplePredicate field="EURO_FINAL_STANDOFF" operator="lessOrEqual" value="3.40000" /> 
<ScoreDistribution recordCount="8.00" value="03" /> 
<ScoreDistribution recordCount="3.00" value="01" /> 
<ScoreDistribution recordCount="0" value="02" /> 
<Node score="01" recordCount="2.00"> 
<SimplePredicate field="EURO_EARLY_WIN" operator="lessOrEqual" value="1.60000" /> 
<ScoreDistribution recordCount="0" value="03" /> 
<ScoreDistribution recordCount="2.00" value="01" /> 
<ScoreDistribution recordCount="0" value="02" /> 
</Node> 
<Node score="03" recordCount="9.00"> 
<SimplePredicate field="EURO_EARLY_WIN" operator="greaterThan" value="1.60000" /> 
<ScoreDistribution recordCount="8.00" value="03" /> 
<ScoreDistribution recordCount="1.00" value="01" /> 
<ScoreDistribution recordCount="0" value="02" /> 
</Node> 
</Node> 
<Node score="01" recordCount="29.00"> 
<SimplePredicate field="EURO_FINAL_STANDOFF" operator="greaterThan" value="3.40000" /> 
<ScoreDistribution recordCount="10.00" value="03" /> 
<ScoreDistribution recordCount="19.00" value="01" /> 
<ScoreDistribution recordCount="0" value="02" /> 
</Node> 
</Node> 
<Node score="01" recordCount="1.00"> 
<SimplePredicate field="ASIAODDCHANGE" operator="equal" value="03" /> 
<ScoreDistribution recordCount="0" value="03" /> 
<ScoreDistribution recordCount="1.00" value="01" /> 
<ScoreDistribution recordCount="0" value="02" /> 
</Node> 
<Node score="03" recordCount="2.00"> 
<SimplePredicate field="ASIAODDCHANGE" operator="equal" value="01" /> 
<ScoreDistribution recordCount="1.00" value="03" /> 
<ScoreDistribution recordCount="1.00" value="01" /> 
<ScoreDistribution recordCount="0" value="02" /> 
</Node> 
</Node> 
<Node score="01" recordCount="29.00"> 
<SimplePredicate field="CHAMPIONSHIP" operator="equal" value="00000096" /> 
<ScoreDistribution recordCount="11.00" value="03" /> 
<ScoreDistribution recordCount="18.00" value="01" /> 
<ScoreDistribution recordCount="0" value="02" /> 
<Node score="01" recordCount="22.00"> 
<SimplePredicate field="EURO_EARLY_WIN" operator="lessOrEqual" value="1.61000" /> 
<ScoreDistribution recordCount="6.00" value="03" /> 
<ScoreDistribution recordCount="16.00" value="01" /> 
<ScoreDistribution recordCount="0" value="02" /> 
<Node score="03" recordCount="10.00"> 
<SimplePredicate field="EURO_EARLY_WIN" operator="lessOrEqual" value="1.57000" /> 
<ScoreDistribution recordCount="5.00" value="03" /> 
<ScoreDistribution recordCount="5.00" value="01" /> 
<ScoreDistribution recordCount="0" value="02" /> 
<Node score="03" recordCount="6.00"> 
<SimplePredicate field="EURO_EARLY_LOSS" operator="lessOrEqual" value="6.00000" /> 
<ScoreDistribution recordCount="5.00" value="03" /> 
<ScoreDistribution recordCount="1.00" value="01" /> 
<ScoreDistribution recordCount="0" value="02" /> 
</Node> 
<Node score="01" recordCount="4.00"> 
<SimplePredicate field="EURO_EARLY_LOSS" operator="greaterThan" value="6.00000" /> 
<ScoreDistribution recordCount="0" value="03" /> 
<ScoreDistribution recordCount="4.00" value="01" /> 
<ScoreDistribution recordCount="0" value="02" /> 
</Node> 
</Node> 
<Node score="01" recordCount="12.00"> 
<SimplePredicate field="EURO_EARLY_WIN" operator="greaterThan" value="1.57000" /> 
<ScoreDistribution recordCount="1.00" value="03" /> 
<ScoreDistribution recordCount="11.00" value="01" /> 
<ScoreDistribution recordCount="0" value="02" /> 
</Node> 
</Node> 
<Node score="03" recordCount="7.00"> 
<SimplePredicate field="EURO_EARLY_WIN" operator="greaterThan" value="1.61000" /> 
<ScoreDistribution recordCount="5.00" value="03" /> 
<ScoreDistribution recordCount="2.00" value="01" /> 
<ScoreDistribution recordCount="0" value="02" /> 
</Node> 
</Node> 
<Node score="01" recordCount="22.00"> 
<SimplePredicate field="CHAMPIONSHIP" operator="equal" value="00000097" /> 
<ScoreDistribution recordCount="7.00" value="03" /> 
<ScoreDistribution recordCount="15.00" value="01" /> 
<ScoreDistribution recordCount="0" value="02" /> 
</Node> 
<Node score="03" recordCount="43.00"> 
<SimplePredicate field="CHAMPIONSHIP" operator="equal" value="00000098" /> 
<ScoreDistribution recordCount="24.00" value="03" /> 
<ScoreDistribution recordCount="19.00" value="01" /> 
<ScoreDistribution recordCount="0" value="02" /> 
<Node score="01" recordCount="33.00"> 
<SimplePredicate field="EURO_EARLY_WIN" operator="lessOrEqual" value="1.66000" /> 
<ScoreDistribution recordCount="14.00" value="03" /> 
<ScoreDistribution recordCount="19.00" value="01" /> 
<ScoreDistribution recordCount="0" value="02" /> 
<Node score="01" recordCount="6.00"> 
<SimplePredicate field="EURO_FINAL_WIN" operator="lessOrEqual" value="1.53000" /> 
<ScoreDistribution recordCount="0" value="03" /> 
<ScoreDistribution recordCount="6.00" value="01" /> 
<ScoreDistribution recordCount="0" value="02" /> 
</Node> 
<Node score="03" recordCount="27.00"> 
<SimplePredicate field="EURO_FINAL_WIN" operator="greaterThan" value="1.53000" /> 
<ScoreDistribution recordCount="14.00" value="03" /> 
<ScoreDistribution recordCount="13.00" value="01" /> 
<ScoreDistribution recordCount="0" value="02" /> 
<Node score="03" recordCount="5.00"> 
<SimplePredicate field="EURO_EARLY_LOSS" operator="lessOrEqual" value="4.75000" /> 
<ScoreDistribution recordCount="5.00" value="03" /> 
<ScoreDistribution recordCount="0" value="01" /> 
<ScoreDistribution recordCount="0" value="02" /> 
</Node> 
<Node score="01" recordCount="22.00"> 
<SimplePredicate field="EURO_EARLY_LOSS" operator="greaterThan" value="4.75000" /> 
<ScoreDistribution recordCount="9.00" value="03" /> 
<ScoreDistribution recordCount="13.00" value="01" /> 
<ScoreDistribution recordCount="0" value="02" /> 
<Node score="01" recordCount="5.00"> 
<SimplePredicate field="EURO_FINAL_STANDOFF" operator="lessOrEqual" value="3.25000" /> 
<ScoreDistribution recordCount="0" value="03" /> 
<ScoreDistribution recordCount="5.00" value="01" /> 
<ScoreDistribution recordCount="0" value="02" /> 
</Node> 
<Node score="03" recordCount="17.00"> 
<SimplePredicate field="EURO_FINAL_STANDOFF" operator="greaterThan" value="3.25000" /> 
<ScoreDistribution recordCount="9.00" value="03" /> 
<ScoreDistribution recordCount="8.00" value="01" /> 
<ScoreDistribution recordCount="0" value="02" /> 
<Node score="03" recordCount="11.00"> 
<SimplePredicate field="ASIA_EARLY_UD_MOUTH" operator="equal" value="000736" /> 
<ScoreDistribution recordCount="7.00" value="03" /> 
<ScoreDistribution recordCount="4.00" value="01" /> 
<ScoreDistribution recordCount="0" value="02" /> 
<Node score="03" recordCount="7.00"> 
<SimplePredicate field="EURO_FINAL_STANDOFF" operator="lessOrEqual" value="3.40000" /> 
<ScoreDistribution recordCount="6.00" value="03" /> 
<ScoreDistribution recordCount="1.00" value="01" /> 
<ScoreDistribution recordCount="0" value="02" /> 
</Node> 
<Node score="01" recordCount="4.00"> 
<SimplePredicate field="EURO_FINAL_STANDOFF" operator="greaterThan" value="3.40000" /> 
<ScoreDistribution recordCount="1.00" value="03" /> 
<ScoreDistribution recordCount="3.00" value="01" /> 
<ScoreDistribution recordCount="0" value="02" /> 
</Node> 
</Node> 
<Node score="01" recordCount="5.00"> 
<SimplePredicate field="ASIA_EARLY_UD_MOUTH" operator="equal" value="000740" /> 
<ScoreDistribution recordCount="2.00" value="03" /> 
<ScoreDistribution recordCount="3.00" value="01" /> 
<ScoreDistribution recordCount="0" value="02" /> 
</Node> 
<Node score="01" recordCount="1.00"> 
<SimplePredicate field="ASIA_EARLY_UD_MOUTH" operator="equal" value="000745" /> 
<ScoreDistribution recordCount="0" value="03" /> 
<ScoreDistribution recordCount="1.00" value="01" /> 
<ScoreDistribution recordCount="0" value="02" /> 
</Node> 
</Node> 
</Node> 
</Node> 
</Node> 
<Node score="03" recordCount="10.00"> 
<SimplePredicate field="EURO_EARLY_WIN" operator="greaterThan" value="1.66000" /> 
<ScoreDistribution recordCount="10.00" value="03" /> 
<ScoreDistribution recordCount="0" value="01" /> 
<ScoreDistribution recordCount="0" value="02" /> 
</Node> 
</Node> 
<Node score="01" recordCount="11.00"> 
<SimplePredicate field="CHAMPIONSHIP" operator="equal" value="00000099" /> 
<ScoreDistribution recordCount="2.00" value="03" /> 
<ScoreDistribution recordCount="9.00" value="01" /> 
<ScoreDistribution recordCount="0" value="02" /> 
</Node> 
<Node score="01" recordCount="12.00"> 
<SimplePredicate field="CHAMPIONSHIP" operator="equal" value="00000100" /> 
<ScoreDistribution recordCount="4.00" value="03" /> 
<ScoreDistribution recordCount="8.00" value="01" /> 
<ScoreDistribution recordCount="0" value="02" /> 
</Node> 
<Node score="03" recordCount="42.00"> 
<SimplePredicate field="CHAMPIONSHIP" operator="equal" value="00000101" /> 
<ScoreDistribution recordCount="22.00" value="03" /> 
<ScoreDistribution recordCount="20.00" value="01" /> 
<ScoreDistribution recordCount="0" value="02" /> 
<Node score="03" recordCount="5.00"> 
<SimplePredicate field="EURO_FINAL_LOSS" operator="lessOrEqual" value="4.20000" /> 
<ScoreDistribution recordCount="5.00" value="03" /> 
<ScoreDistribution recordCount="0" value="01" /> 
<ScoreDistribution recordCount="0" value="02" /> 
</Node> 
<Node score="01" recordCount="37.00"> 
<SimplePredicate field="EURO_FINAL_LOSS" operator="greaterThan" value="4.20000" /> 
<ScoreDistribution recordCount="17.00" value="03" /> 
<ScoreDistribution recordCount="20.00" value="01" /> 
<ScoreDistribution recordCount="0" value="02" /> 
</Node> 
</Node> 
<Node score="03" recordCount="8.00"> 
<SimplePredicate field="CHAMPIONSHIP" operator="equal" value="00000102" /> 
<ScoreDistribution recordCount="4.00" value="03" /> 
<ScoreDistribution recordCount="4.00" value="01" /> 
<ScoreDistribution recordCount="0" value="02" /> 
</Node> 
<Node score="01" recordCount="5.00"> 
<SimplePredicate field="CHAMPIONSHIP" operator="equal" value="00000103" /> 
<ScoreDistribution recordCount="1.00" value="03" /> 
<ScoreDistribution recordCount="4.00" value="01" /> 
<ScoreDistribution recordCount="0" value="02" /> 
</Node> 
<Node score="01" recordCount="6.00"> 
<SimplePredicate field="CHAMPIONSHIP" operator="equal" value="00000104" /> 
<ScoreDistribution recordCount="1.00" value="03" /> 
<ScoreDistribution recordCount="5.00" value="01" /> 
<ScoreDistribution recordCount="0" value="02" /> 
</Node> 
<Node score="01" recordCount="16.00"> 
<SimplePredicate field="CHAMPIONSHIP" operator="equal" value="00000105" /> 
<ScoreDistribution recordCount="5.00" value="03" /> 
<ScoreDistribution recordCount="11.00" value="01" /> 
<ScoreDistribution recordCount="0" value="02" /> 
</Node> 
<Node score="01" recordCount="3.00"> 
<SimplePredicate field="CHAMPIONSHIP" operator="equal" value="00000106" /> 
<ScoreDistribution recordCount="0" value="03" /> 
<ScoreDistribution recordCount="3.00" value="01" /> 
<ScoreDistribution recordCount="0" value="02" /> 
</Node> 
<Node score="03" recordCount="6.00"> 
<SimplePredicate field="CHAMPIONSHIP" operator="equal" value="00000108" /> 
<ScoreDistribution recordCount="3.00" value="03" /> 
<ScoreDistribution recordCount="3.00" value="01" /> 
<ScoreDistribution recordCount="0" value="02" /> 
</Node> 
<Node score="01" recordCount="82.00"> 
<SimplePredicate field="CHAMPIONSHIP" operator="equal" value="00000109" /> 
<ScoreDistribution recordCount="31.00" value="03" /> 
<ScoreDistribution recordCount="51.00" value="01" /> 
<ScoreDistribution recordCount="0" value="02" /> 
</Node> 
<Node score="03" recordCount="50.00"> 
<SimplePredicate field="CHAMPIONSHIP" operator="equal" value="00000110" /> 
<ScoreDistribution recordCount="25.00" value="03" /> 
<ScoreDistribution recordCount="25.00" value="01" /> 
<ScoreDistribution recordCount="0" value="02" /> 
<Node score="03" recordCount="44.00"> 
<SimplePredicate field="ASIAODDCHANGE" operator="equal" value="02" /> 
<ScoreDistribution recordCount="22.00" value="03" /> 
<ScoreDistribution recordCount="22.00" value="01" /> 
<ScoreDistribution recordCount="0" value="02" /> 
<Node score="01" recordCount="40.00"> 
<SimplePredicate field="EURO_EARLY_LOSS" operator="lessOrEqual" value="5.25000" /> 
<ScoreDistribution recordCount="18.00" value="03" /> 
<ScoreDistribution recordCount="22.00" value="01" /> 
<ScoreDistribution recordCount="0" value="02" /> 
<Node score="03" recordCount="2.00"> 
<SimplePredicate field="EURO_FINAL_STANDOFF" operator="lessOrEqual" value="3.40000" /> 
<ScoreDistribution recordCount="2.00" value="03" /> 
<ScoreDistribution recordCount="0" value="01" /> 
<ScoreDistribution recordCount="0" value="02" /> 
</Node> 
<Node score="01" recordCount="38.00"> 
<SimplePredicate field="EURO_FINAL_STANDOFF" operator="greaterThan" value="3.40000" /> 
<ScoreDistribution recordCount="16.00" value="03" /> 
<ScoreDistribution recordCount="22.00" value="01" /> 
<ScoreDistribution recordCount="0" value="02" /> 
</Node> 
</Node> 
<Node score="03" recordCount="4.00"> 
<SimplePredicate field="EURO_EARLY_LOSS" operator="greaterThan" value="5.25000" /> 
<ScoreDistribution recordCount="4.00" value="03" /> 
<ScoreDistribution recordCount="0" value="01" /> 
<ScoreDistribution recordCount="0" value="02" /> 
</Node> 
</Node> 
<Node score="01" recordCount="5.00"> 
<SimplePredicate field="ASIAODDCHANGE" operator="equal" value="03" /> 
<ScoreDistribution recordCount="2.00" value="03" /> 
<ScoreDistribution recordCount="3.00" value="01" /> 
<ScoreDistribution recordCount="0" value="02" /> 
</Node> 
<Node score="03" recordCount="1.00"> 
<SimplePredicate field="ASIAODDCHANGE" operator="equal" value="01" /> 
<ScoreDistribution recordCount="1.00" value="03" /> 
<ScoreDistribution recordCount="0" value="01" /> 
<ScoreDistribution recordCount="0" value="02" /> 
</Node> 
</Node> 
<Node score="03" recordCount="2.00"> 
<SimplePredicate field="CHAMPIONSHIP" operator="equal" value="00000111" /> 
<ScoreDistribution recordCount="1.00" value="03" /> 
<ScoreDistribution recordCount="1.00" value="01" /> 
<ScoreDistribution recordCount="0" value="02" /> 
</Node> 
<Node score="03" recordCount="4.00"> 
<SimplePredicate field="CHAMPIONSHIP" operator="equal" value="00000112" /> 
<ScoreDistribution recordCount="2.00" value="03" /> 
<ScoreDistribution recordCount="2.00" value="01" /> 
<ScoreDistribution recordCount="0" value="02" /> 
</Node> 
<Node score="01" recordCount="451.00"> 
<SimplePredicate field="CHAMPIONSHIP" operator="equal" value="00000114" /> 
<ScoreDistribution recordCount="200.00" value="03" /> 
<ScoreDistribution recordCount="251.00" value="01" /> 
<ScoreDistribution recordCount="0" value="02" /> 
<Node score="01" recordCount="20.00"> 
<SimplePredicate field="EURO_FINAL_WIN" operator="lessOrEqual" value="1.40000" /> 
<ScoreDistribution recordCount="2.00" value="03" /> 
<ScoreDistribution recordCount="18.00" value="01" /> 
<ScoreDistribution recordCount="0" value="02" /> 
</Node> 
<Node score="01" recordCount="431.00"> 
<SimplePredicate field="EURO_FINAL_WIN" operator="greaterThan" value="1.40000" /> 
<ScoreDistribution recordCount="198.00" value="03" /> 
<ScoreDistribution recordCount="233.00" value="01" /> 
<ScoreDistribution recordCount="0" value="02" /> 
<Node score="03" recordCount="6.00"> 
<SimplePredicate field="ASIA_EARLY_UD_MOUTH" operator="equal" value="000735" /> 
<ScoreDistribution recordCount="4.00" value="03" /> 
<ScoreDistribution recordCount="2.00" value="01" /> 
<ScoreDistribution recordCount="0" value="02" /> 
</Node> 
<Node score="01" recordCount="354.00"> 
<SimplePredicate field="ASIA_EARLY_UD_MOUTH" operator="equal" value="000736" /> 
<ScoreDistribution recordCount="160.00" value="03" /> 
<ScoreDistribution recordCount="194.00" value="01" /> 
<ScoreDistribution recordCount="0" value="02" /> 
<Node score="01" recordCount="243.00"> 
<SimplePredicate field="EURO_EARLY_LOSS" operator="lessOrEqual" value="4.80000" /> 
<ScoreDistribution recordCount="99.00" value="03" /> 
<ScoreDistribution recordCount="144.00" value="01" /> 
<ScoreDistribution recordCount="0" value="02" /> 
<Node score="01" recordCount="239.00"> 
<SimplePredicate field="EURO_FINAL_LOSS" operator="lessOrEqual" value="5.75000" /> 
<ScoreDistribution recordCount="95.00" value="03" /> 
<ScoreDistribution recordCount="144.00" value="01" /> 
<ScoreDistribution recordCount="0" value="02" /> 
</Node> 
<Node score="03" recordCount="4.00"> 
<SimplePredicate field="EURO_FINAL_LOSS" operator="greaterThan" value="5.75000" /> 
<ScoreDistribution recordCount="4.00" value="03" /> 
<ScoreDistribution recordCount="0" value="01" /> 
<ScoreDistribution recordCount="0" value="02" /> 
</Node> 
</Node> 
<Node score="03" recordCount="111.00"> 
<SimplePredicate field="EURO_EARLY_LOSS" operator="greaterThan" value="4.80000" /> 
<ScoreDistribution recordCount="61.00" value="03" /> 
<ScoreDistribution recordCount="50.00" value="01" /> 
<ScoreDistribution recordCount="0" value="02" /> 
</Node> 
</Node> 
<Node score="03" recordCount="24.00"> 
<SimplePredicate field="ASIA_EARLY_UD_MOUTH" operator="equal" value="000740" /> 
<ScoreDistribution recordCount="13.00" value="03" /> 
<ScoreDistribution recordCount="11.00" value="01" /> 
<ScoreDistribution recordCount="0" value="02" /> 
</Node> 
<Node score="01" recordCount="43.00"> 
<SimplePredicate field="ASIA_EARLY_UD_MOUTH" operator="equal" value="000741" /> 
<ScoreDistribution recordCount="19.00" value="03" /> 
<ScoreDistribution recordCount="24.00" value="01" /> 
<ScoreDistribution recordCount="0" value="02" /> 
<Node score="01" recordCount="14.00"> 
<SimplePredicate field="EURO_FINAL_LOSS" operator="lessOrEqual" value="4.50000" /> 
<ScoreDistribution recordCount="2.00" value="03" /> 
<ScoreDistribution recordCount="12.00" value="01" /> 
<ScoreDistribution recordCount="0" value="02" /> 
<Node score="03" recordCount="2.00"> 
<SimplePredicate field="EURO_FINAL_LOSS" operator="lessOrEqual" value="4.00000" /> 
<ScoreDistribution recordCount="2.00" value="03" /> 
<ScoreDistribution recordCount="0" value="01" /> 
<ScoreDistribution recordCount="0" value="02" /> 
</Node> 
<Node score="01" recordCount="12.00"> 
<SimplePredicate field="EURO_FINAL_LOSS" operator="greaterThan" value="4.00000" /> 
<ScoreDistribution recordCount="0" value="03" /> 
<ScoreDistribution recordCount="12.00" value="01" /> 
<ScoreDistribution recordCount="0" value="02" /> 
</Node> 
</Node> 
<Node score="03" recordCount="29.00"> 
<SimplePredicate field="EURO_FINAL_LOSS" operator="greaterThan" value="4.50000" /> 
<ScoreDistribution recordCount="17.00" value="03" /> 
<ScoreDistribution recordCount="12.00" value="01" /> 
<ScoreDistribution recordCount="0" value="02" /> 
</Node> 
</Node> 
<Node score="03" recordCount="1.00"> 
<SimplePredicate field="ASIA_EARLY_UD_MOUTH" operator="equal" value="000742" /> 
<ScoreDistribution recordCount="1.00" value="03" /> 
<ScoreDistribution recordCount="0" value="01" /> 
<ScoreDistribution recordCount="0" value="02" /> 
</Node> 
<Node score="01" recordCount="1.00"> 
<SimplePredicate field="ASIA_EARLY_UD_MOUTH" operator="equal" value="000743" /> 
<ScoreDistribution recordCount="0" value="03" /> 
<ScoreDistribution recordCount="1.00" value="01" /> 
<ScoreDistribution recordCount="0" value="02" /> 
</Node> 
<Node score="03" recordCount="2.00"> 
<SimplePredicate field="ASIA_EARLY_UD_MOUTH" operator="equal" value="000745" /> 
<ScoreDistribution recordCount="1.00" value="03" /> 
<ScoreDistribution recordCount="1.00" value="01" /> 
<ScoreDistribution recordCount="0" value="02" /> 
</Node> 
</Node> 
</Node> 
<Node score="01" recordCount="19.00"> 
<SimplePredicate field="CHAMPIONSHIP" operator="equal" value="00000116" /> 
<ScoreDistribution recordCount="4.00" value="03" /> 
<ScoreDistribution recordCount="15.00" value="01" /> 
<ScoreDistribution recordCount="0" value="02" /> 
</Node> 
<Node score="01" recordCount="3.00"> 
<SimplePredicate field="CHAMPIONSHIP" operator="equal" value="00000117" /> 
<ScoreDistribution recordCount="0" value="03" /> 
<ScoreDistribution recordCount="3.00" value="01" /> 
<ScoreDistribution recordCount="0" value="02" /> 
</Node> 
<Node score="01" recordCount="2.00"> 
<SimplePredicate field="CHAMPIONSHIP" operator="equal" value="00000118" /> 
<ScoreDistribution recordCount="0" value="03" /> 
<ScoreDistribution recordCount="2.00" value="01" /> 
<ScoreDistribution recordCount="0" value="02" /> 
</Node> 
<Node score="01" recordCount="19.00"> 
<SimplePredicate field="CHAMPIONSHIP" operator="equal" value="00000120" /> 
<ScoreDistribution recordCount="6.00" value="03" /> 
<ScoreDistribution recordCount="13.00" value="01" /> 
<ScoreDistribution recordCount="0" value="02" /> 
</Node> 
<Node score="01" recordCount="7.00"> 
<SimplePredicate field="CHAMPIONSHIP" operator="equal" value="00000121" /> 
<ScoreDistribution recordCount="2.00" value="03" /> 
<ScoreDistribution recordCount="5.00" value="01" /> 
<ScoreDistribution recordCount="0" value="02" /> 
</Node> 
<Node score="01" recordCount="97.00"> 
<SimplePredicate field="CHAMPIONSHIP" operator="equal" value="00000767" /> 
<ScoreDistribution recordCount="45.00" value="03" /> 
<ScoreDistribution recordCount="52.00" value="01" /> 
<ScoreDistribution recordCount="0" value="02" /> 
</Node> 
<Node score="03" recordCount="16.00"> 
<SimplePredicate field="CHAMPIONSHIP" operator="equal" value="00000768" /> 
<ScoreDistribution recordCount="11.00" value="03" /> 
<ScoreDistribution recordCount="5.00" value="01" /> 
<ScoreDistribution recordCount="0" value="02" /> 
</Node> 
<Node score="01" recordCount="32.00"> 
<SimplePredicate field="CHAMPIONSHIP" operator="equal" value="00000769" /> 
<ScoreDistribution recordCount="12.00" value="03" /> 
<ScoreDistribution recordCount="20.00" value="01" /> 
<ScoreDistribution recordCount="0" value="02" /> 
<Node score="01" recordCount="26.00"> 
<SimplePredicate field="ASIAODDCHANGE" operator="equal" value="02" /> 
<ScoreDistribution recordCount="8.00" value="03" /> 
<ScoreDistribution recordCount="18.00" value="01" /> 
<ScoreDistribution recordCount="0" value="02" /> 
<Node score="03" recordCount="13.00"> 
<SimplePredicate field="EURO_FINAL_LOSS" operator="lessOrEqual" value="5.00000" /> 
<ScoreDistribution recordCount="7.00" value="03" /> 
<ScoreDistribution recordCount="6.00" value="01" /> 
<ScoreDistribution recordCount="0" value="02" /> 
<Node score="01" recordCount="3.00"> 
<SimplePredicate field="EURO_FINAL_LOSS" operator="lessOrEqual" value="4.20000" /> 
<ScoreDistribution recordCount="0" value="03" /> 
<ScoreDistribution recordCount="3.00" value="01" /> 
<ScoreDistribution recordCount="0" value="02" /> 
</Node> 
<Node score="03" recordCount="10.00"> 
<SimplePredicate field="EURO_FINAL_LOSS" operator="greaterThan" value="4.20000" /> 
<ScoreDistribution recordCount="7.00" value="03" /> 
<ScoreDistribution recordCount="3.00" value="01" /> 
<ScoreDistribution recordCount="0" value="02" /> 
</Node> 
</Node> 
<Node score="01" recordCount="13.00"> 
<SimplePredicate field="EURO_FINAL_LOSS" operator="greaterThan" value="5.00000" /> 
<ScoreDistribution recordCount="1.00" value="03" /> 
<ScoreDistribution recordCount="12.00" value="01" /> 
<ScoreDistribution recordCount="0" value="02" /> 
<Node score="01" recordCount="12.00"> 
<SimplePredicate field="EURO_FINAL_STANDOFF" operator="lessOrEqual" value="4.20000" /> 
<ScoreDistribution recordCount="0" value="03" /> 
<ScoreDistribution recordCount="12.00" value="01" /> 
<ScoreDistribution recordCount="0" value="02" /> 
</Node> 
<Node score="03" recordCount="1.00"> 
<SimplePredicate field="EURO_FINAL_STANDOFF" operator="greaterThan" value="4.20000" /> 
<ScoreDistribution recordCount="1.00" value="03" /> 
<ScoreDistribution recordCount="0" value="01" /> 
<ScoreDistribution recordCount="0" value="02" /> 
</Node> 
</Node> 
</Node> 
<Node score="03" recordCount="1.00"> 
<SimplePredicate field="ASIAODDCHANGE" operator="equal" value="03" /> 
<ScoreDistribution recordCount="1.00" value="03" /> 
<ScoreDistribution recordCount="0" value="01" /> 
<ScoreDistribution recordCount="0" value="02" /> 
</Node> 
<Node score="03" recordCount="5.00"> 
<SimplePredicate field="ASIAODDCHANGE" operator="equal" value="01" /> 
<ScoreDistribution recordCount="3.00" value="03" /> 
<ScoreDistribution recordCount="2.00" value="01" /> 
<ScoreDistribution recordCount="0" value="02" /> 
</Node> 
</Node> 
<Node score="01" recordCount="51.00"> 
<SimplePredicate field="CHAMPIONSHIP" operator="equal" value="00005532" /> 
<ScoreDistribution recordCount="22.00" value="03" /> 
<ScoreDistribution recordCount="29.00" value="01" /> 
<ScoreDistribution recordCount="0" value="02" /> 
</Node> 
<Node score="01" recordCount="11.00"> 
<SimplePredicate field="CHAMPIONSHIP" operator="equal" value="00005575" /> 
<ScoreDistribution recordCount="2.00" value="03" /> 
<ScoreDistribution recordCount="9.00" value="01" /> 
<ScoreDistribution recordCount="0" value="02" /> 
</Node> 
<Node score="01" recordCount="9.00"> 
<SimplePredicate field="CHAMPIONSHIP" operator="equal" value="00005576" /> 
<ScoreDistribution recordCount="4.00" value="03" /> 
<ScoreDistribution recordCount="5.00" value="01" /> 
<ScoreDistribution recordCount="0" value="02" /> 
</Node> 
<Node score="01" recordCount="27.00"> 
<SimplePredicate field="CHAMPIONSHIP" operator="equal" value="00005584" /> 
<ScoreDistribution recordCount="11.00" value="03" /> 
<ScoreDistribution recordCount="16.00" value="01" /> 
<ScoreDistribution recordCount="0" value="02" /> 
<Node score="01" recordCount="22.00"> 
<SimplePredicate field="ASIAODDCHANGE" operator="equal" value="02" /> 
<ScoreDistribution recordCount="7.00" value="03" /> 
<ScoreDistribution recordCount="15.00" value="01" /> 
<ScoreDistribution recordCount="0" value="02" /> 
<Node score="03" recordCount="4.00"> 
<SimplePredicate field="EURO_FINAL_LOSS" operator="lessOrEqual" value="3.20000" /> 
<ScoreDistribution recordCount="4.00" value="03" /> 
<ScoreDistribution recordCount="0" value="01" /> 
<ScoreDistribution recordCount="0" value="02" /> 
</Node> 
<Node score="01" recordCount="18.00"> 
<SimplePredicate field="EURO_FINAL_LOSS" operator="greaterThan" value="3.20000" /> 
<ScoreDistribution recordCount="3.00" value="03" /> 
<ScoreDistribution recordCount="15.00" value="01" /> 
<ScoreDistribution recordCount="0" value="02" /> 
</Node> 
</Node> 
<Node score="03" recordCount="2.00"> 
<SimplePredicate field="ASIAODDCHANGE" operator="equal" value="03" /> 
<ScoreDistribution recordCount="2.00" value="03" /> 
<ScoreDistribution recordCount="0" value="01" /> 
<ScoreDistribution recordCount="0" value="02" /> 
</Node> 
<Node score="03" recordCount="3.00"> 
<SimplePredicate field="ASIAODDCHANGE" operator="equal" value="01" /> 
<ScoreDistribution recordCount="2.00" value="03" /> 
<ScoreDistribution recordCount="1.00" value="01" /> 
<ScoreDistribution recordCount="0" value="02" /> 
</Node> 
</Node> 
<Node score="03" recordCount="1.00"> 
<SimplePredicate field="CHAMPIONSHIP" operator="equal" value="00005605" /> 
<ScoreDistribution recordCount="1.00" value="03" /> 
<ScoreDistribution recordCount="0" value="01" /> 
<ScoreDistribution recordCount="0" value="02" /> 
</Node> 
<Node score="03" recordCount="12.00"> 
<SimplePredicate field="CHAMPIONSHIP" operator="equal" value="00005663" /> 
<ScoreDistribution recordCount="7.00" value="03" /> 
<ScoreDistribution recordCount="5.00" value="01" /> 
<ScoreDistribution recordCount="0" value="02" /> 
<Node score="01" recordCount="1.00"> 
<SimplePredicate field="ASIAODDCHANGEVOL" operator="lessOrEqual" value="10.00000-" /> 
<ScoreDistribution recordCount="0" value="03" /> 
<ScoreDistribution recordCount="1.00" value="01" /> 
<ScoreDistribution recordCount="0" value="02" /> 
</Node> 
<Node score="03" recordCount="11.00"> 
<SimplePredicate field="ASIAODDCHANGEVOL" operator="greaterThan" value="10.00000-" /> 
<ScoreDistribution recordCount="7.00" value="03" /> 
<ScoreDistribution recordCount="4.00" value="01" /> 
<ScoreDistribution recordCount="0" value="02" /> 
<Node score="01" recordCount="2.00"> 
<SimplePredicate field="EURO_EARLY_LOSS" operator="lessOrEqual" value="4.20000" /> 
<ScoreDistribution recordCount="0" value="03" /> 
<ScoreDistribution recordCount="2.00" value="01" /> 
<ScoreDistribution recordCount="0" value="02" /> 
</Node> 
<Node score="03" recordCount="9.00"> 
<SimplePredicate field="EURO_EARLY_LOSS" operator="greaterThan" value="4.20000" /> 
<ScoreDistribution recordCount="7.00" value="03" /> 
<ScoreDistribution recordCount="2.00" value="01" /> 
<ScoreDistribution recordCount="0" value="02" /> 
</Node> 
</Node> 
</Node> 
<Node score="01" recordCount="2.00"> 
<SimplePredicate field="CHAMPIONSHIP" operator="equal" value="00005694" /> 
<ScoreDistribution recordCount="0" value="03" /> 
<ScoreDistribution recordCount="2.00" value="01" /> 
<ScoreDistribution recordCount="0" value="02" /> 
</Node> 
<Node score="03" recordCount="2.00"> 
<SimplePredicate field="CHAMPIONSHIP" operator="equal" value="00005713" /> 
<ScoreDistribution recordCount="1.00" value="03" /> 
<ScoreDistribution recordCount="1.00" value="01" /> 
<ScoreDistribution recordCount="0" value="02" /> 
</Node> 
<Node score="01" recordCount="1.00"> 
<SimplePredicate field="CHAMPIONSHIP" operator="equal" value="00005771" /> 
<ScoreDistribution recordCount="0" value="03" /> 
<ScoreDistribution recordCount="1.00" value="01" /> 
<ScoreDistribution recordCount="0" value="02" /> 
</Node> 
<Node score="03" recordCount="16.00"> 
<SimplePredicate field="CHAMPIONSHIP" operator="equal" value="00005797" /> 
<ScoreDistribution recordCount="11.00" value="03" /> 
<ScoreDistribution recordCount="5.00" value="01" /> 
<ScoreDistribution recordCount="0" value="02" /> 
</Node> 
<Node score="03" recordCount="17.00"> 
<SimplePredicate field="CHAMPIONSHIP" operator="equal" value="00005816" /> 
<ScoreDistribution recordCount="11.00" value="03" /> 
<ScoreDistribution recordCount="6.00" value="01" /> 
<ScoreDistribution recordCount="0" value="02" /> 
<Node score="01" recordCount="2.00"> 
<SimplePredicate field="EURO_EARLY_WIN" operator="lessOrEqual" value="1.53000" /> 
<ScoreDistribution recordCount="0" value="03" /> 
<ScoreDistribution recordCount="2.00" value="01" /> 
<ScoreDistribution recordCount="0" value="02" /> 
</Node> 
<Node score="03" recordCount="15.00"> 
<SimplePredicate field="EURO_EARLY_WIN" operator="greaterThan" value="1.53000" /> 
<ScoreDistribution recordCount="11.00" value="03" /> 
<ScoreDistribution recordCount="4.00" value="01" /> 
<ScoreDistribution recordCount="0" value="02" /> 
<Node score="03" recordCount="11.00"> 
<SimplePredicate field="EURO_EARLY_WIN" operator="lessOrEqual" value="1.66000" /> 
<ScoreDistribution recordCount="10.00" value="03" /> 
<ScoreDistribution recordCount="1.00" value="01" /> 
<ScoreDistribution recordCount="0" value="02" /> 
</Node> 
<Node score="01" recordCount="4.00"> 
<SimplePredicate field="EURO_EARLY_WIN" operator="greaterThan" value="1.66000" /> 
<ScoreDistribution recordCount="1.00" value="03" /> 
<ScoreDistribution recordCount="3.00" value="01" /> 
<ScoreDistribution recordCount="0" value="02" /> 
</Node> 
</Node> 
</Node> 
