<?xml version="1.0" ?>
<PMML version="2.0"> 
<Header copyright="www.sap.com" 
description="多家公司赔率对比"> 
<Timestamp>20110222122615</Timestamp> 
</Header> 
<DataDictionary numberOfFields="25"> 
<DataField name="ASIALEVELCHANGE" displayName="亚水变" optype="categorical"> 
<Value value="02" property ="valid" /> 
<Value value="01" property ="valid" /> 
<Value value="03" property ="valid" /> 
</DataField> 
<DataField name="ASIALEVELCHANGEVOL" displayName="亚水变量" optype="continuous"> 
</DataField> 
<DataField name="ASIAODDCHANGE" displayName="亚盘变" optype="categorical"> 
<Value value="02" property ="valid" /> 
<Value value="01" property ="valid" /> 
<Value value="03" property ="valid" /> 
</DataField> 
<DataField name="ASIAODDCHANGEVOL" displayName="亚盘变量" optype="continuous"> 
</DataField> 
<DataField name="ASIA_EARLY_DOWN" displayName="亚初下" optype="continuous"> 
</DataField> 
<DataField name="ASIA_EARLY_UD_MOUTH" displayName="亚初盘" optype="categorical"> 
<Value value="000735" property ="valid" /> 
<Value value="000736" property ="valid" /> 
<Value value="000741" property ="valid" /> 
<Value value="000745" property ="valid" /> 
<Value value="000737" property ="valid" /> 
<Value value="000738" property ="valid" /> 
<Value value="000744" property ="valid" /> 
<Value value="000746" property ="valid" /> 
<Value value="000749" property ="valid" /> 
<Value value="000739" property ="valid" /> 
<Value value="000740" property ="valid" /> 
<Value value="000742" property ="valid" /> 
<Value value="000743" property ="valid" /> 
<Value value="000747" property ="valid" /> 
<Value value="000748" property ="valid" /> 
<Value value="000750" property ="valid" /> 
<Value value="001209" property ="valid" /> 
<Value value="000998" property ="valid" /> 
<Value value="006836" property ="valid" /> 
<Value value="006837" property ="valid" /> 
<Value value="007101" property ="valid" /> 
<Value value="000999" property ="valid" /> 
<Value value="001000" property ="valid" /> 
<Value value="001620" property ="valid" /> 
<Value value="001471" property ="valid" /> 
<Value value="001456" property ="valid" /> 
<Value value="001545" property ="valid" /> 
<Value value="005041" property ="valid" /> 
<Value value="002083" property ="valid" /> 
<Value value="002324" property ="valid" /> 
<Value value="002331" property ="valid" /> 
<Value value="003323" property ="valid" /> 
<Value value="003350" property ="valid" /> 
<Value value="004423" property ="valid" /> 
<Value value="005401" property ="valid" /> 
<Value value="005459" property ="valid" /> 
</DataField> 
<DataField name="ASIA_EARLY_UP" displayName="亚初上" optype="continuous"> 
</DataField> 
<DataField name="ASIA_FINAL_DOWN" displayName="亚终下" optype="continuous"> 
</DataField> 
<DataField name="ASIA_FINAL_UD_MOUTH" displayName="亚终盘" optype="categorical"> 
<Value value="000735" property ="valid" /> 
<Value value="000736" property ="valid" /> 
<Value value="000737" property ="valid" /> 
<Value value="000738" property ="valid" /> 
<Value value="000739" property ="valid" /> 
<Value value="000740" property ="valid" /> 
<Value value="000741" property ="valid" /> 
<Value value="000742" property ="valid" /> 
<Value value="000743" property ="valid" /> 
<Value value="000744" property ="valid" /> 
<Value value="000745" property ="valid" /> 
<Value value="000747" property ="valid" /> 
<Value value="000748" property ="valid" /> 
<Value value="000749" property ="valid" /> 
<Value value="006836" property ="valid" /> 
<Value value="000746" property ="valid" /> 
<Value value="006837" property ="valid" /> 
<Value value="007101" property ="valid" /> 
<Value value="000750" property ="valid" /> 
<Value value="000998" property ="valid" /> 
<Value value="000999" property ="valid" /> 
<Value value="001000" property ="valid" /> 
<Value value="001209" property ="valid" /> 
<Value value="001456" property ="valid" /> 
<Value value="001471" property ="valid" /> 
<Value value="001545" property ="valid" /> 
<Value value="001620" property ="valid" /> 
<Value value="002083" property ="valid" /> 
<Value value="002324" property ="valid" /> 
<Value value="002331" property ="valid" /> 
<Value value="003323" property ="valid" /> 
<Value value="003350" property ="valid" /> 
<Value value="004423" property ="valid" /> 
<Value value="005041" property ="valid" /> 
<Value value="005401" property ="valid" /> 
<Value value="005459" property ="valid" /> 
</DataField> 
<DataField name="ASIA_FINAL_UP" displayName="亚终上" optype="continuous"> 
</DataField> 
<DataField name="CHAMPIONSHIP" displayName="赛事" optype="categorical"> 
<Value value="00000082" property ="valid" /> 
<Value value="00000084" property ="valid" /> 
<Value value="00000085" property ="valid" /> 
<Value value="00000086" property ="valid" /> 
<Value value="00000051" property ="valid" /> 
<Value value="00000052" property ="valid" /> 
<Value value="00000053" property ="valid" /> 
<Value value="00000054" property ="valid" /> 
<Value value="00000055" property ="valid" /> 
<Value value="00000056" property ="valid" /> 
<Value value="00000057" property ="valid" /> 
<Value value="00000058" property ="valid" /> 
<Value value="00000059" property ="valid" /> 
<Value value="00000064" property ="valid" /> 
<Value value="00000065" property ="valid" /> 
<Value value="00000067" property ="valid" /> 
<Value value="00000068" property ="valid" /> 
<Value value="00000069" property ="valid" /> 
<Value value="00000070" property ="valid" /> 
<Value value="00000071" property ="valid" /> 
<Value value="00000072" property ="valid" /> 
<Value value="00000073" property ="valid" /> 
<Value value="00000074" property ="valid" /> 
<Value value="00000076" property ="valid" /> 
<Value value="00000077" property ="valid" /> 
<Value value="00000078" property ="valid" /> 
<Value value="00000079" property ="valid" /> 
<Value value="00000080" property ="valid" /> 
<Value value="00000081" property ="valid" /> 
<Value value="00000083" property ="valid" /> 
<Value value="00000088" property ="valid" /> 
<Value value="00000094" property ="valid" /> 
<Value value="00000097" property ="valid" /> 
<Value value="00000110" property ="valid" /> 
<Value value="00000114" property ="valid" /> 
<Value value="00000767" property ="valid" /> 
<Value value="00000771" property ="valid" /> 
<Value value="00000775" property ="valid" /> 
<Value value="00001004" property ="valid" /> 
<Value value="00001217" property ="valid" /> 
<Value value="00001221" property ="valid" /> 
<Value value="00001223" property ="valid" /> 
<Value value="00001224" property ="valid" /> 
<Value value="00001272" property ="valid" /> 
<Value value="00001280" property ="valid" /> 
<Value value="00001285" property ="valid" /> 
<Value value="00001715" property ="valid" /> 
<Value value="00001225" property ="valid" /> 
<Value value="00001226" property ="valid" /> 
<Value value="00001282" property ="valid" /> 
<Value value="00001718" property ="valid" /> 
<Value value="00001955" property ="valid" /> 
<Value value="00002850" property ="valid" /> 
<Value value="00002974" property ="valid" /> 
<Value value="00003298" property ="valid" /> 
<Value value="00003896" property ="valid" /> 
<Value value="00003928" property ="valid" /> 
<Value value="00004033" property ="valid" /> 
<Value value="00004161" property ="valid" /> 
<Value value="00004162" property ="valid" /> 
<Value value="00004569" property ="valid" /> 
<Value value="00004610" property ="valid" /> 
<Value value="00004670" property ="valid" /> 
<Value value="00005008" property ="valid" /> 
<Value value="00005117" property ="valid" /> 
<Value value="00005392" property ="valid" /> 
<Value value="00005516" property ="valid" /> 
<Value value="00005771" property ="valid" /> 
<Value value="00005797" property ="valid" /> 
<Value value="00005849" property ="valid" /> 
<Value value="00005943" property ="valid" /> 
<Value value="00006006" property ="valid" /> 
<Value value="00006129" property ="valid" /> 
<Value value="00001219" property ="valid" /> 
<Value value="00001227" property ="valid" /> 
<Value value="00003302" property ="valid" /> 
<Value value="00006314" property ="valid" /> 
<Value value="00006513" property ="valid" /> 
<Value value="00006662" property ="valid" /> 
<Value value="00006676" property ="valid" /> 
<Value value="00006693" property ="valid" /> 
<Value value="00006703" property ="valid" /> 
<Value value="00006728" property ="valid" /> 
<Value value="00000049" property ="valid" /> 
<Value value="00000050" property ="valid" /> 
<Value value="00006675" property ="valid" /> 
<Value value="00000089" property ="valid" /> 
<Value value="00000092" property ="valid" /> 
<Value value="00000093" property ="valid" /> 
<Value value="00000096" property ="valid" /> 
<Value value="00000111" property ="valid" /> 
<Value value="00000769" property ="valid" /> 
<Value value="00000770" property ="valid" /> 
<Value value="00000774" property ="valid" /> 
<Value value="00001008" property ="valid" /> 
<Value value="00001218" property ="valid" /> 
<Value value="00001222" property ="valid" /> 
<Value value="00001275" property ="valid" /> 
<Value value="00001852" property ="valid" /> 
<Value value="00001905" property ="valid" /> 
<Value value="00002200" property ="valid" /> 
<Value value="00002600" property ="valid" /> 
<Value value="00002718" property ="valid" /> 
<Value value="00003569" property ="valid" /> 
<Value value="00004074" property ="valid" /> 
<Value value="00004419" property ="valid" /> 
<Value value="00004998" property ="valid" /> 
<Value value="00005199" property ="valid" /> 
<Value value="00006165" property ="valid" /> 
<Value value="00006201" property ="valid" /> 
<Value value="00006209" property ="valid" /> 
<Value value="00006435" property ="valid" /> 
<Value value="00006472" property ="valid" /> 
<Value value="00006666" property ="valid" /> 
<Value value="00006709" property ="valid" /> 
<Value value="00006672" property ="valid" /> 
<Value value="00006723" property ="valid" /> 
<Value value="00000772" property ="valid" /> 
<Value value="00002656" property ="valid" /> 
<Value value="00006674" property ="valid" /> 
<Value value="00006690" property ="valid" /> 
<Value value="00009374" property ="valid" /> 
<Value value="00005301" property ="valid" /> 
<Value value="00008091" property ="valid" /> 
<Value value="00005517" property ="valid" /> 
<Value value="00010267" property ="valid" /> 
<Value value="00000101" property ="valid" /> 
<Value value="00000109" property ="valid" /> 
<Value value="00000095" property ="valid" /> 
<Value value="00001220" property ="valid" /> 
<Value value="00001274" property ="valid" /> 
<Value value="00001277" property ="valid" /> 
<Value value="00003881" property ="valid" /> 
<Value value="00004180" property ="valid" /> 
<Value value="00004913" property ="valid" /> 
<Value value="00005575" property ="valid" /> 
<Value value="00005861" property ="valid" /> 
<Value value="00006525" property ="valid" /> 
<Value value="00006683" property ="valid" /> 
<Value value="00006721" property ="valid" /> 
<Value value="00008233" property ="valid" /> 
<Value value="00008255" property ="valid" /> 
<Value value="00001276" property ="valid" /> 
<Value value="00001554" property ="valid" /> 
<Value value="00001717" property ="valid" /> 
<Value value="00001978" property ="valid" /> 
<Value value="00001979" property ="valid" /> 
<Value value="00002764" property ="valid" /> 
<Value value="00004643" property ="valid" /> 
<Value value="00004671" property ="valid" /> 
<Value value="00005077" property ="valid" /> 
<Value value="00005860" property ="valid" /> 
<Value value="00005942" property ="valid" /> 
<Value value="00006252" property ="valid" /> 
<Value value="00006474" property ="valid" /> 
<Value value="00006571" property ="valid" /> 
<Value value="00006691" property ="valid" /> 
<Value value="00006711" property ="valid" /> 
<Value value="00007148" property ="valid" /> 
<Value value="00008129" property ="valid" /> 
<Value value="00008697" property ="valid" /> 
<Value value="00008131" property ="valid" /> 
<Value value="00008356" property ="valid" /> 
<Value value="00008629" property ="valid" /> 
<Value value="00000087" property ="valid" /> 
<Value value="00001281" property ="valid" /> 
<Value value="00004886" property ="valid" /> 
<Value value="00006463" property ="valid" /> 
<Value value="00000060" property ="valid" /> 
<Value value="00006456" property ="valid" /> 
<Value value="00000768" property ="valid" /> 
<Value value="00001780" property ="valid" /> 
<Value value="00004685" property ="valid" /> 
<Value value="00005532" property ="valid" /> 
<Value value="00006238" property ="valid" /> 
<Value value="00000773" property ="valid" /> 
<Value value="00001288" property ="valid" /> 
<Value value="00001781" property ="valid" /> 
<Value value="00005502" property ="valid" /> 
<Value value="00006574" property ="valid" /> 
<Value value="00008417" property ="valid" /> 
<Value value="00006467" property ="valid" /> 
<Value value="00008418" property ="valid" /> 
<Value value="00001457" property ="valid" /> 
<Value value="00002170" property ="valid" /> 
<Value value="00002985" property ="valid" /> 
<Value value="00008312" property ="valid" /> 
<Value value="00006782" property ="valid" /> 
<Value value="00008540" property ="valid" /> 
<Value value="00008424" property ="valid" /> 
<Value value="00004740" property ="valid" /> 
<Value value="00005295" property ="valid" /> 
<Value value="00005829" property ="valid" /> 
<Value value="00006471" property ="valid" /> 
<Value value="00006488" property ="valid" /> 
<Value value="00008394" property ="valid" /> 
<Value value="00006223" property ="valid" /> 
<Value value="00003069" property ="valid" /> 
<Value value="00001565" property ="valid" /> 
<Value value="00006297" property ="valid" /> 
</DataField> 
<DataField name="COUNTRY" displayName="国家" optype="categorical"> 
<Value value="006498" property ="valid" /> 
<Value value="006500" property ="valid" /> 
<Value value="006502" property ="valid" /> 
<Value value="006503" property ="valid" /> 
<Value value="006454" property ="valid" /> 
<Value value="006458" property ="valid" /> 
<Value value="006462" property ="valid" /> 
<Value value="006464" property ="valid" /> 
<Value value="006547" property ="valid" /> 
<Value value="006466" property ="valid" /> 
<Value value="006469" property ="valid" /> 
<Value value="006470" property ="valid" /> 
<Value value="006473" property ="valid" /> 
<Value value="006548" property ="valid" /> 
<Value value="006567" property ="valid" /> 
<Value value="006692" property ="valid" /> 
<Value value="006476" property ="valid" /> 
<Value value="006478" property ="valid" /> 
<Value value="006492" property ="valid" /> 
<Value value="006495" property ="valid" /> 
<Value value="006497" property ="valid" /> 
<Value value="006507" property ="valid" /> 
<Value value="006528" property ="valid" /> 
<Value value="006575" property ="valid" /> 
<Value value="006661" property ="valid" /> 
<Value value="006543" property ="valid" /> 
<Value value="006506" property ="valid" /> 
<Value value="006650" property ="valid" /> 
<Value value="006717" property ="valid" /> 
<Value value="006745" property ="valid" /> 
<Value value="006702" property ="valid" /> 
<Value value="006486" property ="valid" /> 
<Value value="006512" property ="valid" /> 
<Value value="006509" property ="valid" /> 
<Value value="006522" property ="valid" /> 
<Value value="006526" property ="valid" /> 
<Value value="006533" property ="valid" /> 
<Value value="006505" property ="valid" /> 
<Value value="006573" property ="valid" /> 
<Value value="006501" property ="valid" /> 
<Value value="006554" property ="valid" /> 
<Value value="006570" property ="valid" /> 
<Value value="006598" property ="valid" /> 
<Value value="006532" property ="valid" /> 
<Value value="006510" property ="valid" /> 
<Value value="006553" property ="valid" /> 
<Value value="006624" property ="valid" /> 
<Value value="006551" property ="valid" /> 
<Value value="006521" property ="valid" /> 
<Value value="006518" property ="valid" /> 
<Value value="006536" property ="valid" /> 
<Value value="006556" property ="valid" /> 
<Value value="006534" property ="valid" /> 
<Value value="006546" property ="valid" /> 
<Value value="006597" property ="valid" /> 
<Value value="006519" property ="valid" /> 
</DataField> 
<DataField name="EURO_EARLY_LOSS" displayName="欧初负" optype="continuous"> 
</DataField> 
<DataField name="EURO_EARLY_LOSS2" displayName="欧初负2" optype="continuous"> 
</DataField> 
<DataField name="EURO_EARLY_STANDOFF" displayName="欧初平" optype="continuous"> 
</DataField> 
<DataField name="EURO_EARLY_STANDOFF2" displayName="欧初平2" optype="continuous"> 
</DataField> 
<DataField name="EURO_EARLY_WIN" displayName="欧初胜" optype="continuous"> 
</DataField> 
<DataField name="EURO_EARLY_WIN2" displayName="欧初胜2" optype="continuous"> 
</DataField> 
<DataField name="EURO_FINAL_LOSS" displayName="欧终负" optype="continuous"> 
</DataField> 
<DataField name="EURO_FINAL_LOSS2" displayName="欧终负2" optype="continuous"> 
</DataField> 
<DataField name="EURO_FINAL_STANDOFF" displayName="欧终平" optype="continuous"> 
</DataField> 
<DataField name="EURO_FINAL_STANDOFF2" displayName="欧终平2" optype="continuous"> 
</DataField> 
<DataField name="EURO_FINAL_WIN" displayName="欧终胜" optype="continuous"> 
</DataField> 
<DataField name="EURO_FINAL_WIN2" displayName="欧终胜2" optype="continuous"> 
</DataField> 
<DataField name="UP_DOWN" displayName="结果" optype="categorical"> 
<Value value="03" property ="valid" /> 
<Value value="01" property ="valid" /> 
<Value value="02" property ="valid" /> 
</DataField> 
</DataDictionary> 
<TreeModel modelName="COMBINEODDS" functionName="classification"> 
<MiningSchema> 
<MiningField name="ASIALEVELCHANGE" usageType="active"  /> 
<MiningField name="ASIALEVELCHANGEVOL" usageType="active"  /> 
<MiningField name="ASIAODDCHANGE" usageType="active"  /> 
<MiningField name="ASIAODDCHANGEVOL" usageType="active"  /> 
<MiningField name="ASIA_EARLY_DOWN" usageType="active"  /> 
<MiningField name="ASIA_EARLY_UD_MOUTH" usageType="active"  /> 
<MiningField name="ASIA_EARLY_UP" usageType="active"  /> 
<MiningField name="ASIA_FINAL_DOWN" usageType="active"  /> 
<MiningField name="ASIA_FINAL_UD_MOUTH" usageType="active"  /> 
<MiningField name="ASIA_FINAL_UP" usageType="active"  /> 
<MiningField name="CHAMPIONSHIP" usageType="active"  /> 
<MiningField name="COUNTRY" usageType="active"  /> 
<MiningField name="EURO_EARLY_LOSS" usageType="active"  /> 
<MiningField name="EURO_EARLY_LOSS2" usageType="active"  /> 
<MiningField name="EURO_EARLY_STANDOFF" usageType="active"  /> 
<MiningField name="EURO_EARLY_STANDOFF2" usageType="active"  /> 
<MiningField name="EURO_EARLY_WIN" usageType="active"  /> 
<MiningField name="EURO_EARLY_WIN2" usageType="active"  /> 
<MiningField name="EURO_FINAL_LOSS" usageType="active"  /> 
<MiningField name="EURO_FINAL_LOSS2" usageType="active"  /> 
<MiningField name="EURO_FINAL_STANDOFF" usageType="active"  /> 
<MiningField name="EURO_FINAL_STANDOFF2" usageType="active"  /> 
<MiningField name="EURO_FINAL_WIN" usageType="active"  /> 
<MiningField name="EURO_FINAL_WIN2" usageType="active"  /> 
<MiningField name="UP_DOWN" usageType="predicted"  /> 
</MiningSchema> 
<ModelStats> 
<UnivariateStats field="ASIALEVELCHANGE"> 
<Counts totalFreq="24760" missingFreq="0" invalidFreq="0" /> 
<DiscrStats modalValue="02"> 
<Array type="int" n="3"> 
 10494 6763 7503 
</Array> 
</DiscrStats> 
</UnivariateStats> 
<UnivariateStats field="ASIALEVELCHANGEVOL"> 
<Counts totalFreq="0" /> 
</UnivariateStats> 
<UnivariateStats field="ASIAODDCHANGE"> 
<Counts totalFreq="24760" missingFreq="0" invalidFreq="0" /> 
<DiscrStats modalValue="02"> 
<Array type="int" n="3"> 
 21572 1898 1290 
</Array> 
</DiscrStats> 
</UnivariateStats> 
<UnivariateStats field="ASIAODDCHANGEVOL"> 
<Counts totalFreq="0" /> 
</UnivariateStats> 
<UnivariateStats field="ASIA_EARLY_DOWN"> 
<Counts totalFreq="0" /> 
</UnivariateStats> 
<UnivariateStats field="ASIA_EARLY_UD_MOUTH"> 
<Counts totalFreq="18121" missingFreq="6639" invalidFreq="0" /> 
<DiscrStats modalValue="000735"> 
<Array type="int" n="36"> 
 4059 2001 3089 
 804 242 1526 
 424 92 177 
 810 1072 1993 
 505 262 115 
 65 34 28 
 502 250 1 
 2 5 2 
 13 14 6 
 4 9 2 
 6 1 2 
 2 1 1 
</Array> 
</DiscrStats> 
</UnivariateStats> 
<UnivariateStats field="ASIA_EARLY_UP"> 
<Counts totalFreq="0" /> 
</UnivariateStats> 
<UnivariateStats field="ASIA_FINAL_DOWN"> 
<Counts totalFreq="0" /> 
</UnivariateStats> 
<UnivariateStats field="ASIA_FINAL_UD_MOUTH"> 
<Counts totalFreq="24760" missingFreq="0" invalidFreq="0" /> 
<DiscrStats modalValue="000735"> 
<Array type="int" n="36"> 
 5436 2483 372 
 2160 1125 1661 
 4047 1 748 
 575 1201 493 
 119 262 2434 
 132 1247 1 
 70 87 2 
 6 31 13 
 18 6 1 
 8 3 7 
 2 2 2 
 3 1 1 
</Array> 
</DiscrStats> 
</UnivariateStats> 
<UnivariateStats field="ASIA_FINAL_UP"> 
<Counts totalFreq="0" /> 
</UnivariateStats> 
<UnivariateStats field="CHAMPIONSHIP"> 
<Counts totalFreq="24760" missingFreq="0" invalidFreq="0" /> 
<DiscrStats modalValue="00000052"> 
<Array type="int" n="200"> 
 148 79 302 
 307 799 810 
 508 534 526 
 621 435 443 
 313 506 508 
 325 327 426 
 363 412 411 
 57 320 337 
 323 282 254 
 132 261 256 
 306 396 175 
 188 710 451 
 303 327 287 
 33 93 74 
 81 300 170 
 122 714 51 
 57 41 51 
 637 40 49 
 27 38 14 
 47 159 270 
 226 151 128 
 120 6 76 
 2 31 42 
 29 51 57 
 275 31 21 
 38 215 166 
 64 13 122 
 26 6 509 
 794 8 404 
 45 192 70 
 31 248 265 
 167 26 30 
 49 43 41 
 25 263 5 
 23 26 36 
 38 24 5 
 17 44 6 
 55 36 22 
 12 30 12 
 24 1 35 
 4 10 22 
 1 1 4 
 8 295 1 
 206 72 22 
 5 452 69 
 80 9 1 
 13 2 1 
 2 1 6 
 45 11 8 
 26 9 5 
 52 2 27 
 8 1 10 
 3 9 5 
 2 2 2 
 2 2 41 
 5 2 2 
 3 4 32 
 1 1 5 
 1 8 1 
 4 2 1 
 2 2 2 
 1 2 1 
 1 4 1 
 2 1 1 
 1 8 1 
 1 1 1 
 2 1 
</Array> 
</DiscrStats> 
</UnivariateStats> 
<UnivariateStats field="COUNTRY"> 
<Counts totalFreq="24719" missingFreq="41" invalidFreq="0" /> 
<DiscrStats modalValue="006454"> 
<Array type="int" n="56"> 
 432 417 348 
 355 3943 1102 
 1225 962 466 
 1103 434 1255 
 860 372 682 
 1235 398 673 
 642 603 410 
 373 479 181 
 907 1302 400 
 123 203 14 
 425 335 166 
 413 47 215 
 75 169 50 
 41 31 34 
 8 1 207 
 452 69 9 
 5 52 1 
 8 4 1 
 1 1 
</Array> 
</DiscrStats> 
</UnivariateStats> 
<UnivariateStats field="EURO_EARLY_LOSS"> 
<Counts totalFreq="0" /> 
</UnivariateStats> 
<UnivariateStats field="EURO_EARLY_LOSS2"> 
<Counts totalFreq="0" /> 
</UnivariateStats> 
<UnivariateStats field="EURO_EARLY_STANDOFF"> 
<Counts totalFreq="0" /> 
</UnivariateStats> 
<UnivariateStats field="EURO_EARLY_STANDOFF2"> 
<Counts totalFreq="0" /> 
</UnivariateStats> 
<UnivariateStats field="EURO_EARLY_WIN"> 
<Counts totalFreq="0" /> 
</UnivariateStats> 
<UnivariateStats field="EURO_EARLY_WIN2"> 
<Counts totalFreq="0" /> 
</UnivariateStats> 
<UnivariateStats field="EURO_FINAL_LOSS"> 
<Counts totalFreq="0" /> 
</UnivariateStats> 
<UnivariateStats field="EURO_FINAL_LOSS2"> 
<Counts totalFreq="0" /> 
</UnivariateStats> 
<UnivariateStats field="EURO_FINAL_STANDOFF"> 
<Counts totalFreq="0" /> 
</UnivariateStats> 
<UnivariateStats field="EURO_FINAL_STANDOFF2"> 
<Counts totalFreq="0" /> 
</UnivariateStats> 
<UnivariateStats field="EURO_FINAL_WIN"> 
<Counts totalFreq="0" /> 
</UnivariateStats> 
<UnivariateStats field="EURO_FINAL_WIN2"> 
<Counts totalFreq="0" /> 
</UnivariateStats> 
<UnivariateStats field="UP_DOWN"> 
<Counts totalFreq="24760" missingFreq="0" invalidFreq="0" /> 
<DiscrStats modalValue="03"> 
<Array type="int" n="3"> 
 11873 11265 1622 
</Array> 
</DiscrStats> 
</UnivariateStats> 
</ModelStats> 
<Node score="03" recordCount="24760.00"> 
<True /> 
<ScoreDistribution recordCount="11873.00" value="03" /> 
<ScoreDistribution recordCount="11265.00" value="01" /> 
<ScoreDistribution recordCount="1622.00" value="02" /> 
<Node score="03" recordCount="5436.00"> 
<SimplePredicate field="ASIA_FINAL_UD_MOUTH" operator="equal" value="000735" /> 
<ScoreDistribution recordCount="3063.00" value="03" /> 
<ScoreDistribution recordCount="2373.00" value="01" /> 
<ScoreDistribution recordCount="0" value="02" /> 
<Node score="03" recordCount="4668.00"> 
<SimplePredicate field="EURO_FINAL_WIN" operator="lessOrEqual" value="2.25000" /> 
<ScoreDistribution recordCount="2571.00" value="03" /> 
<ScoreDistribution recordCount="2097.00" value="01" /> 
<ScoreDistribution recordCount="0" value="02" /> 
<Node score="03" recordCount="3870.00"> 
<SimplePredicate field="EURO_FINAL_LOSS" operator="lessOrEqual" value="3.40000" /> 
<ScoreDistribution recordCount="2177.00" value="03" /> 
<ScoreDistribution recordCount="1693.00" value="01" /> 
<ScoreDistribution recordCount="0" value="02" /> 
<Node score="03" recordCount="3773.00"> 
<SimplePredicate field="ASIAODDCHANGE" operator="equal" value="02" /> 
<ScoreDistribution recordCount="2119.00" value="03" /> 
<ScoreDistribution recordCount="1654.00" value="01" /> 
<ScoreDistribution recordCount="0" value="02" /> 
</Node> 
<Node score="03" recordCount="42.00"> 
<SimplePredicate field="ASIAODDCHANGE" operator="equal" value="01" /> 
<ScoreDistribution recordCount="22.00" value="03" /> 
<ScoreDistribution recordCount="20.00" value="01" /> 
<ScoreDistribution recordCount="0" value="02" /> 
<Node score="01" recordCount="1.00"> 
<SimplePredicate field="ASIA_EARLY_UD_MOUTH" operator="equal" value="000738" /> 
<ScoreDistribution recordCount="0" value="03" /> 
<ScoreDistribution recordCount="1.00" value="01" /> 
<ScoreDistribution recordCount="0" value="02" /> 
</Node> 
<Node score="03" recordCount="25.00"> 
<SimplePredicate field="ASIA_EARLY_UD_MOUTH" operator="equal" value="000742" /> 
<ScoreDistribution recordCount="16.00" value="03" /> 
<ScoreDistribution recordCount="9.00" value="01" /> 
<ScoreDistribution recordCount="0" value="02" /> 
<Node score="03" recordCount="5.00"> 
<SimplePredicate field="EURO_FINAL_WIN" operator="lessOrEqual" value="2.10000" /> 
<ScoreDistribution recordCount="5.00" value="03" /> 
<ScoreDistribution recordCount="0" value="01" /> 
<ScoreDistribution recordCount="0" value="02" /> 
</Node> 
<Node score="03" recordCount="20.00"> 
<SimplePredicate field="EURO_FINAL_WIN" operator="greaterThan" value="2.10000" /> 
<ScoreDistribution recordCount="11.00" value="03" /> 
<ScoreDistribution recordCount="9.00" value="01" /> 
<ScoreDistribution recordCount="0" value="02" /> 
<Node score="03" recordCount="4.00"> 
<SimplePredicate field="EURO_EARLY_WIN2" operator="lessOrEqual" value="2.20000" /> 
<ScoreDistribution recordCount="4.00" value="03" /> 
<ScoreDistribution recordCount="0" value="01" /> 
<ScoreDistribution recordCount="0" value="02" /> 
</Node> 
<Node score="01" recordCount="16.00"> 
<SimplePredicate field="EURO_EARLY_WIN2" operator="greaterThan" value="2.20000" /> 
<ScoreDistribution recordCount="7.00" value="03" /> 
<ScoreDistribution recordCount="9.00" value="01" /> 
<ScoreDistribution recordCount="0" value="02" /> 
</Node> 
</Node> 
</Node> 
<Node score="01" recordCount="15.00"> 
<SimplePredicate field="ASIA_EARLY_UD_MOUTH" operator="equal" value="006836" /> 
<ScoreDistribution recordCount="5.00" value="03" /> 
<ScoreDistribution recordCount="10.00" value="01" /> 
<ScoreDistribution recordCount="0" value="02" /> 
<Node score="01" recordCount="13.00"> 
<SimplePredicate field="EURO_EARLY_LOSS" operator="lessOrEqual" value="3.00000" /> 
<ScoreDistribution recordCount="3.00" value="03" /> 
<ScoreDistribution recordCount="10.00" value="01" /> 
<ScoreDistribution recordCount="0" value="02" /> 
</Node> 
<Node score="03" recordCount="2.00"> 
<SimplePredicate field="EURO_EARLY_LOSS" operator="greaterThan" value="3.00000" /> 
<ScoreDistribution recordCount="2.00" value="03" /> 
<ScoreDistribution recordCount="0" value="01" /> 
<ScoreDistribution recordCount="0" value="02" /> 
</Node> 
</Node> 
<Node score="03" recordCount="1.00"> 
<SimplePredicate field="ASIA_EARLY_UD_MOUTH" operator="equal" value="006837" /> 
<ScoreDistribution recordCount="1.00" value="03" /> 
<ScoreDistribution recordCount="0" value="01" /> 
<ScoreDistribution recordCount="0" value="02" /> 
</Node> 
</Node> 
<Node score="03" recordCount="55.00"> 
<SimplePredicate field="ASIAODDCHANGE" operator="equal" value="03" /> 
<ScoreDistribution recordCount="36.00" value="03" /> 
<ScoreDistribution recordCount="19.00" value="01" /> 
<ScoreDistribution recordCount="0" value="02" /> 
<Node score="01" recordCount="14.00"> 
<SimplePredicate field="EURO_FINAL_WIN2" operator="lessOrEqual" value="1.90000" /> 
<ScoreDistribution recordCount="5.00" value="03" /> 
<ScoreDistribution recordCount="9.00" value="01" /> 
<ScoreDistribution recordCount="0" value="02" /> 
<Node score="01" recordCount="10.00"> 
<SimplePredicate field="EURO_FINAL_LOSS" operator="lessOrEqual" value="3.25000" /> 
<ScoreDistribution recordCount="2.00" value="03" /> 
<ScoreDistribution recordCount="8.00" value="01" /> 
<ScoreDistribution recordCount="0" value="02" /> 
<Node score="01" recordCount="7.00"> 
<SimplePredicate field="EURO_FINAL_WIN" operator="lessOrEqual" value="2.15000" /> 
<ScoreDistribution recordCount="0" value="03" /> 
<ScoreDistribution recordCount="7.00" value="01" /> 
<ScoreDistribution recordCount="0" value="02" /> 
</Node> 
<Node score="03" recordCount="3.00"> 
<SimplePredicate field="EURO_FINAL_WIN" operator="greaterThan" value="2.15000" /> 
<ScoreDistribution recordCount="2.00" value="03" /> 
<ScoreDistribution recordCount="1.00" value="01" /> 
<ScoreDistribution recordCount="0" value="02" /> 
</Node> 
</Node> 
<Node score="03" recordCount="4.00"> 
<SimplePredicate field="EURO_FINAL_LOSS" operator="greaterThan" value="3.25000" /> 
<ScoreDistribution recordCount="3.00" value="03" /> 
<ScoreDistribution recordCount="1.00" value="01" /> 
<ScoreDistribution recordCount="0" value="02" /> 
</Node> 
</Node> 
<Node score="03" recordCount="41.00"> 
<SimplePredicate field="EURO_FINAL_WIN2" operator="greaterThan" value="1.90000" /> 
<ScoreDistribution recordCount="31.00" value="03" /> 
<ScoreDistribution recordCount="10.00" value="01" /> 
<ScoreDistribution recordCount="0" value="02" /> 
</Node> 
</Node> 
</Node> 
<Node score="01" recordCount="798.00"> 
<SimplePredicate field="EURO_FINAL_LOSS" operator="greaterThan" value="3.40000" /> 
<ScoreDistribution recordCount="394.00" value="03" /> 
<ScoreDistribution recordCount="404.00" value="01" /> 
<ScoreDistribution recordCount="0" value="02" /> 
<Node score="01" recordCount="732.29"> 
<SimplePredicate field="ASIA_EARLY_UD_MOUTH" operator="equal" value="000735" /> 
<ScoreDistribution recordCount="362.94" value="03" /> 
<ScoreDistribution recordCount="369.35" value="01" /> 
<ScoreDistribution recordCount="0" value="02" /> 
<Node score="01" recordCount="634.62"> 
<SimplePredicate field="EURO_FINAL_LOSS" operator="lessOrEqual" value="3.75000" /> 
<ScoreDistribution recordCount="303.02" value="03" /> 
<ScoreDistribution recordCount="331.60" value="01" /> 
<ScoreDistribution recordCount="0" value="02" /> 
</Node> 
<Node score="03" recordCount="97.67"> 
<SimplePredicate field="EURO_FINAL_LOSS" operator="greaterThan" value="3.75000" /> 
<ScoreDistribution recordCount="59.92" value="03" /> 
<ScoreDistribution recordCount="37.75" value="01" /> 
<ScoreDistribution recordCount="0" value="02" /> 
</Node> 
</Node> 
<Node score="03" recordCount="2.12"> 
<SimplePredicate field="ASIA_EARLY_UD_MOUTH" operator="equal" value="000736" /> 
<ScoreDistribution recordCount="1.07" value="03" /> 
<ScoreDistribution recordCount="1.05" value="01" /> 
<ScoreDistribution recordCount="0" value="02" /> 
</Node> 
<Node score="01" recordCount="59.35"> 
<SimplePredicate field="ASIA_EARLY_UD_MOUTH" operator="equal" value="000741" /> 
<ScoreDistribution recordCount="28.86" value="03" /> 
<ScoreDistribution recordCount="30.49" value="01" /> 
<ScoreDistribution recordCount="0" value="02" /> 
</Node> 
<Node score="01" recordCount="1.06"> 
<SimplePredicate field="ASIA_EARLY_UD_MOUTH" operator="equal" value="000742" /> 
<ScoreDistribution recordCount="0.03" value="03" /> 
<ScoreDistribution recordCount="1.03" value="01" /> 
<ScoreDistribution recordCount="0" value="02" /> 
</Node> 
<Node score="01" recordCount="3.18"> 
<SimplePredicate field="ASIA_EARLY_UD_MOUTH" operator="equal" value="006836" /> 
<ScoreDistribution recordCount="1.10" value="03" /> 
<ScoreDistribution recordCount="2.08" value="01" /> 
<ScoreDistribution recordCount="0" value="02" /> 
</Node> 
</Node> 
</Node> 
<Node score="03" recordCount="768.00"> 
<SimplePredicate field="EURO_FINAL_WIN" operator="greaterThan" value="2.25000" /> 
<ScoreDistribution recordCount="492.00" value="03" /> 
<ScoreDistribution recordCount="276.00" value="01" /> 
<ScoreDistribution recordCount="0" value="02" /> 
</Node> 
</Node> 
<Node score="01" recordCount="2483.00"> 
<SimplePredicate field="ASIA_FINAL_UD_MOUTH" operator="equal" value="000736" /> 
<ScoreDistribution recordCount="1086.00" value="03" /> 
<ScoreDistribution recordCount="1397.00" value="01" /> 
<ScoreDistribution recordCount="0" value="02" /> 
</Node> 
<Node score="03" recordCount="372.00"> 
<SimplePredicate field="ASIA_FINAL_UD_MOUTH" operator="equal" value="000737" /> 
<ScoreDistribution recordCount="146.00" value="03" /> 
<ScoreDistribution recordCount="128.00" value="01" /> 
<ScoreDistribution recordCount="98.00" value="02" /> 
<Node score="03" recordCount="303.00"> 
<SimplePredicate field="EURO_FINAL_WIN2" operator="lessOrEqual" value="5.70000" /> 
<ScoreDistribution recordCount="131.00" value="03" /> 
<ScoreDistribution recordCount="99.00" value="01" /> 
<ScoreDistribution recordCount="73.00" value="02" /> 
<Node score="03" recordCount="275.31"> 
<SimplePredicate field="ASIA_EARLY_UD_MOUTH" operator="equal" value="000737" /> 
<ScoreDistribution recordCount="119.52" value="03" /> 
<ScoreDistribution recordCount="88.53" value="01" /> 
<ScoreDistribution recordCount="67.26" value="02" /> 
<Node score="03" recordCount="272.31"> 
<SimplePredicate field="EURO_EARLY_WIN2" operator="lessOrEqual" value="6.00000" /> 
<ScoreDistribution recordCount="119.52" value="03" /> 
<ScoreDistribution recordCount="85.53" value="01" /> 
<ScoreDistribution recordCount="67.26" value="02" /> 
</Node> 
<Node score="01" recordCount="3.00"> 
<SimplePredicate field="EURO_EARLY_WIN2" operator="greaterThan" value="6.00000" /> 
<ScoreDistribution recordCount="0" value="03" /> 
<ScoreDistribution recordCount="3.00" value="01" /> 
<ScoreDistribution recordCount="0" value="02" /> 
</Node> 
</Node> 
<Node score="03" recordCount="26.06"> 
<SimplePredicate field="ASIA_EARLY_UD_MOUTH" operator="equal" value="000744" /> 
<ScoreDistribution recordCount="11.21" value="03" /> 
<ScoreDistribution recordCount="9.27" value="01" /> 
<ScoreDistribution recordCount="5.58" value="02" /> 
</Node> 
<Node score="01" recordCount="1.63"> 
<SimplePredicate field="ASIA_EARLY_UD_MOUTH" operator="equal" value="000749" /> 
<ScoreDistribution recordCount="0.26" value="03" /> 
<ScoreDistribution recordCount="1.20" value="01" /> 
<ScoreDistribution recordCount="0.16" value="02" /> 
</Node> 
</Node> 
<Node score="01" recordCount="69.00"> 
<SimplePredicate field="EURO_FINAL_WIN2" operator="greaterThan" value="5.70000" /> 
<ScoreDistribution recordCount="15.00" value="03" /> 
<ScoreDistribution recordCount="29.00" value="01" /> 
<ScoreDistribution recordCount="25.00" value="02" /> 
<Node score="01" recordCount="10.00"> 
<SimplePredicate field="EURO_FINAL_WIN" operator="lessOrEqual" value="5.50000" /> 
<ScoreDistribution recordCount="0" value="03" /> 
<ScoreDistribution recordCount="8.00" value="01" /> 
<ScoreDistribution recordCount="2.00" value="02" /> 
</Node> 
<Node score="02" recordCount="59.00"> 
<SimplePredicate field="EURO_FINAL_WIN" operator="greaterThan" value="5.50000" /> 
<ScoreDistribution recordCount="15.00" value="03" /> 
<ScoreDistribution recordCount="21.00" value="01" /> 
<ScoreDistribution recordCount="23.00" value="02" /> 
</Node> 
</Node> 
</Node> 
<Node score="03" recordCount="2160.00"> 
<SimplePredicate field="ASIA_FINAL_UD_MOUTH" operator="equal" value="000738" /> 
<ScoreDistribution recordCount="1245.00" value="03" /> 
<ScoreDistribution recordCount="915.00" value="01" /> 
<ScoreDistribution recordCount="0" value="02" /> 
</Node> 
<Node score="01" recordCount="1125.00"> 
<SimplePredicate field="ASIA_FINAL_UD_MOUTH" operator="equal" value="000739" /> 
<ScoreDistribution recordCount="551.00" value="03" /> 
<ScoreDistribution recordCount="574.00" value="01" /> 
<ScoreDistribution recordCount="0" value="02" /> 
<Node score="01" recordCount="1081.00"> 
<SimplePredicate field="ASIAODDCHANGE" operator="equal" value="02" /> 
<ScoreDistribution recordCount="539.00" value="03" /> 
<ScoreDistribution recordCount="542.00" value="01" /> 
<ScoreDistribution recordCount="0" value="02" /> 
<Node score="03" recordCount="1069.00"> 
<SimplePredicate field="EURO_EARLY_WIN" operator="lessOrEqual" value="4.50000" /> 
<ScoreDistribution recordCount="539.00" value="03" /> 
<ScoreDistribution recordCount="530.00" value="01" /> 
<ScoreDistribution recordCount="0" value="02" /> 
</Node> 
<Node score="01" recordCount="12.00"> 
<SimplePredicate field="EURO_EARLY_WIN" operator="greaterThan" value="4.50000" /> 
<ScoreDistribution recordCount="0" value="03" /> 
<ScoreDistribution recordCount="12.00" value="01" /> 
<ScoreDistribution recordCount="0" value="02" /> 
</Node> 
</Node> 
<Node score="01" recordCount="7.00"> 
<SimplePredicate field="ASIAODDCHANGE" operator="equal" value="01" /> 
<ScoreDistribution recordCount="3.00" value="03" /> 
<ScoreDistribution recordCount="4.00" value="01" /> 
<ScoreDistribution recordCount="0" value="02" /> 
</Node> 
<Node score="01" recordCount="37.00"> 
<SimplePredicate field="ASIAODDCHANGE" operator="equal" value="03" /> 
<ScoreDistribution recordCount="9.00" value="03" /> 
<ScoreDistribution recordCount="28.00" value="01" /> 
<ScoreDistribution recordCount="0" value="02" /> 
<Node score="01" recordCount="8.00"> 
<SimplePredicate field="EURO_FINAL_LOSS" operator="lessOrEqual" value="1.80000" /> 
<ScoreDistribution recordCount="0" value="03" /> 
<ScoreDistribution recordCount="8.00" value="01" /> 
<ScoreDistribution recordCount="0" value="02" /> 
</Node> 
<Node score="01" recordCount="29.00"> 
<SimplePredicate field="EURO_FINAL_LOSS" operator="greaterThan" value="1.80000" /> 
<ScoreDistribution recordCount="9.00" value="03" /> 
<ScoreDistribution recordCount="20.00" value="01" /> 
<ScoreDistribution recordCount="0" value="02" /> 
<Node score="01" recordCount="23.00"> 
<SimplePredicate field="EURO_FINAL_LOSS" operator="lessOrEqual" value="1.90000" /> 
<ScoreDistribution recordCount="9.00" value="03" /> 
<ScoreDistribution recordCount="14.00" value="01" /> 
<ScoreDistribution recordCount="0" value="02" /> 
<Node score="01" recordCount="4.00"> 
<SimplePredicate field="EURO_FINAL_WIN" operator="lessOrEqual" value="3.40000" /> 
<ScoreDistribution recordCount="0" value="03" /> 
<ScoreDistribution recordCount="4.00" value="01" /> 
<ScoreDistribution recordCount="0" value="02" /> 
</Node> 
<Node score="01" recordCount="19.00"> 
<SimplePredicate field="EURO_FINAL_WIN" operator="greaterThan" value="3.40000" /> 
<ScoreDistribution recordCount="9.00" value="03" /> 
<ScoreDistribution recordCount="10.00" value="01" /> 
<ScoreDistribution recordCount="0" value="02" /> 
<Node score="01" recordCount="16.00"> 
<SimplePredicate field="EURO_FINAL_WIN2" operator="lessOrEqual" value="3.50000" /> 
<ScoreDistribution recordCount="6.00" value="03" /> 
<ScoreDistribution recordCount="10.00" value="01" /> 
<ScoreDistribution recordCount="0" value="02" /> 
<Node score="03" recordCount="12.00"> 
<SimplePredicate field="EURO_EARLY_WIN" operator="lessOrEqual" value="3.40000" /> 
<ScoreDistribution recordCount="6.00" value="03" /> 
<ScoreDistribution recordCount="6.00" value="01" /> 
<ScoreDistribution recordCount="0" value="02" /> 
<Node score="03" recordCount="4.00"> 
<SimplePredicate field="EURO_EARLY_LOSS" operator="lessOrEqual" value="2.00000" /> 
<ScoreDistribution recordCount="4.00" value="03" /> 
<ScoreDistribution recordCount="0" value="01" /> 
<ScoreDistribution recordCount="0" value="02" /> 
</Node> 
<Node score="01" recordCount="8.00"> 
<SimplePredicate field="EURO_EARLY_LOSS" operator="greaterThan" value="2.00000" /> 
<ScoreDistribution recordCount="2.00" value="03" /> 
<ScoreDistribution recordCount="6.00" value="01" /> 
<ScoreDistribution recordCount="0" value="02" /> 
</Node> 
</Node> 
<Node score="01" recordCount="4.00"> 
<SimplePredicate field="EURO_EARLY_WIN" operator="greaterThan" value="3.40000" /> 
<ScoreDistribution recordCount="0" value="03" /> 
<ScoreDistribution recordCount="4.00" value="01" /> 
<ScoreDistribution recordCount="0" value="02" /> 
</Node> 
</Node> 
<Node score="03" recordCount="3.00"> 
<SimplePredicate field="EURO_FINAL_WIN2" operator="greaterThan" value="3.50000" /> 
<ScoreDistribution recordCount="3.00" value="03" /> 
<ScoreDistribution recordCount="0" value="01" /> 
<ScoreDistribution recordCount="0" value="02" /> 
</Node> 
</Node> 
</Node> 
<Node score="01" recordCount="6.00"> 
<SimplePredicate field="EURO_FINAL_LOSS" operator="greaterThan" value="1.90000" /> 
<ScoreDistribution recordCount="0" value="03" /> 
<ScoreDistribution recordCount="6.00" value="01" /> 
<ScoreDistribution recordCount="0" value="02" /> 
</Node> 
</Node> 
</Node> 
</Node> 
<Node score="03" recordCount="1661.00"> 
<SimplePredicate field="ASIA_FINAL_UD_MOUTH" operator="equal" value="000740" /> 
<ScoreDistribution recordCount="629.00" value="03" /> 
<ScoreDistribution recordCount="596.00" value="01" /> 
<ScoreDistribution recordCount="436.00" value="02" /> 
<Node score="03" recordCount="1649.00"> 
<SimplePredicate field="EURO_FINAL_WIN2" operator="lessOrEqual" value="1.75000" /> 
<ScoreDistribution recordCount="624.00" value="03" /> 
<ScoreDistribution recordCount="596.00" value="01" /> 
<ScoreDistribution recordCount="429.00" value="02" /> 
<Node score="01" recordCount="81.00"> 
<SimplePredicate field="EURO_EARLY_WIN" operator="lessOrEqual" value="1.36000" /> 
<ScoreDistribution recordCount="17.00" value="03" /> 
<ScoreDistribution recordCount="39.00" value="01" /> 
<ScoreDistribution recordCount="25.00" value="02" /> 
</Node> 
<Node score="03" recordCount="1568.00"> 
<SimplePredicate field="EURO_EARLY_WIN" operator="greaterThan" value="1.36000" /> 
<ScoreDistribution recordCount="607.00" value="03" /> 
<ScoreDistribution recordCount="557.00" value="01" /> 
<ScoreDistribution recordCount="404.00" value="02" /> 
<Node score="03" recordCount="1475.00"> 
<SimplePredicate field="ASIAODDCHANGE" operator="equal" value="02" /> 
<ScoreDistribution recordCount="569.00" value="03" /> 
<ScoreDistribution recordCount="525.00" value="01" /> 
<ScoreDistribution recordCount="381.00" value="02" /> 
<Node score="03" recordCount="1450.00"> 
<SimplePredicate field="EURO_EARLY_WIN2" operator="lessOrEqual" value="1.70000" /> 
<ScoreDistribution recordCount="564.00" value="03" /> 
<ScoreDistribution recordCount="517.00" value="01" /> 
<ScoreDistribution recordCount="369.00" value="02" /> 
<Node score="02" recordCount="91.00"> 
<SimplePredicate field="EURO_FINAL_WIN2" operator="lessOrEqual" value="1.42000" /> 
<ScoreDistribution recordCount="26.00" value="03" /> 
<ScoreDistribution recordCount="32.00" value="01" /> 
<ScoreDistribution recordCount="33.00" value="02" /> 
<Node score="01" recordCount="2.00"> 
<SimplePredicate field="EURO_FINAL_WIN2" operator="lessOrEqual" value="1.30000" /> 
<ScoreDistribution recordCount="0" value="03" /> 
<ScoreDistribution recordCount="2.00" value="01" /> 
<ScoreDistribution recordCount="0" value="02" /> 
</Node> 
<Node score="02" recordCount="89.00"> 
<SimplePredicate field="EURO_FINAL_WIN2" operator="greaterThan" value="1.30000" /> 
<ScoreDistribution recordCount="26.00" value="03" /> 
<ScoreDistribution recordCount="30.00" value="01" /> 
<ScoreDistribution recordCount="33.00" value="02" /> 
<Node score="02" recordCount="87.00"> 
<SimplePredicate field="EURO_EARLY_WIN2" operator="lessOrEqual" value="1.50000" /> 
<ScoreDistribution recordCount="26.00" value="03" /> 
<ScoreDistribution recordCount="28.00" value="01" /> 
<ScoreDistribution recordCount="33.00" value="02" /> 
<Node score="01" recordCount="24.00"> 
<SimplePredicate field="EURO_EARLY_WIN" operator="lessOrEqual" value="1.40000" /> 
<ScoreDistribution recordCount="6.00" value="03" /> 
<ScoreDistribution recordCount="12.00" value="01" /> 
<ScoreDistribution recordCount="6.00" value="02" /> 
<Node score="01" recordCount="23.00"> 
<SimplePredicate field="EURO_EARLY_LOSS" operator="lessOrEqual" value="7.00000" /> 
<ScoreDistribution recordCount="6.00" value="03" /> 
<ScoreDistribution recordCount="12.00" value="01" /> 
<ScoreDistribution recordCount="5.00" value="02" /> 
</Node> 
<Node score="02" recordCount="1.00"> 
<SimplePredicate field="EURO_EARLY_LOSS" operator="greaterThan" value="7.00000" /> 
<ScoreDistribution recordCount="0" value="03" /> 
<ScoreDistribution recordCount="0" value="01" /> 
<ScoreDistribution recordCount="1.00" value="02" /> 
</Node> 
</Node> 
<Node score="02" recordCount="63.00"> 
<SimplePredicate field="EURO_EARLY_WIN" operator="greaterThan" value="1.40000" /> 
<ScoreDistribution recordCount="20.00" value="03" /> 
<ScoreDistribution recordCount="16.00" value="01" /> 
<ScoreDistribution recordCount="27.00" value="02" /> 
<Node score="02" recordCount="5.00"> 
<SimplePredicate field="EURO_FINAL_WIN2" operator="lessOrEqual" value="1.35000" /> 
<ScoreDistribution recordCount="1.00" value="03" /> 
<ScoreDistribution recordCount="0" value="01" /> 
<ScoreDistribution recordCount="4.00" value="02" /> 
</Node> 
<Node score="02" recordCount="58.00"> 
<SimplePredicate field="EURO_FINAL_WIN2" operator="greaterThan" value="1.35000" /> 
<ScoreDistribution recordCount="19.00" value="03" /> 
<ScoreDistribution recordCount="16.00" value="01" /> 
<ScoreDistribution recordCount="23.00" value="02" /> 
<Node score="02" recordCount="57.00"> 
<SimplePredicate field="EURO_FINAL_WIN2" operator="lessOrEqual" value="1.40000" /> 
<ScoreDistribution recordCount="19.00" value="03" /> 
<ScoreDistribution recordCount="16.00" value="01" /> 
<ScoreDistribution recordCount="22.00" value="02" /> 
<Node score="02" recordCount="11.00"> 
<SimplePredicate field="EURO_FINAL_LOSS" operator="lessOrEqual" value="5.50000" /> 
<ScoreDistribution recordCount="0" value="03" /> 
<ScoreDistribution recordCount="4.00" value="01" /> 
<ScoreDistribution recordCount="7.00" value="02" /> 
</Node> 
<Node score="03" recordCount="46.00"> 
<SimplePredicate field="EURO_FINAL_LOSS" operator="greaterThan" value="5.50000" /> 
<ScoreDistribution recordCount="19.00" value="03" /> 
<ScoreDistribution recordCount="12.00" value="01" /> 
<ScoreDistribution recordCount="15.00" value="02" /> 
<Node score="03" recordCount="4.00"> 
<SimplePredicate field="EURO_EARLY_LOSS" operator="lessOrEqual" value="5.50000" /> 
<ScoreDistribution recordCount="3.00" value="03" /> 
<ScoreDistribution recordCount="0" value="01" /> 
<ScoreDistribution recordCount="1.00" value="02" /> 
</Node> 
<Node score="03" recordCount="42.00"> 
<SimplePredicate field="EURO_EARLY_LOSS" operator="greaterThan" value="5.50000" /> 
<ScoreDistribution recordCount="16.00" value="03" /> 
<ScoreDistribution recordCount="12.00" value="01" /> 
<ScoreDistribution recordCount="14.00" value="02" /> 
<Node score="02" recordCount="34.00"> 
<SimplePredicate field="EURO_EARLY_WIN" operator="lessOrEqual" value="1.45000" /> 
<ScoreDistribution recordCount="11.00" value="03" /> 
<ScoreDistribution recordCount="10.00" value="01" /> 
<ScoreDistribution recordCount="13.00" value="02" /> 
<Node score="03" recordCount="32.00"> 
<SimplePredicate field="EURO_EARLY_WIN" operator="lessOrEqual" value="1.44000" /> 
<ScoreDistribution recordCount="11.00" value="03" /> 
<ScoreDistribution recordCount="10.00" value="01" /> 
<ScoreDistribution recordCount="11.00" value="02" /> 
<Node score="02" recordCount="4.00"> 
<SimplePredicate field="EURO_FINAL_WIN" operator="lessOrEqual" value="1.36000" /> 
<ScoreDistribution recordCount="0" value="03" /> 
<ScoreDistribution recordCount="1.00" value="01" /> 
<ScoreDistribution recordCount="3.00" value="02" /> 
</Node> 
<Node score="03" recordCount="28.00"> 
<SimplePredicate field="EURO_FINAL_WIN" operator="greaterThan" value="1.36000" /> 
<ScoreDistribution recordCount="11.00" value="03" /> 
<ScoreDistribution recordCount="9.00" value="01" /> 
<ScoreDistribution recordCount="8.00" value="02" /> 
</Node> 
</Node> 
<Node score="02" recordCount="2.00"> 
<SimplePredicate field="EURO_EARLY_WIN" operator="greaterThan" value="1.44000" /> 
<ScoreDistribution recordCount="0" value="03" /> 
<ScoreDistribution recordCount="0" value="01" /> 
<ScoreDistribution recordCount="2.00" value="02" /> 
</Node> 
</Node> 
<Node score="03" recordCount="8.00"> 
<SimplePredicate field="EURO_EARLY_WIN" operator="greaterThan" value="1.45000" /> 
<ScoreDistribution recordCount="5.00" value="03" /> 
<ScoreDistribution recordCount="2.00" value="01" /> 
<ScoreDistribution recordCount="1.00" value="02" /> 
</Node> 
</Node> 
</Node> 
</Node> 
<Node score="02" recordCount="1.00"> 
<SimplePredicate field="EURO_FINAL_WIN2" operator="greaterThan" value="1.40000" /> 
<ScoreDistribution recordCount="0" value="03" /> 
<ScoreDistribution recordCount="0" value="01" /> 
<ScoreDistribution recordCount="1.00" value="02" /> 
</Node> 
</Node> 
</Node> 
</Node> 
<Node score="01" recordCount="2.00"> 
<SimplePredicate field="EURO_EARLY_WIN2" operator="greaterThan" value="1.50000" /> 
<ScoreDistribution recordCount="0" value="03" /> 
<ScoreDistribution recordCount="2.00" value="01" /> 
<ScoreDistribution recordCount="0" value="02" /> 
</Node> 
</Node> 
</Node> 
<Node score="03" recordCount="1359.00"> 
<SimplePredicate field="EURO_FINAL_WIN2" operator="greaterThan" value="1.42000" /> 
<ScoreDistribution recordCount="538.00" value="03" /> 
<ScoreDistribution recordCount="485.00" value="01" /> 
<ScoreDistribution recordCount="336.00" value="02" /> 
</Node> 
</Node> 
<Node score="02" recordCount="25.00"> 
<SimplePredicate field="EURO_EARLY_WIN2" operator="greaterThan" value="1.70000" /> 
<ScoreDistribution recordCount="5.00" value="03" /> 
<ScoreDistribution recordCount="8.00" value="01" /> 
<ScoreDistribution recordCount="12.00" value="02" /> 
<Node score="03" recordCount="8.00"> 
<SimplePredicate field="EURO_EARLY_LOSS" operator="lessOrEqual" value="4.33000" /> 
<ScoreDistribution recordCount="4.00" value="03" /> 
<ScoreDistribution recordCount="0" value="01" /> 
<ScoreDistribution recordCount="4.00" value="02" /> 
</Node> 
<Node score="01" recordCount="17.00"> 
<SimplePredicate field="EURO_EARLY_LOSS" operator="greaterThan" value="4.33000" /> 
<ScoreDistribution recordCount="1.00" value="03" /> 
<ScoreDistribution recordCount="8.00" value="01" /> 
<ScoreDistribution recordCount="8.00" value="02" /> 
<Node score="02" recordCount="6.00"> 
<SimplePredicate field="EURO_EARLY_WIN2" operator="lessOrEqual" value="1.75000" /> 
<ScoreDistribution recordCount="1.00" value="03" /> 
<ScoreDistribution recordCount="1.00" value="01" /> 
<ScoreDistribution recordCount="4.00" value="02" /> 
</Node> 
<Node score="01" recordCount="11.00"> 
<SimplePredicate field="EURO_EARLY_WIN2" operator="greaterThan" value="1.75000" /> 
<ScoreDistribution recordCount="0" value="03" /> 
<ScoreDistribution recordCount="7.00" value="01" /> 
<ScoreDistribution recordCount="4.00" value="02" /> 
<Node score="01" recordCount="9.00"> 
<SimplePredicate field="EURO_EARLY_WIN" operator="lessOrEqual" value="1.57000" /> 
<ScoreDistribution recordCount="0" value="03" /> 
<ScoreDistribution recordCount="7.00" value="01" /> 
<ScoreDistribution recordCount="2.00" value="02" /> 
</Node> 
<Node score="02" recordCount="2.00"> 
<SimplePredicate field="EURO_EARLY_WIN" operator="greaterThan" value="1.57000" /> 
<ScoreDistribution recordCount="0" value="03" /> 
<ScoreDistribution recordCount="0" value="01" /> 
<ScoreDistribution recordCount="2.00" value="02" /> 
</Node> 
</Node> 
</Node> 
</Node> 
</Node> 
<Node score="01" recordCount="66.00"> 
<SimplePredicate field="ASIAODDCHANGE" operator="equal" value="01" /> 
<ScoreDistribution recordCount="25.00" value="03" /> 
<ScoreDistribution recordCount="27.00" value="01" /> 
<ScoreDistribution recordCount="14.00" value="02" /> 
<Node score="03" recordCount="1.00"> 
<SimplePredicate field="ASIAODDCHANGEVOL" operator="lessOrEqual" value="20.00000-" /> 
<ScoreDistribution recordCount="1.00" value="03" /> 
<ScoreDistribution recordCount="0" value="01" /> 
<ScoreDistribution recordCount="0" value="02" /> 
</Node> 
<Node score="01" recordCount="65.00"> 
<SimplePredicate field="ASIAODDCHANGEVOL" operator="greaterThan" value="20.00000-" /> 
<ScoreDistribution recordCount="24.00" value="03" /> 
<ScoreDistribution recordCount="27.00" value="01" /> 
<ScoreDistribution recordCount="14.00" value="02" /> 
<Node score="01" recordCount="8.00"> 
<SimplePredicate field="EURO_FINAL_LOSS" operator="lessOrEqual" value="5.00000" /> 
<ScoreDistribution recordCount="1.00" value="03" /> 
<ScoreDistribution recordCount="7.00" value="01" /> 
<ScoreDistribution recordCount="0" value="02" /> 
</Node> 
<Node score="03" recordCount="57.00"> 
<SimplePredicate field="EURO_FINAL_LOSS" operator="greaterThan" value="5.00000" /> 
<ScoreDistribution recordCount="23.00" value="03" /> 
<ScoreDistribution recordCount="20.00" value="01" /> 
<ScoreDistribution recordCount="14.00" value="02" /> 
<Node score="01" recordCount="49.00"> 
<SimplePredicate field="EURO_EARLY_WIN2" operator="lessOrEqual" value="1.65000" /> 
<ScoreDistribution recordCount="18.00" value="03" /> 
<ScoreDistribution recordCount="20.00" value="01" /> 
<ScoreDistribution recordCount="11.00" value="02" /> 
<Node score="03" recordCount="7.00"> 
<SimplePredicate field="EURO_FINAL_LOSS" operator="lessOrEqual" value="5.75000" /> 
<ScoreDistribution recordCount="6.00" value="03" /> 
<ScoreDistribution recordCount="1.00" value="01" /> 
<ScoreDistribution recordCount="0" value="02" /> 
</Node> 
<Node score="01" recordCount="42.00"> 
<SimplePredicate field="EURO_FINAL_LOSS" operator="greaterThan" value="5.75000" /> 
<ScoreDistribution recordCount="12.00" value="03" /> 
<ScoreDistribution recordCount="19.00" value="01" /> 
<ScoreDistribution recordCount="11.00" value="02" /> 
<Node score="01" recordCount="37.00"> 
<SimplePredicate field="EURO_FINAL_WIN2" operator="lessOrEqual" value="1.55000" /> 
<ScoreDistribution recordCount="12.00" value="03" /> 
<ScoreDistribution recordCount="18.00" value="01" /> 
<ScoreDistribution recordCount="7.00" value="02" /> 
<Node score="01" recordCount="34.00"> 
<SimplePredicate field="EURO_EARLY_WIN2" operator="lessOrEqual" value="1.60000" /> 
<ScoreDistribution recordCount="12.00" value="03" /> 
<ScoreDistribution recordCount="15.00" value="01" /> 
<ScoreDistribution recordCount="7.00" value="02" /> 
<Node score="01" recordCount="16.00"> 
<SimplePredicate field="EURO_FINAL_LOSS" operator="lessOrEqual" value="6.00000" /> 
<ScoreDistribution recordCount="6.00" value="03" /> 
<ScoreDistribution recordCount="9.00" value="01" /> 
<ScoreDistribution recordCount="1.00" value="02" /> 
<Node score="03" recordCount="2.00"> 
<SimplePredicate field="EURO_EARLY_LOSS" operator="lessOrEqual" value="4.75000" /> 
<ScoreDistribution recordCount="2.00" value="03" /> 
<ScoreDistribution recordCount="0" value="01" /> 
<ScoreDistribution recordCount="0" value="02" /> 
</Node> 
<Node score="01" recordCount="14.00"> 
<SimplePredicate field="EURO_EARLY_LOSS" operator="greaterThan" value="4.75000" /> 
<ScoreDistribution recordCount="4.00" value="03" /> 
<ScoreDistribution recordCount="9.00" value="01" /> 
<ScoreDistribution recordCount="1.00" value="02" /> 
</Node> 
</Node> 
<Node score="03" recordCount="18.00"> 
<SimplePredicate field="EURO_FINAL_LOSS" operator="greaterThan" value="6.00000" /> 
<ScoreDistribution recordCount="6.00" value="03" /> 
<ScoreDistribution recordCount="6.00" value="01" /> 
<ScoreDistribution recordCount="6.00" value="02" /> 
<Node score="02" recordCount="10.00"> 
<SimplePredicate field="EURO_FINAL_LOSS" operator="lessOrEqual" value="6.50000" /> 
<ScoreDistribution recordCount="4.00" value="03" /> 
<ScoreDistribution recordCount="1.00" value="01" /> 
<ScoreDistribution recordCount="5.00" value="02" /> 
<Node score="02" recordCount="6.00"> 
<SimplePredicate field="EURO_FINAL_WIN2" operator="lessOrEqual" value="1.50000" /> 
<ScoreDistribution recordCount="1.00" value="03" /> 
<ScoreDistribution recordCount="1.00" value="01" /> 
<ScoreDistribution recordCount="4.00" value="02" /> 
</Node> 
<Node score="03" recordCount="4.00"> 
<SimplePredicate field="EURO_FINAL_WIN2" operator="greaterThan" value="1.50000" /> 
<ScoreDistribution recordCount="3.00" value="03" /> 
<ScoreDistribution recordCount="0" value="01" /> 
<ScoreDistribution recordCount="1.00" value="02" /> 
</Node> 
</Node> 
<Node score="01" recordCount="8.00"> 
<SimplePredicate field="EURO_FINAL_LOSS" operator="greaterThan" value="6.50000" /> 
<ScoreDistribution recordCount="2.00" value="03" /> 
<ScoreDistribution recordCount="5.00" value="01" /> 
<ScoreDistribution recordCount="1.00" value="02" /> 
</Node> 
</Node> 
</Node> 
<Node score="01" recordCount="3.00"> 
<SimplePredicate field="EURO_EARLY_WIN2" operator="greaterThan" value="1.60000" /> 
<ScoreDistribution recordCount="0" value="03" /> 
<ScoreDistribution recordCount="3.00" value="01" /> 
<ScoreDistribution recordCount="0" value="02" /> 
</Node> 
</Node> 
<Node score="02" recordCount="5.00"> 
<SimplePredicate field="EURO_FINAL_WIN2" operator="greaterThan" value="1.55000" /> 
<ScoreDistribution recordCount="0" value="03" /> 
<ScoreDistribution recordCount="1.00" value="01" /> 
<ScoreDistribution recordCount="4.00" value="02" /> 
</Node> 
</Node> 
</Node> 
<Node score="03" recordCount="8.00"> 
<SimplePredicate field="EURO_EARLY_WIN2" operator="greaterThan" value="1.65000" /> 
<ScoreDistribution recordCount="5.00" value="03" /> 
<ScoreDistribution recordCount="0" value="01" /> 
<ScoreDistribution recordCount="3.00" value="02" /> 
</Node> 
</Node> 
</Node> 
</Node> 
<Node score="03" recordCount="27.00"> 
<SimplePredicate field="ASIAODDCHANGE" operator="equal" value="03" /> 
<ScoreDistribution recordCount="13.00" value="03" /> 
<ScoreDistribution recordCount="5.00" value="01" /> 
<ScoreDistribution recordCount="9.00" value="02" /> 
<Node score="02" recordCount="8.00"> 
<SimplePredicate field="EURO_FINAL_WIN2" operator="lessOrEqual" value="1.40000" /> 
<ScoreDistribution recordCount="3.00" value="03" /> 
<ScoreDistribution recordCount="0" value="01" /> 
<ScoreDistribution recordCount="5.00" value="02" /> 
</Node> 
<Node score="03" recordCount="19.00"> 
<SimplePredicate field="EURO_FINAL_WIN2" operator="greaterThan" value="1.40000" /> 
<ScoreDistribution recordCount="10.00" value="03" /> 
<ScoreDistribution recordCount="5.00" value="01" /> 
<ScoreDistribution recordCount="4.00" value="02" /> 
<Node score="03" recordCount="18.00"> 
<SimplePredicate field="EURO_EARLY_WIN" operator="lessOrEqual" value="1.50000" /> 
<ScoreDistribution recordCount="10.00" value="03" /> 
<ScoreDistribution recordCount="5.00" value="01" /> 
<ScoreDistribution recordCount="3.00" value="02" /> 
</Node> 
<Node score="02" recordCount="1.00"> 
<SimplePredicate field="EURO_EARLY_WIN" operator="greaterThan" value="1.50000" /> 
<ScoreDistribution recordCount="0" value="03" /> 
<ScoreDistribution recordCount="0" value="01" /> 
<ScoreDistribution recordCount="1.00" value="02" /> 
</Node> 
</Node> 
</Node> 
</Node> 
</Node> 
<Node score="02" recordCount="12.00"> 
<SimplePredicate field="EURO_FINAL_WIN2" operator="greaterThan" value="1.75000" /> 
<ScoreDistribution recordCount="5.00" value="03" /> 
<ScoreDistribution recordCount="0" value="01" /> 
<ScoreDistribution recordCount="7.00" value="02" /> 
<Node score="03" recordCount="2.00"> 
<SimplePredicate field="ASIAODDCHANGEVOL" operator="lessOrEqual" value="20.00000-" /> 
<ScoreDistribution recordCount="2.00" value="03" /> 
<ScoreDistribution recordCount="0" value="01" /> 
<ScoreDistribution recordCount="0" value="02" /> 
</Node> 
<Node score="02" recordCount="10.00"> 
<SimplePredicate field="ASIAODDCHANGEVOL" operator="greaterThan" value="20.00000-" /> 
<ScoreDistribution recordCount="3.00" value="03" /> 
<ScoreDistribution recordCount="0" value="01" /> 
<ScoreDistribution recordCount="7.00" value="02" /> 
</Node> 
</Node> 
</Node> 
<Node score="03" recordCount="4047.00"> 
<SimplePredicate field="ASIA_FINAL_UD_MOUTH" operator="equal" value="000741" /> 
<ScoreDistribution recordCount="2033.00" value="03" /> 
<ScoreDistribution recordCount="2014.00" value="01" /> 
<ScoreDistribution recordCount="0" value="02" /> 
<Node score="03" recordCount="116.24"> 
<SimplePredicate field="ASIA_EARLY_UD_MOUTH" operator="equal" value="000735" /> 
<ScoreDistribution recordCount="66.88" value="03" /> 
<ScoreDistribution recordCount="49.37" value="01" /> 
<ScoreDistribution recordCount="0" value="02" /> 
<Node score="01" recordCount="5.00"> 
<SimplePredicate field="EURO_FINAL_WIN" operator="lessOrEqual" value="1.70000" /> 
<ScoreDistribution recordCount="0" value="03" /> 
<ScoreDistribution recordCount="5.00" value="01" /> 
<ScoreDistribution recordCount="0" value="02" /> 
</Node> 
<Node score="03" recordCount="111.24"> 
<SimplePredicate field="EURO_FINAL_WIN" operator="greaterThan" value="1.70000" /> 
<ScoreDistribution recordCount="66.88" value="03" /> 
<ScoreDistribution recordCount="44.37" value="01" /> 
<ScoreDistribution recordCount="0" value="02" /> 
</Node> 
</Node> 
<Node score="01" recordCount="54.07"> 
<SimplePredicate field="ASIA_EARLY_UD_MOUTH" operator="equal" value="000736" /> 
<ScoreDistribution recordCount="24.92" value="03" /> 
<ScoreDistribution recordCount="29.15" value="01" /> 
<ScoreDistribution recordCount="0" value="02" /> 
</Node> 
<Node score="03" recordCount="3873.98"> 
<SimplePredicate field="ASIA_EARLY_UD_MOUTH" operator="equal" value="000741" /> 
<ScoreDistribution recordCount="1940.86" value="03" /> 
<ScoreDistribution recordCount="1933.13" value="01" /> 
<ScoreDistribution recordCount="0" value="02" /> 
<Node score="01" recordCount="2381.35"> 
<SimplePredicate field="EURO_FINAL_WIN" operator="lessOrEqual" value="1.85000" /> 
<ScoreDistribution recordCount="1141.17" value="03" /> 
<ScoreDistribution recordCount="1240.18" value="01" /> 
<ScoreDistribution recordCount="0" value="02" /> 
</Node> 
<Node score="03" recordCount="1492.64"> 
<SimplePredicate field="EURO_FINAL_WIN" operator="greaterThan" value="1.85000" /> 
<ScoreDistribution recordCount="799.69" value="03" /> 
<ScoreDistribution recordCount="692.95" value="01" /> 
<ScoreDistribution recordCount="0" value="02" /> 
</Node> 
</Node> 
<Node score="01" recordCount="2.71"> 
<SimplePredicate field="ASIA_EARLY_UD_MOUTH" operator="equal" value="000742" /> 
<ScoreDistribution recordCount="0.35" value="03" /> 
<ScoreDistribution recordCount="2.36" value="01" /> 
<ScoreDistribution recordCount="0" value="02" /> 
</Node> 
</Node> 
<Node score="01" recordCount="1.00"> 
<SimplePredicate field="ASIA_FINAL_UD_MOUTH" operator="equal" value="000742" /> 
<ScoreDistribution recordCount="0" value="03" /> 
<ScoreDistribution recordCount="1.00" value="01" /> 
<ScoreDistribution recordCount="0" value="02" /> 
</Node> 
<Node score="03" recordCount="748.00"> 
<SimplePredicate field="ASIA_FINAL_UD_MOUTH" operator="equal" value="000743" /> 
<ScoreDistribution recordCount="409.00" value="03" /> 
<ScoreDistribution recordCount="339.00" value="01" /> 
<ScoreDistribution recordCount="0" value="02" /> 
<Node score="03" recordCount="743.00"> 
<SimplePredicate field="EURO_EARLY_LOSS" operator="lessOrEqual" value="13.00000" /> 
<ScoreDistribution recordCount="404.00" value="03" /> 
<ScoreDistribution recordCount="339.00" value="01" /> 
<ScoreDistribution recordCount="0" value="02" /> 
<Node score="01" recordCount="4.00"> 
<SimplePredicate field="EURO_EARLY_WIN" operator="lessOrEqual" value="1.14000" /> 
<ScoreDistribution recordCount="0" value="03" /> 
<ScoreDistribution recordCount="4.00" value="01" /> 
<ScoreDistribution recordCount="0" value="02" /> 
</Node> 
<Node score="03" recordCount="739.00"> 
<SimplePredicate field="EURO_EARLY_WIN" operator="greaterThan" value="1.14000" /> 
<ScoreDistribution recordCount="404.00" value="03" /> 
<ScoreDistribution recordCount="335.00" value="01" /> 
<ScoreDistribution recordCount="0" value="02" /> 
<Node score="01" recordCount="91.00"> 
<SimplePredicate field="EURO_FINAL_WIN" operator="lessOrEqual" value="1.22000" /> 
<ScoreDistribution recordCount="40.00" value="03" /> 
<ScoreDistribution recordCount="51.00" value="01" /> 
<ScoreDistribution recordCount="0" value="02" /> 
<Node score="03" recordCount="1.00"> 
<SimplePredicate field="ASIA_EARLY_UD_MOUTH" operator="equal" value="000745" /> 
<ScoreDistribution recordCount="1.00" value="03" /> 
<ScoreDistribution recordCount="0" value="01" /> 
<ScoreDistribution recordCount="0" value="02" /> 
</Node> 
<Node score="01" recordCount="82.00"> 
<SimplePredicate field="ASIA_EARLY_UD_MOUTH" operator="equal" value="000743" /> 
<ScoreDistribution recordCount="35.00" value="03" /> 
<ScoreDistribution recordCount="47.00" value="01" /> 
<ScoreDistribution recordCount="0" value="02" /> 
<Node score="03" recordCount="2.00"> 
<SimplePredicate field="EURO_EARLY_WIN" operator="lessOrEqual" value="1.16000" /> 
<ScoreDistribution recordCount="2.00" value="03" /> 
<ScoreDistribution recordCount="0" value="01" /> 
<ScoreDistribution recordCount="0" value="02" /> 
</Node> 
<Node score="01" recordCount="80.00"> 
<SimplePredicate field="EURO_EARLY_WIN" operator="greaterThan" value="1.16000" /> 
<ScoreDistribution recordCount="33.00" value="03" /> 
<ScoreDistribution recordCount="47.00" value="01" /> 
<ScoreDistribution recordCount="0" value="02" /> 
</Node> 
</Node> 
<Node score="03" recordCount="7.00"> 
<SimplePredicate field="ASIA_EARLY_UD_MOUTH" operator="equal" value="000747" /> 
<ScoreDistribution recordCount="4.00" value="03" /> 
<ScoreDistribution recordCount="3.00" value="01" /> 
<ScoreDistribution recordCount="0" value="02" /> 
</Node> 
<Node score="01" recordCount="1.00"> 
<SimplePredicate field="ASIA_EARLY_UD_MOUTH" operator="equal" value="000748" /> 
<ScoreDistribution recordCount="0" value="03" /> 
<ScoreDistribution recordCount="1.00" value="01" /> 
<ScoreDistribution recordCount="0" value="02" /> 
</Node> 
</Node> 
<Node score="03" recordCount="648.00"> 
<SimplePredicate field="EURO_FINAL_WIN" operator="greaterThan" value="1.22000" /> 
<ScoreDistribution recordCount="364.00" value="03" /> 
<ScoreDistribution recordCount="284.00" value="01" /> 
<ScoreDistribution recordCount="0" value="02" /> 
</Node> 
</Node> 
</Node> 
<Node score="03" recordCount="5.00"> 
<SimplePredicate field="EURO_EARLY_LOSS" operator="greaterThan" value="13.00000" /> 
<ScoreDistribution recordCount="5.00" value="03" /> 
<ScoreDistribution recordCount="0" value="01" /> 
<ScoreDistribution recordCount="0" value="02" /> 
</Node> 
</Node> 
<Node score="01" recordCount="575.00"> 
<SimplePredicate field="ASIA_FINAL_UD_MOUTH" operator="equal" value="000744" /> 
<ScoreDistribution recordCount="250.00" value="03" /> 
<ScoreDistribution recordCount="325.00" value="01" /> 
<ScoreDistribution recordCount="0" value="02" /> 
</Node> 
<Node score="03" recordCount="1201.00"> 
<SimplePredicate field="ASIA_FINAL_UD_MOUTH" operator="equal" value="000745" /> 
<ScoreDistribution recordCount="658.00" value="03" /> 
<ScoreDistribution recordCount="543.00" value="01" /> 
<ScoreDistribution recordCount="0" value="02" /> 
<Node score="01" recordCount="396.00"> 
<SimplePredicate field="EURO_FINAL_WIN2" operator="lessOrEqual" value="1.37000" /> 
<ScoreDistribution recordCount="196.00" value="03" /> 
<ScoreDistribution recordCount="200.00" value="01" /> 
<ScoreDistribution recordCount="0" value="02" /> 
<Node score="01" recordCount="1.18"> 
<SimplePredicate field="ASIA_EARLY_UD_MOUTH" operator="equal" value="000736" /> 
<ScoreDistribution recordCount="0.09" value="03" /> 
<ScoreDistribution recordCount="1.09" value="01" /> 
<ScoreDistribution recordCount="0" value="02" /> 
</Node> 
<Node score="01" recordCount="366.54"> 
<SimplePredicate field="ASIA_EARLY_UD_MOUTH" operator="equal" value="000745" /> 
<ScoreDistribution recordCount="179.77" value="03" /> 
<ScoreDistribution recordCount="186.77" value="01" /> 
<ScoreDistribution recordCount="0" value="02" /> 
<Node score="03" recordCount="3.93"> 
<SimplePredicate field="EURO_EARLY_LOSS" operator="lessOrEqual" value="5.50000" /> 
<ScoreDistribution recordCount="3.93" value="03" /> 
<ScoreDistribution recordCount="0" value="01" /> 
<ScoreDistribution recordCount="0" value="02" /> 
</Node> 
<Node score="01" recordCount="362.61"> 
<SimplePredicate field="EURO_EARLY_LOSS" operator="greaterThan" value="5.50000" /> 
<ScoreDistribution recordCount="175.84" value="03" /> 
<ScoreDistribution recordCount="186.77" value="01" /> 
<ScoreDistribution recordCount="0" value="02" /> 
</Node> 
</Node> 
<Node score="03" recordCount="5.89"> 
<SimplePredicate field="ASIA_EARLY_UD_MOUTH" operator="equal" value="000740" /> 
<ScoreDistribution recordCount="4.45" value="03" /> 
<ScoreDistribution recordCount="1.45" value="01" /> 
<ScoreDistribution recordCount="0" value="02" /> 
</Node> 
<Node score="03" recordCount="21.21"> 
<SimplePredicate field="ASIA_EARLY_UD_MOUTH" operator="equal" value="000743" /> 
<ScoreDistribution recordCount="10.61" value="03" /> 
<ScoreDistribution recordCount="10.61" value="01" /> 
<ScoreDistribution recordCount="0" value="02" /> 
</Node> 
<Node score="03" recordCount="1.18"> 
<SimplePredicate field="ASIA_EARLY_UD_MOUTH" operator="equal" value="000747" /> 
<ScoreDistribution recordCount="1.09" value="03" /> 
<ScoreDistribution recordCount="0.09" value="01" /> 
<ScoreDistribution recordCount="0" value="02" /> 
</Node> 
</Node> 
<Node score="03" recordCount="805.00"> 
<SimplePredicate field="EURO_FINAL_WIN2" operator="greaterThan" value="1.37000" /> 
<ScoreDistribution recordCount="462.00" value="03" /> 
<ScoreDistribution recordCount="343.00" value="01" /> 
<ScoreDistribution recordCount="0" value="02" /> 
</Node> 
</Node> 
<Node score="01" recordCount="493.00"> 
<SimplePredicate field="ASIA_FINAL_UD_MOUTH" operator="equal" value="000747" /> 
<ScoreDistribution recordCount="204.00" value="03" /> 
<ScoreDistribution recordCount="289.00" value="01" /> 
<ScoreDistribution recordCount="0" value="02" /> 
<Node score="03" recordCount="1.89"> 
<SimplePredicate field="ASIA_EARLY_UD_MOUTH" operator="equal" value="000745" /> 
<ScoreDistribution recordCount="1.40" value="03" /> 
<ScoreDistribution recordCount="0.49" value="01" /> 
<ScoreDistribution recordCount="0" value="02" /> 
</Node> 
<Node score="01" recordCount="51.00"> 
<SimplePredicate field="ASIA_EARLY_UD_MOUTH" operator="equal" value="000743" /> 
<ScoreDistribution recordCount="21.86" value="03" /> 
<ScoreDistribution recordCount="29.14" value="01" /> 
<ScoreDistribution recordCount="0" value="02" /> 
<Node score="01" recordCount="27.00"> 
<SimplePredicate field="ASIAODDCHANGEVOL" operator="lessOrEqual" value="10.00000-" /> 
<ScoreDistribution recordCount="11.00" value="03" /> 
<ScoreDistribution recordCount="16.00" value="01" /> 
<ScoreDistribution recordCount="0" value="02" /> 
<Node score="01" recordCount="6.00"> 
<SimplePredicate field="EURO_EARLY_WIN" operator="lessOrEqual" value="1.22000" /> 
<ScoreDistribution recordCount="0" value="03" /> 
<ScoreDistribution recordCount="6.00" value="01" /> 
<ScoreDistribution recordCount="0" value="02" /> 
</Node> 
<Node score="03" recordCount="21.00"> 
<SimplePredicate field="EURO_EARLY_WIN" operator="greaterThan" value="1.22000" /> 
<ScoreDistribution recordCount="11.00" value="03" /> 
<ScoreDistribution recordCount="10.00" value="01" /> 
<ScoreDistribution recordCount="0" value="02" /> 
<Node score="03" recordCount="3.00"> 
<SimplePredicate field="EURO_FINAL_WIN" operator="lessOrEqual" value="1.20000" /> 
<ScoreDistribution recordCount="3.00" value="03" /> 
<ScoreDistribution recordCount="0" value="01" /> 
<ScoreDistribution recordCount="0" value="02" /> 
</Node> 
<Node score="01" recordCount="18.00"> 
<SimplePredicate field="EURO_FINAL_WIN" operator="greaterThan" value="1.20000" /> 
<ScoreDistribution recordCount="8.00" value="03" /> 
<ScoreDistribution recordCount="10.00" value="01" /> 
<ScoreDistribution recordCount="0" value="02" /> 
<Node score="03" recordCount="11.00"> 
<SimplePredicate field="EURO_FINAL_LOSS" operator="lessOrEqual" value="11.00000" /> 
<ScoreDistribution recordCount="7.00" value="03" /> 
<ScoreDistribution recordCount="4.00" value="01" /> 
<ScoreDistribution recordCount="0" value="02" /> 
<Node score="01" recordCount="2.00"> 
<SimplePredicate field="EURO_EARLY_LOSS" operator="lessOrEqual" value="7.00000" /> 
<ScoreDistribution recordCount="0" value="03" /> 
<ScoreDistribution recordCount="2.00" value="01" /> 
<ScoreDistribution recordCount="0" value="02" /> 
</Node> 
<Node score="03" recordCount="9.00"> 
<SimplePredicate field="EURO_EARLY_LOSS" operator="greaterThan" value="7.00000" /> 
<ScoreDistribution recordCount="7.00" value="03" /> 
<ScoreDistribution recordCount="2.00" value="01" /> 
<ScoreDistribution recordCount="0" value="02" /> 
</Node> 
</Node> 
<Node score="01" recordCount="7.00"> 
<SimplePredicate field="EURO_FINAL_LOSS" operator="greaterThan" value="11.00000" /> 
<ScoreDistribution recordCount="1.00" value="03" /> 
<ScoreDistribution recordCount="6.00" value="01" /> 
<ScoreDistribution recordCount="0" value="02" /> 
</Node> 
</Node> 
</Node> 
</Node> 
<Node score="01" recordCount="24.00"> 
<SimplePredicate field="ASIAODDCHANGEVOL" operator="greaterThan" value="10.00000-" /> 
<ScoreDistribution recordCount="10.86" value="03" /> 
<ScoreDistribution recordCount="13.14" value="01" /> 
<ScoreDistribution recordCount="0" value="02" /> 
</Node> 
</Node> 
<Node score="01" recordCount="428.78"> 
<SimplePredicate field="ASIA_EARLY_UD_MOUTH" operator="equal" value="000747" /> 
<ScoreDistribution recordCount="173.32" value="03" /> 
<ScoreDistribution recordCount="255.46" value="01" /> 
<ScoreDistribution recordCount="0" value="02" /> 
<Node score="01" recordCount="244.58"> 
<SimplePredicate field="EURO_EARLY_WIN" operator="lessOrEqual" value="1.20000" /> 
<ScoreDistribution recordCount="79.05" value="03" /> 
<ScoreDistribution recordCount="165.53" value="01" /> 
<ScoreDistribution recordCount="0" value="02" /> 
</Node> 
<Node score="03" recordCount="184.20"> 
<SimplePredicate field="EURO_EARLY_WIN" operator="greaterThan" value="1.20000" /> 
<ScoreDistribution recordCount="94.27" value="03" /> 
<ScoreDistribution recordCount="89.92" value="01" /> 
<ScoreDistribution recordCount="0" value="02" /> 
</Node> 
</Node> 
<Node score="03" recordCount="9.45"> 
<SimplePredicate field="ASIA_EARLY_UD_MOUTH" operator="equal" value="000748" /> 
<ScoreDistribution recordCount="6.01" value="03" /> 
<ScoreDistribution recordCount="3.43" value="01" /> 
<ScoreDistribution recordCount="0" value="02" /> 
</Node> 
<Node score="03" recordCount="1.89"> 
<SimplePredicate field="ASIA_EARLY_UD_MOUTH" operator="equal" value="000750" /> 
<ScoreDistribution recordCount="1.40" value="03" /> 
<ScoreDistribution recordCount="0.49" value="01" /> 
<ScoreDistribution recordCount="0" value="02" /> 
</Node> 
</Node> 
<Node score="03" recordCount="119.00"> 
<SimplePredicate field="ASIA_FINAL_UD_MOUTH" operator="equal" value="000748" /> 
<ScoreDistribution recordCount="53.00" value="03" /> 
<ScoreDistribution recordCount="38.00" value="01" /> 
<ScoreDistribution recordCount="28.00" value="02" /> 
<Node score="03" recordCount="2.00"> 
<SimplePredicate field="ASIA_EARLY_UD_MOUTH" operator="equal" value="000743" /> 
<ScoreDistribution recordCount="2.00" value="03" /> 
<ScoreDistribution recordCount="0" value="01" /> 
<ScoreDistribution recordCount="0" value="02" /> 
</Node> 
<Node score="01" recordCount="14.00"> 
<SimplePredicate field="ASIA_EARLY_UD_MOUTH" operator="equal" value="000747" /> 
<ScoreDistribution recordCount="5.00" value="03" /> 
<ScoreDistribution recordCount="7.00" value="01" /> 
<ScoreDistribution recordCount="2.00" value="02" /> 
<Node score="02" recordCount="1.00"> 
<SimplePredicate field="EURO_FINAL_WIN2" operator="lessOrEqual" value="1.12000" /> 
<ScoreDistribution recordCount="0" value="03" /> 
<ScoreDistribution recordCount="0" value="01" /> 
<ScoreDistribution recordCount="1.00" value="02" /> 
</Node> 
<Node score="01" recordCount="13.00"> 
<SimplePredicate field="EURO_FINAL_WIN2" operator="greaterThan" value="1.12000" /> 
<ScoreDistribution recordCount="5.00" value="03" /> 
<ScoreDistribution recordCount="7.00" value="01" /> 
<ScoreDistribution recordCount="1.00" value="02" /> 
<Node score="01" recordCount="12.00"> 
<SimplePredicate field="EURO_EARLY_WIN2" operator="lessOrEqual" value="1.25000" /> 
<ScoreDistribution recordCount="5.00" value="03" /> 
<ScoreDistribution recordCount="7.00" value="01" /> 
<ScoreDistribution recordCount="0" value="02" /> 
<Node score="01" recordCount="3.00"> 
<SimplePredicate field="EURO_FINAL_WIN" operator="lessOrEqual" value="1.14000" /> 
<ScoreDistribution recordCount="0" value="03" /> 
<ScoreDistribution recordCount="3.00" value="01" /> 
<ScoreDistribution recordCount="0" value="02" /> 
</Node> 
<Node score="03" recordCount="9.00"> 
<SimplePredicate field="EURO_FINAL_WIN" operator="greaterThan" value="1.14000" /> 
<ScoreDistribution recordCount="5.00" value="03" /> 
<ScoreDistribution recordCount="4.00" value="01" /> 
<ScoreDistribution recordCount="0" value="02" /> 
</Node> 
</Node> 
<Node score="02" recordCount="1.00"> 
<SimplePredicate field="EURO_EARLY_WIN2" operator="greaterThan" value="1.25000" /> 
<ScoreDistribution recordCount="0" value="03" /> 
<ScoreDistribution recordCount="0" value="01" /> 
<ScoreDistribution recordCount="1.00" value="02" /> 
</Node> 
</Node> 
</Node> 
<Node score="03" recordCount="99.00"> 
<SimplePredicate field="ASIA_EARLY_UD_MOUTH" operator="equal" value="000748" /> 
<ScoreDistribution recordCount="45.00" value="03" /> 
<ScoreDistribution recordCount="29.00" value="01" /> 
<ScoreDistribution recordCount="25.00" value="02" /> 
<Node score="03" recordCount="93.00"> 
<SimplePredicate field="EURO_FINAL_LOSS" operator="lessOrEqual" value="19.00000" /> 
<ScoreDistribution recordCount="42.00" value="03" /> 
<ScoreDistribution recordCount="29.00" value="01" /> 
<ScoreDistribution recordCount="22.00" value="02" /> 
<Node score="03" recordCount="91.00"> 
<SimplePredicate field="EURO_EARLY_LOSS" operator="lessOrEqual" value="15.00000" /> 
<ScoreDistribution recordCount="42.00" value="03" /> 
<ScoreDistribution recordCount="27.00" value="01" /> 
<ScoreDistribution recordCount="22.00" value="02" /> 
</Node> 
<Node score="01" recordCount="2.00"> 
<SimplePredicate field="EURO_EARLY_LOSS" operator="greaterThan" value="15.00000" /> 
<ScoreDistribution recordCount="0" value="03" /> 
<ScoreDistribution recordCount="2.00" value="01" /> 
<ScoreDistribution recordCount="0" value="02" /> 
</Node> 
</Node> 
<Node score="03" recordCount="6.00"> 
<SimplePredicate field="EURO_FINAL_LOSS" operator="greaterThan" value="19.00000" /> 
<ScoreDistribution recordCount="3.00" value="03" /> 
<ScoreDistribution recordCount="0" value="01" /> 
<ScoreDistribution recordCount="3.00" value="02" /> 
</Node> 
</Node> 
<Node score="01" recordCount="3.00"> 
<SimplePredicate field="ASIA_EARLY_UD_MOUTH" operator="equal" value="000750" /> 
<ScoreDistribution recordCount="1.00" value="03" /> 
<ScoreDistribution recordCount="2.00" value="01" /> 
<ScoreDistribution recordCount="0" value="02" /> 
</Node> 
<Node score="02" recordCount="1.00"> 
<SimplePredicate field="ASIA_EARLY_UD_MOUTH" operator="equal" value="001209" /> 
<ScoreDistribution recordCount="0" value="03" /> 
<ScoreDistribution recordCount="0" value="01" /> 
<ScoreDistribution recordCount="1.00" value="02" /> 
</Node> 
</Node> 
<Node score="03" recordCount="262.00"> 
<SimplePredicate field="ASIA_FINAL_UD_MOUTH" operator="equal" value="000749" /> 
<ScoreDistribution recordCount="149.00" value="03" /> 
<ScoreDistribution recordCount="113.00" value="01" /> 
<ScoreDistribution recordCount="0" value="02" /> 
<Node score="03" recordCount="260.00"> 
<SimplePredicate field="ASIAODDCHANGEVOL" operator="lessOrEqual" value="10.00000" /> 
<ScoreDistribution recordCount="149.00" value="03" /> 
<ScoreDistribution recordCount="111.00" value="01" /> 
<ScoreDistribution recordCount="0" value="02" /> 
</Node> 
<Node score="01" recordCount="2.00"> 
<SimplePredicate field="ASIAODDCHANGEVOL" operator="greaterThan" value="10.00000" /> 
<ScoreDistribution recordCount="0" value="03" /> 
<ScoreDistribution recordCount="2.00" value="01" /> 
<ScoreDistribution recordCount="0" value="02" /> 
</Node> 
</Node> 
<Node score="01" recordCount="2434.00"> 
<SimplePredicate field="ASIA_FINAL_UD_MOUTH" operator="equal" value="006836" /> 
<ScoreDistribution recordCount="790.00" value="03" /> 
<ScoreDistribution recordCount="952.00" value="01" /> 
<ScoreDistribution recordCount="692.00" value="02" /> 
<Node score="03" recordCount="120.05"> 
<SimplePredicate field="ASIA_EARLY_UD_MOUTH" operator="equal" value="000735" /> 
<ScoreDistribution recordCount="44.91" value="03" /> 
<ScoreDistribution recordCount="39.69" value="01" /> 
<ScoreDistribution recordCount="35.45" value="02" /> 
</Node> 
<Node score="01" recordCount="3.96"> 
<SimplePredicate field="ASIA_EARLY_UD_MOUTH" operator="equal" value="000741" /> 
<ScoreDistribution recordCount="0.33" value="03" /> 
<ScoreDistribution recordCount="3.39" value="01" /> 
<ScoreDistribution recordCount="0.25" value="02" /> 
</Node> 
<Node score="01" recordCount="21.11"> 
<SimplePredicate field="ASIA_EARLY_UD_MOUTH" operator="equal" value="000738" /> 
<ScoreDistribution recordCount="4.74" value="03" /> 
<ScoreDistribution recordCount="10.05" value="01" /> 
<ScoreDistribution recordCount="6.31" value="02" /> 
<Node score="01" recordCount="16.00"> 
<SimplePredicate field="ASIAODDCHANGEVOL" operator="lessOrEqual" value="30.00000-" /> 
<ScoreDistribution recordCount="3.00" value="03" /> 
<ScoreDistribution recordCount="8.00" value="01" /> 
<ScoreDistribution recordCount="5.00" value="02" /> 
<Node score="01" recordCount="14.00"> 
<SimplePredicate field="EURO_EARLY_WIN2" operator="lessOrEqual" value="2.90000" /> 
<ScoreDistribution recordCount="3.00" value="03" /> 
<ScoreDistribution recordCount="8.00" value="01" /> 
<ScoreDistribution recordCount="3.00" value="02" /> 
<Node score="01" recordCount="11.00"> 
<SimplePredicate field="EURO_FINAL_LOSS" operator="lessOrEqual" value="2.75000" /> 
<ScoreDistribution recordCount="3.00" value="03" /> 
<ScoreDistribution recordCount="5.00" value="01" /> 
<ScoreDistribution recordCount="3.00" value="02" /> 
<Node score="02" recordCount="2.00"> 
<SimplePredicate field="EURO_FINAL_WIN2" operator="lessOrEqual" value="2.40000" /> 
<ScoreDistribution recordCount="0" value="03" /> 
<ScoreDistribution recordCount="0" value="01" /> 
<ScoreDistribution recordCount="2.00" value="02" /> 
</Node> 
<Node score="01" recordCount="9.00"> 
<SimplePredicate field="EURO_FINAL_WIN2" operator="greaterThan" value="2.40000" /> 
<ScoreDistribution recordCount="3.00" value="03" /> 
<ScoreDistribution recordCount="5.00" value="01" /> 
<ScoreDistribution recordCount="1.00" value="02" /> 
</Node> 
</Node> 
<Node score="01" recordCount="3.00"> 
<SimplePredicate field="EURO_FINAL_LOSS" operator="greaterThan" value="2.75000" /> 
<ScoreDistribution recordCount="0" value="03" /> 
<ScoreDistribution recordCount="3.00" value="01" /> 
<ScoreDistribution recordCount="0" value="02" /> 
</Node> 
</Node> 
<Node score="02" recordCount="2.00"> 
<SimplePredicate field="EURO_EARLY_WIN2" operator="greaterThan" value="2.90000" /> 
<ScoreDistribution recordCount="0" value="03" /> 
<ScoreDistribution recordCount="0" value="01" /> 
<ScoreDistribution recordCount="2.00" value="02" /> 
</Node> 
</Node> 
<Node score="01" recordCount="5.11"> 
<SimplePredicate field="ASIAODDCHANGEVOL" operator="greaterThan" value="30.00000-" /> 
<ScoreDistribution recordCount="1.74" value="03" /> 
<ScoreDistribution recordCount="2.05" value="01" /> 
<ScoreDistribution recordCount="1.31" value="02" /> 
</Node> 
</Node> 
<Node score="01" recordCount="1654.33"> 
<SimplePredicate field="ASIA_EARLY_UD_MOUTH" operator="equal" value="000742" /> 
<ScoreDistribution recordCount="526.61" value="03" /> 
<ScoreDistribution recordCount="662.08" value="01" /> 
<ScoreDistribution recordCount="465.63" value="02" /> 
<Node score="01" recordCount="1254.00"> 
<SimplePredicate field="ASIAODDCHANGEVOL" operator="lessOrEqual" value="10.00000-" /> 
<ScoreDistribution recordCount="390.00" value="03" /> 
<ScoreDistribution recordCount="501.00" value="01" /> 
<ScoreDistribution recordCount="363.00" value="02" /> 
<Node score="01" recordCount="592.00"> 
<SimplePredicate field="EURO_FINAL_LOSS" operator="lessOrEqual" value="2.62000" /> 
<ScoreDistribution recordCount="202.00" value="03" /> 
<ScoreDistribution recordCount="214.00" value="01" /> 
<ScoreDistribution recordCount="176.00" value="02" /> 
<Node score="01" recordCount="555.00"> 
<SimplePredicate field="EURO_EARLY_LOSS" operator="lessOrEqual" value="2.65000" /> 
<ScoreDistribution recordCount="179.00" value="03" /> 
<ScoreDistribution recordCount="208.00" value="01" /> 
<ScoreDistribution recordCount="168.00" value="02" /> 
<Node score="01" recordCount="39.00"> 
<SimplePredicate field="EURO_FINAL_WIN" operator="lessOrEqual" value="2.30000" /> 
<ScoreDistribution recordCount="8.00" value="03" /> 
<ScoreDistribution recordCount="21.00" value="01" /> 
<ScoreDistribution recordCount="10.00" value="02" /> 
</Node> 
<Node score="01" recordCount="516.00"> 
<SimplePredicate field="EURO_FINAL_WIN" operator="greaterThan" value="2.30000" /> 
<ScoreDistribution recordCount="171.00" value="03" /> 
<ScoreDistribution recordCount="187.00" value="01" /> 
<ScoreDistribution recordCount="158.00" value="02" /> 
<Node score="03" recordCount="234.00"> 
<SimplePredicate field="EURO_EARLY_WIN" operator="lessOrEqual" value="2.40000" /> 
<ScoreDistribution recordCount="87.00" value="03" /> 
<ScoreDistribution recordCount="71.00" value="01" /> 
<ScoreDistribution recordCount="76.00" value="02" /> 
<Node score="03" recordCount="221.00"> 
<SimplePredicate field="EURO_FINAL_WIN" operator="lessOrEqual" value="2.60000" /> 
<ScoreDistribution recordCount="84.00" value="03" /> 
<ScoreDistribution recordCount="64.00" value="01" /> 
<ScoreDistribution recordCount="73.00" value="02" /> 
</Node> 
<Node score="01" recordCount="13.00"> 
<SimplePredicate field="EURO_FINAL_WIN" operator="greaterThan" value="2.60000" /> 
<ScoreDistribution recordCount="3.00" value="03" /> 
<ScoreDistribution recordCount="7.00" value="01" /> 
<ScoreDistribution recordCount="3.00" value="02" /> 
</Node> 
</Node> 
<Node score="01" recordCount="282.00"> 
<SimplePredicate field="EURO_EARLY_WIN" operator="greaterThan" value="2.40000" /> 
<ScoreDistribution recordCount="84.00" value="03" /> 
<ScoreDistribution recordCount="116.00" value="01" /> 
<ScoreDistribution recordCount="82.00" value="02" /> 
<Node score="01" recordCount="14.00"> 
<SimplePredicate field="EURO_FINAL_WIN" operator="lessOrEqual" value="2.40000" /> 
<ScoreDistribution recordCount="3.00" value="03" /> 
<ScoreDistribution recordCount="10.00" value="01" /> 
<ScoreDistribution recordCount="1.00" value="02" /> 
<Node score="03" recordCount="4.00"> 
<SimplePredicate field="EURO_EARLY_WIN" operator="lessOrEqual" value="2.50000" /> 
<ScoreDistribution recordCount="2.00" value="03" /> 
<ScoreDistribution recordCount="1.00" value="01" /> 
<ScoreDistribution recordCount="1.00" value="02" /> 
</Node> 
<Node score="01" recordCount="10.00"> 
<SimplePredicate field="EURO_EARLY_WIN" operator="greaterThan" value="2.50000" /> 
<ScoreDistribution recordCount="1.00" value="03" /> 
<ScoreDistribution recordCount="9.00" value="01" /> 
<ScoreDistribution recordCount="0" value="02" /> 
</Node> 
</Node> 
<Node score="01" recordCount="268.00"> 
<SimplePredicate field="EURO_FINAL_WIN" operator="greaterThan" value="2.40000" /> 
<ScoreDistribution recordCount="81.00" value="03" /> 
<ScoreDistribution recordCount="106.00" value="01" /> 
<ScoreDistribution recordCount="81.00" value="02" /> 
<Node score="01" recordCount="195.00"> 
<SimplePredicate field="EURO_FINAL_WIN2" operator="lessOrEqual" value="2.55000" /> 
<ScoreDistribution recordCount="60.00" value="03" /> 
<ScoreDistribution recordCount="84.00" value="01" /> 
<ScoreDistribution recordCount="51.00" value="02" /> 
</Node> 
<Node score="02" recordCount="73.00"> 
<SimplePredicate field="EURO_FINAL_WIN2" operator="greaterThan" value="2.55000" /> 
<ScoreDistribution recordCount="21.00" value="03" /> 
<ScoreDistribution recordCount="22.00" value="01" /> 
<ScoreDistribution recordCount="30.00" value="02" /> 
<Node score="02" recordCount="69.00"> 
<SimplePredicate field="EURO_FINAL_WIN2" operator="lessOrEqual" value="2.70000" /> 
<ScoreDistribution recordCount="21.00" value="03" /> 
<ScoreDistribution recordCount="19.00" value="01" /> 
<ScoreDistribution recordCount="29.00" value="02" /> 
<Node score="02" recordCount="66.00"> 
<SimplePredicate field="EURO_EARLY_WIN" operator="lessOrEqual" value="2.60000" /> 
<ScoreDistribution recordCount="19.00" value="03" /> 
<ScoreDistribution recordCount="18.00" value="01" /> 
<ScoreDistribution recordCount="29.00" value="02" /> 
</Node> 
<Node score="03" recordCount="3.00"> 
<SimplePredicate field="EURO_EARLY_WIN" operator="greaterThan" value="2.60000" /> 
<ScoreDistribution recordCount="2.00" value="03" /> 
<ScoreDistribution recordCount="1.00" value="01" /> 
<ScoreDistribution recordCount="0" value="02" /> 
</Node> 
</Node> 
<Node score="01" recordCount="4.00"> 
<SimplePredicate field="EURO_FINAL_WIN2" operator="greaterThan" value="2.70000" /> 
<ScoreDistribution recordCount="0" value="03" /> 
<ScoreDistribution recordCount="3.00" value="01" /> 
<ScoreDistribution recordCount="1.00" value="02" /> 
</Node> 
</Node> 
</Node> 
</Node> 
</Node> 
</Node> 
<Node score="03" recordCount="37.00"> 
<SimplePredicate field="EURO_EARLY_LOSS" operator="greaterThan" value="2.65000" /> 
<ScoreDistribution recordCount="23.00" value="03" /> 
<ScoreDistribution recordCount="6.00" value="01" /> 
<ScoreDistribution recordCount="8.00" value="02" /> 
</Node> 
</Node> 
<Node score="01" recordCount="662.00"> 
<SimplePredicate field="EURO_FINAL_LOSS" operator="greaterThan" value="2.62000" /> 
<ScoreDistribution recordCount="188.00" value="03" /> 
<ScoreDistribution recordCount="287.00" value="01" /> 
<ScoreDistribution recordCount="187.00" value="02" /> 
</Node> 
</Node> 
<Node score="01" recordCount="400.33"> 
<SimplePredicate field="ASIAODDCHANGEVOL" operator="greaterThan" value="10.00000-" /> 
<ScoreDistribution recordCount="136.61" value="03" /> 
<ScoreDistribution recordCount="161.08" value="01" /> 
<ScoreDistribution recordCount="102.63" value="02" /> 
<Node score="01" recordCount="396.93"> 
<SimplePredicate field="EURO_EARLY_LOSS" operator="lessOrEqual" value="3.30000" /> 
<ScoreDistribution recordCount="133.22" value="03" /> 
<ScoreDistribution recordCount="161.08" value="01" /> 
<ScoreDistribution recordCount="102.63" value="02" /> 
<Node score="03" recordCount="6.80"> 
<SimplePredicate field="EURO_EARLY_WIN2" operator="lessOrEqual" value="1.90000" /> 
<ScoreDistribution recordCount="4.76" value="03" /> 
<ScoreDistribution recordCount="2.04" value="01" /> 
<ScoreDistribution recordCount="0" value="02" /> 
</Node> 
<Node score="01" recordCount="390.13"> 
<SimplePredicate field="EURO_EARLY_WIN2" operator="greaterThan" value="1.90000" /> 
<ScoreDistribution recordCount="128.46" value="03" /> 
<ScoreDistribution recordCount="159.04" value="01" /> 
<ScoreDistribution recordCount="102.63" value="02" /> 
<Node score="02" recordCount="9.52"> 
<SimplePredicate field="EURO_EARLY_LOSS" operator="lessOrEqual" value="2.35000" /> 
<ScoreDistribution recordCount="1.36" value="03" /> 
<ScoreDistribution recordCount="2.04" value="01" /> 
<ScoreDistribution recordCount="6.12" value="02" /> 
</Node> 
<Node score="01" recordCount="380.62"> 
<SimplePredicate field="EURO_EARLY_LOSS" operator="greaterThan" value="2.35000" /> 
<ScoreDistribution recordCount="127.10" value="03" /> 
<ScoreDistribution recordCount="157.00" value="01" /> 
<ScoreDistribution recordCount="96.51" value="02" /> 
</Node> 
</Node> 
</Node> 
<Node score="03" recordCount="3.40"> 
<SimplePredicate field="EURO_EARLY_LOSS" operator="greaterThan" value="3.30000" /> 
<ScoreDistribution recordCount="3.40" value="03" /> 
<ScoreDistribution recordCount="0" value="01" /> 
<ScoreDistribution recordCount="0" value="02" /> 
</Node> 
</Node> 
</Node> 
<Node score="01" recordCount="550.13"> 
<SimplePredicate field="ASIA_EARLY_UD_MOUTH" operator="equal" value="006836" /> 
<ScoreDistribution recordCount="180.43" value="03" /> 
<ScoreDistribution recordCount="208.57" value="01" /> 
<ScoreDistribution recordCount="161.13" value="02" /> 
<Node score="01" recordCount="545.77"> 
<SimplePredicate field="EURO_EARLY_LOSS" operator="lessOrEqual" value="3.20000" /> 
<ScoreDistribution recordCount="176.30" value="03" /> 
<ScoreDistribution recordCount="208.34" value="01" /> 
<ScoreDistribution recordCount="161.13" value="02" /> 
<Node score="01" recordCount="534.87"> 
<SimplePredicate field="EURO_FINAL_LOSS" operator="lessOrEqual" value="3.00000" /> 
<ScoreDistribution recordCount="175.62" value="03" /> 
<ScoreDistribution recordCount="205.11" value="01" /> 
<ScoreDistribution recordCount="154.13" value="02" /> 
<Node score="02" recordCount="131.50"> 
<SimplePredicate field="EURO_EARLY_WIN" operator="lessOrEqual" value="2.30000" /> 
<ScoreDistribution recordCount="40.42" value="03" /> 
<ScoreDistribution recordCount="41.88" value="01" /> 
<ScoreDistribution recordCount="49.20" value="02" /> 
<Node score="02" recordCount="126.50"> 
<SimplePredicate field="EURO_FINAL_WIN" operator="lessOrEqual" value="2.60000" /> 
<ScoreDistribution recordCount="40.42" value="03" /> 
<ScoreDistribution recordCount="40.88" value="01" /> 
<ScoreDistribution recordCount="45.20" value="02" /> 
<Node score="03" recordCount="72.05"> 
<SimplePredicate field="EURO_FINAL_LOSS" operator="lessOrEqual" value="2.75000" /> 
<ScoreDistribution recordCount="28.20" value="03" /> 
<ScoreDistribution recordCount="17.65" value="01" /> 
<ScoreDistribution recordCount="26.20" value="02" /> 
</Node> 
<Node score="01" recordCount="54.45"> 
<SimplePredicate field="EURO_FINAL_LOSS" operator="greaterThan" value="2.75000" /> 
<ScoreDistribution recordCount="12.23" value="03" /> 
<ScoreDistribution recordCount="23.23" value="01" /> 
<ScoreDistribution recordCount="19.00" value="02" /> 
<Node score="01" recordCount="38.23"> 
<SimplePredicate field="EURO_FINAL_LOSS" operator="lessOrEqual" value="2.95000" /> 
<ScoreDistribution recordCount="5.23" value="03" /> 
<ScoreDistribution recordCount="17.00" value="01" /> 
<ScoreDistribution recordCount="16.00" value="02" /> 
<Node score="03" recordCount="1.00"> 
<SimplePredicate field="EURO_FINAL_WIN2" operator="lessOrEqual" value="2.10000" /> 
<ScoreDistribution recordCount="1.00" value="03" /> 
<ScoreDistribution recordCount="0" value="01" /> 
<ScoreDistribution recordCount="0" value="02" /> 
</Node> 
<Node score="01" recordCount="37.23"> 
<SimplePredicate field="EURO_FINAL_WIN2" operator="greaterThan" value="2.10000" /> 
<ScoreDistribution recordCount="4.23" value="03" /> 
<ScoreDistribution recordCount="17.00" value="01" /> 
<ScoreDistribution recordCount="16.00" value="02" /> 
<Node score="01" recordCount="32.23"> 
<SimplePredicate field="EURO_FINAL_WIN2" operator="lessOrEqual" value="2.40000" /> 
<ScoreDistribution recordCount="2.23" value="03" /> 
<ScoreDistribution recordCount="16.00" value="01" /> 
<ScoreDistribution recordCount="14.00" value="02" /> 
<Node score="02" recordCount="7.23"> 
<SimplePredicate field="EURO_FINAL_WIN2" operator="lessOrEqual" value="2.20000" /> 
<ScoreDistribution recordCount="1.23" value="03" /> 
<ScoreDistribution recordCount="2.00" value="01" /> 
<ScoreDistribution recordCount="4.00" value="02" /> 
</Node> 
<Node score="01" recordCount="25.00"> 
<SimplePredicate field="EURO_FINAL_WIN2" operator="greaterThan" value="2.20000" /> 
<ScoreDistribution recordCount="1.00" value="03" /> 
<ScoreDistribution recordCount="14.00" value="01" /> 
<ScoreDistribution recordCount="10.00" value="02" /> 
</Node> 
</Node> 
<Node score="03" recordCount="5.00"> 
<SimplePredicate field="EURO_FINAL_WIN2" operator="greaterThan" value="2.40000" /> 
<ScoreDistribution recordCount="2.00" value="03" /> 
<ScoreDistribution recordCount="1.00" value="01" /> 
<ScoreDistribution recordCount="2.00" value="02" /> 
</Node> 
</Node> 
</Node> 
<Node score="03" recordCount="16.23"> 
<SimplePredicate field="EURO_FINAL_LOSS" operator="greaterThan" value="2.95000" /> 
<ScoreDistribution recordCount="7.00" value="03" /> 
<ScoreDistribution recordCount="6.23" value="01" /> 
<ScoreDistribution recordCount="3.00" value="02" /> 
<Node score="03" recordCount="3.00"> 
<SimplePredicate field="EURO_EARLY_LOSS" operator="lessOrEqual" value="2.75000" /> 
<ScoreDistribution recordCount="3.00" value="03" /> 
<ScoreDistribution recordCount="0" value="01" /> 
<ScoreDistribution recordCount="0" value="02" /> 
</Node> 
<Node score="01" recordCount="13.23"> 
<SimplePredicate field="EURO_EARLY_LOSS" operator="greaterThan" value="2.75000" /> 
<ScoreDistribution recordCount="4.00" value="03" /> 
<ScoreDistribution recordCount="6.23" value="01" /> 
<ScoreDistribution recordCount="3.00" value="02" /> 
